baseline/conv2d/kernel:0
(5, 5, 3, 6)
[[[[-0.03687261 -0.10667014 -0.03616479  0.15775171  0.09386721
     0.02539261]
   [ 0.03605746 -0.12141094  0.03754507  0.1193839  -0.04888615
     0.05630548]
   [-0.10460444 -0.00273138 -0.15121725  0.03793207 -0.12876686
     0.1463731 ]]

  [[ 0.00754867 -0.15022811  0.10712025 -0.08974695 -0.1281023
    -0.02963158]
   [-0.1056662  -0.03478692  0.16234884 -0.0840992  -0.09725265
     0.14035779]
   [ 0.12713963 -0.04756264 -0.04023425 -0.00912584  0.04794629
     0.05311485]]

  [[-0.09547965 -0.1594489   0.06436349  0.14112416  0.16020033
     0.08302724]
   [-0.02665639  0.14125812 -0.05109302 -0.07490383 -0.04252494
    -0.05620372]
   [-0.04632299  0.01347281 -0.15543781  0.08582349  0.16046137
    -0.04541654]]

  [[-0.05034857  0.06856771  0.01733872  0.08187979 -0.09615893
     0.05960211]
   [-0.13947068  0.09696758  0.1355693   0.11220089 -0.05726275
    -0.00756755]
   [ 0.04263648 -0.00093013 -0.08203986  0.01936063  0.07383016
    -0.01032254]]

  [[ 0.12823081 -0.10979328  0.01942763 -0.13760296  0.16187397
     0.01044747]
   [-0.02317102  0.07574148 -0.00202641  0.12339541 -0.09289944
     0.0129316 ]
   [ 0.07313228 -0.08238777  0.03779572 -0.10822094  0.09968641
    -0.00520016]]]


 [[[-0.08036785  0.13528287 -0.09565524 -0.03168389  0.04619499
     0.1453754 ]
   [-0.10775125 -0.07348175 -0.04491792 -0.02376276  0.12310949
     0.10235205]
   [ 0.09155288  0.09316319 -0.07048246 -0.05762098  0.13174415
    -0.06332572]]

  [[-0.00558899  0.12304702  0.10597354  0.02472734  0.00182109
    -0.07448518]
   [ 0.163234   -0.13522205  0.04077001  0.04322781 -0.10306641
    -0.15990813]
   [ 0.12036496  0.0639232  -0.00770901 -0.02382258 -0.02555068
     0.0111811 ]]

  [[-0.06140945  0.00821806  0.05511267  0.10333353  0.12777635
    -0.13085024]
   [ 0.04749124 -0.00248681 -0.15370476 -0.08446343 -0.0418892
    -0.07809086]
   [-0.03816928  0.16290548  0.00662841  0.0377409   0.1421744
     0.10701513]]

  [[-0.02018559  0.13394591  0.07385497 -0.02453031 -0.00672165
     0.04850639]
   [-0.01338692  0.14277479 -0.09452469  0.12294582 -0.04352227
     0.08623464]
   [ 0.03742608  0.00611316  0.10900807  0.05867113  0.01761812
    -0.13875932]]

  [[-0.06543483 -0.01584239  0.09192571 -0.14344019  0.1180743
     0.12524095]
   [ 0.10110795 -0.05898093  0.08248584 -0.10775647 -0.03577924
    -0.11155584]
   [-0.032372   -0.15657195  0.12679568 -0.02714854  0.1385467
     0.00160356]]]


 [[[-0.10378395 -0.11567353 -0.01807612 -0.10516999 -0.02004507
     0.09409592]
   [-0.12568733  0.02477244 -0.11056887 -0.1376388  -0.13500398
    -0.05408752]
   [ 0.10209182  0.14380789  0.02792987  0.1136412  -0.14608881
     0.00811625]]

  [[ 0.04213701  0.06584239 -0.09736836  0.16020772 -0.0210966
    -0.11308414]
   [ 0.01457132  0.07958236  0.03063945  0.05065182 -0.05260781
     0.12612814]
   [-0.13839537 -0.11171025 -0.01931667 -0.1208554   0.1627062
     0.12624946]]

  [[ 0.05709845  0.05085821 -0.07989831  0.00446156  0.06884934
     0.05594714]
   [-0.06912286  0.05112518 -0.06632338  0.13018459 -0.07239336
     0.05242902]
   [-0.10118693  0.09071445 -0.00831419  0.04933664  0.13948447
    -0.05743378]]

  [[ 0.11331642 -0.05735055 -0.00789405  0.10925299  0.11300623
     0.14670616]
   [-0.14147396 -0.06546022 -0.02190058 -0.09795583  0.12194997
    -0.00572032]
   [-0.03821582 -0.10965226 -0.04984006  0.03306969 -0.04858909
    -0.0196313 ]]

  [[ 0.01995961 -0.06707171 -0.04512291 -0.07878333 -0.09866352
    -0.06856042]
   [ 0.00287516 -0.00784886  0.13039544 -0.1607227  -0.06925277
     0.02226445]
   [ 0.01014192  0.06339908 -0.14300519  0.15237379  0.09740043
     0.05324528]]]


 [[[-0.14681044  0.10120115  0.07466182  0.1072152   0.11615175
     0.13922083]
   [ 0.15891951 -0.03878362  0.06331572 -0.08470848 -0.15707178
    -0.01317774]
   [-0.02372991  0.06392728 -0.15900156 -0.05681007  0.02134554
    -0.03795321]]

  [[ 0.13703611  0.01647685  0.15699068  0.1184282   0.03862461
     0.07260616]
   [-0.13205582  0.04359807  0.10401389 -0.07816939 -0.07165136
    -0.07273667]
   [ 0.11850715  0.04904173 -0.01032348 -0.05973063 -0.06659443
    -0.07552015]]

  [[-0.02278803  0.02560133  0.11775705  0.0532742  -0.03363687
    -0.10860977]
   [ 0.13922873 -0.15491517  0.05859818  0.05663234  0.12295964
     0.10793287]
   [-0.01665521 -0.06406496 -0.03667432  0.0023336  -0.03952316
    -0.09232202]]

  [[ 0.15088728 -0.014567   -0.09341851  0.10335767 -0.08640228
     0.07754797]
   [ 0.01826094 -0.03898561 -0.06866371 -0.11148833  0.03521878
     0.12932074]
   [ 0.07481849 -0.12256692  0.04576574 -0.05895866  0.03925522
    -0.01843397]]

  [[-0.10310799 -0.06042965  0.00241221 -0.14971103 -0.13274996
     0.12493512]
   [-0.06995817 -0.09058722  0.00434627 -0.10048752 -0.02592915
    -0.07562648]
   [-0.04372153  0.02138743 -0.00546718 -0.07455693 -0.00581391
     0.05474028]]]


 [[[ 0.00260372  0.11487851 -0.04412776 -0.08294619  0.03232963
     0.07834116]
   [ 0.06336847  0.00702818  0.04269306 -0.14646623 -0.01508829
     0.07215422]
   [ 0.10242206 -0.02609621  0.06520747  0.04370058 -0.04531863
    -0.08255573]]

  [[-0.07115304  0.14740384  0.04595776 -0.10803527 -0.09729602
    -0.04905734]
   [-0.11225761 -0.09483113 -0.09843674 -0.06270442 -0.11335991
    -0.13954933]
   [ 0.00023489  0.12090522 -0.06470183 -0.11736196  0.07260835
     0.00559098]]

  [[-0.01302223  0.11515352  0.02067693  0.01348671 -0.10190178
     0.11530775]
   [-0.01196434 -0.08200326 -0.13944592 -0.08998332 -0.00587301
     0.14197391]
   [-0.07977668 -0.07785488 -0.15023613 -0.08006191  0.09022233
    -0.0364497 ]]

  [[ 0.13780922 -0.16243193 -0.02791274  0.08018404  0.11163694
     0.11200735]
   [ 0.02880818  0.04014295 -0.15985063  0.09353656  0.07098415
     0.02678125]
   [ 0.00167668 -0.00177518  0.15181443 -0.00955096  0.05175774
    -0.0849047 ]]

  [[ 0.0543451   0.06320347 -0.13608766  0.04689345 -0.13695382
    -0.02769762]
   [ 0.10796297 -0.12927751 -0.08695167 -0.04448794  0.08390127
     0.08130421]
   [-0.09388337  0.09804344 -0.01468723  0.12791425 -0.01806086
    -0.04499485]]]]
baseline/conv2d/bias:0
(6,)
[0. 0. 0. 0. 0. 0.]
baseline/batch_normalization/gamma:0
(6,)
[1. 1. 1. 1. 1. 1.]
baseline/batch_normalization/beta:0
(6,)
[0. 0. 0. 0. 0. 0.]
baseline/dense/kernel:0
(1536, 128)
[[-2.43664496e-02  2.60101631e-02  4.98754755e-02 -1.06434710e-02
  -2.94030774e-02  3.65074202e-02 -3.02582048e-02  2.97384858e-02
  -4.57181558e-02 -1.43625438e-02 -4.54179086e-02  5.91626912e-02
  -2.04181969e-02  1.81632489e-02 -2.49666274e-02 -6.47459924e-03
  -2.05817930e-02 -9.13362950e-03  3.32850218e-03  5.37040681e-02
  -3.74114215e-02 -2.33191065e-02  4.09728140e-02  4.19704244e-02
  -4.43385541e-03 -9.41049680e-03 -2.88095679e-02 -2.12503336e-02
  -1.18496120e-02  1.48388967e-02 -6.87841326e-03 -4.31121811e-02
   2.99759135e-02  4.14555669e-02 -4.47423831e-02 -4.93462346e-02
   3.67459357e-02 -6.42625242e-03 -8.86518136e-03  4.80628535e-02
  -3.32066193e-02  3.50663140e-02  5.09497449e-02 -3.01260054e-02
  -6.90071657e-03 -2.57779919e-02  2.12661251e-02  1.27483606e-02
   2.24647671e-02 -4.79083210e-02  3.37419435e-02  4.86154482e-02
  -4.41158749e-02  4.01446298e-02  1.46038234e-02  4.93835658e-03
  -5.68244681e-02  3.03503498e-02  5.45802861e-02  4.83120978e-03
  -8.64405185e-04 -1.94742195e-02  3.64831835e-03 -4.98849526e-03
  -1.80205852e-02 -3.55679542e-04  5.00886738e-02 -1.81289762e-02
   5.92388734e-02  2.46003568e-02  4.49675843e-02 -1.52187310e-02
   4.33685333e-02  4.74619865e-03  3.03770155e-02  2.79994905e-02
  -5.24676181e-02  4.06653434e-03 -5.73981032e-02  5.37620410e-02
   5.16877547e-02 -3.79890837e-02  4.14423421e-02 -4.45999615e-02
   4.58426848e-02  1.02918521e-02  1.63244978e-02 -5.78863546e-02
  -1.15811341e-02 -2.75335200e-02  3.43638286e-02 -4.53552045e-02
  -5.27754389e-02  5.52637875e-02 -4.76279892e-02  2.59747580e-02
  -7.49312341e-03  2.23528668e-02 -3.63060385e-02 -3.56237702e-02
   5.10269850e-02  2.14558095e-03 -3.77817079e-03  1.65891424e-02
  -3.23630422e-02 -4.65724841e-02 -4.24610823e-03  4.06180322e-02
  -5.98227717e-02 -5.83759248e-02  1.74581334e-02 -1.99255906e-02
   1.71482787e-02 -3.97388414e-02 -5.04481383e-02 -8.10158998e-03
  -1.32238455e-02  3.01294997e-02  5.06947264e-02  2.02477127e-02
   2.79002786e-02  3.96014601e-02  5.90205044e-02 -7.61494040e-03
  -2.29390450e-02 -5.90625778e-03  2.41057873e-02 -1.95871331e-02]
 [ 4.04580757e-02 -1.89050213e-02 -2.63292380e-02  2.84074023e-02
   1.63513720e-02 -2.40321420e-02  2.06591189e-03  3.42363790e-02
  -4.27617840e-02 -2.35909186e-02  1.93740875e-02 -5.80951348e-02
   5.49469069e-02 -3.41867134e-02  4.18918505e-02 -4.76207584e-02
   3.73604000e-02  7.49035925e-03 -3.17678750e-02  3.55933309e-02
  -2.86870338e-02 -5.04139364e-02 -1.83351934e-02 -1.93237886e-03
   4.11073118e-03 -1.24716945e-02  3.22246552e-02  2.46889889e-02
   1.21614709e-02  1.91659555e-02  4.84353676e-02 -4.45984602e-02
   5.86686432e-02  1.67021304e-02 -4.51138541e-02  5.87052926e-02
   3.85450497e-02 -5.74154705e-02 -4.21883054e-02  3.36188897e-02
  -6.00440353e-02  2.58595496e-02 -2.82192230e-02  3.05653661e-02
  -4.38739657e-02 -1.82223916e-02  4.70563024e-03 -1.64208524e-02
  -3.14025283e-02 -4.21509258e-02  4.47850674e-04 -1.48111954e-03
   3.78568247e-02  2.98310295e-02  4.50676084e-02 -3.86329144e-02
   3.90373915e-03 -5.00429645e-02 -5.55234924e-02  1.07726082e-02
   3.92044336e-02  5.83023131e-02 -4.43388969e-02 -5.39821535e-02
  -2.24524662e-02  4.36362699e-02  2.23618448e-02 -1.15631968e-02
   4.65566665e-02  1.98959112e-02 -9.72822681e-03  1.95242539e-02
   1.82830542e-02  1.21529400e-02 -7.10156560e-03 -2.56487280e-02
  -1.94436796e-02 -1.68720670e-02  2.37002447e-02 -2.44301148e-02
   1.85349807e-02  1.87173411e-02 -1.28175281e-02  4.69357222e-02
   5.80569133e-02 -4.58740070e-03  4.22310829e-02  2.94774026e-03
   8.28143954e-03 -4.68502827e-02 -3.17186825e-02 -1.48424618e-02
   3.30943465e-02 -5.33050820e-02 -9.91839170e-03 -3.24784219e-02
  -4.03873101e-02 -2.22972035e-03 -3.27045768e-02  2.88530439e-03
  -4.41550016e-02 -2.33566724e-02  5.71519136e-03 -3.16150449e-02
   4.28290293e-02  2.57318318e-02 -5.83003759e-02 -5.06535247e-02
   1.03070885e-02 -2.47558616e-02 -1.19970888e-02  4.48810235e-02
  -4.11989875e-02  3.55808809e-02  2.43036672e-02 -5.11197709e-02
   5.28257638e-02 -5.69702946e-02 -5.00143468e-02  1.43494457e-02
   4.71505001e-02  2.29924768e-02  5.77443391e-02  2.84483358e-02
   3.00021097e-02 -3.10935210e-02  1.52339339e-02 -1.52565576e-02]
 [ 1.05776563e-02 -3.74365896e-02 -8.41386616e-04  5.30772507e-02
   5.11934981e-02  4.24148366e-02 -5.80426790e-02  3.29710692e-02
  -5.68871945e-03  9.57376510e-03  3.20299789e-02  3.20866033e-02
  -2.11616829e-02  4.74321097e-03  1.86409056e-02 -4.37663198e-02
   2.65349448e-03  2.09026709e-02 -1.15736164e-02  4.89976406e-02
  -1.46502070e-02 -3.74944024e-02 -2.87070349e-02  2.39350498e-02
  -1.57762207e-02 -5.21392971e-02  5.08660972e-02  2.21666321e-03
   3.76012176e-02 -2.72370502e-02 -2.45076530e-02  3.10867354e-02
   5.26267588e-02 -3.88635695e-02 -7.50866905e-03  3.54050100e-03
   1.44684836e-02  1.18433535e-02 -9.87713411e-03  5.37175015e-02
  -1.31746680e-02 -1.19380616e-02 -2.25773938e-02 -3.51299196e-02
  -1.80596262e-02 -3.16205993e-02 -3.14174443e-02  8.87805223e-03
  -4.04796749e-03 -5.54975942e-02  1.12984851e-02 -2.37960778e-02
  -6.04906678e-03 -5.00352345e-02  2.92935520e-02 -3.78177837e-02
   3.57284695e-02  5.08474410e-02 -5.96419536e-02  4.90376130e-02
  -1.02552399e-03  4.68098074e-02  1.92336291e-02  4.47923020e-02
  -4.32628766e-02 -2.28357799e-02  4.97992933e-02  5.68275899e-02
   4.66298684e-02  3.47131193e-02  4.66459990e-02  3.46252024e-02
  -4.90199029e-02  3.57930511e-02 -5.36832251e-02 -5.97761013e-02
   4.76094186e-02 -1.96600631e-02  3.99186537e-02  5.68127707e-02
   2.08463073e-02  5.21821454e-02  4.52241376e-02 -1.77274235e-02
  -5.79866730e-02  1.93967372e-02  4.34909314e-02 -6.82651252e-03
  -2.93612015e-02  2.67516747e-02 -3.36896032e-02 -2.33196057e-02
   4.05559763e-02 -7.27057084e-03  5.49500138e-02  4.34271172e-02
   1.68194100e-02 -1.24259554e-02 -5.46641685e-02  3.15020010e-02
  -5.09690046e-02 -1.32252350e-02 -3.28336284e-02  5.42327985e-02
  -4.66157198e-02 -1.71988122e-02 -2.88576446e-02  2.36060098e-03
   5.87201938e-02 -4.62937392e-02  5.99958748e-02  1.63654760e-02
  -4.97942008e-02  5.60611486e-02  3.61667424e-02  4.07981500e-02
  -3.95610407e-02  2.29239985e-02  2.78454274e-03 -2.49357037e-02
   1.10418722e-02 -3.58132794e-02 -2.96873171e-02 -3.80162410e-02
   5.18537834e-02  2.68550962e-02  3.70736122e-02 -3.33702192e-03]
 [ 3.40919569e-02 -4.32798564e-02  3.75562757e-02 -5.02049997e-02
  -5.17213121e-02 -5.70385717e-02 -2.00878978e-02  3.67554128e-02
  -3.12949829e-02  4.35142219e-02  3.48050743e-02 -1.72582008e-02
   5.11371493e-02 -3.88036966e-02 -3.70689109e-03  2.50897482e-02
   4.51260060e-03  4.41648662e-02  3.44103575e-02  1.66044012e-02
  -8.15195590e-03 -5.20625897e-02  4.72489297e-02  1.93050504e-02
   5.98930642e-02  1.00218877e-02  2.19679251e-03  2.52918452e-02
  -9.57971811e-03 -1.44901909e-02 -5.51203936e-02  4.10328433e-02
  -4.44753096e-03  2.08506733e-02  9.60845500e-03  5.37324026e-02
  -5.07189371e-02  1.32230595e-02  4.16087881e-02 -5.06326929e-03
   1.59421936e-02  1.57639608e-02  4.79480922e-02  5.19448072e-02
  -2.89950259e-02 -3.91887687e-02 -3.42682078e-02  3.18847522e-02
   2.88595036e-02 -5.66339567e-02 -2.26610601e-02 -2.03385577e-03
   4.26886529e-02  1.67519078e-02 -2.45630741e-03  3.88681814e-02
   3.55506539e-02 -2.07879506e-02  3.15789357e-02 -4.55380268e-02
   1.95055008e-02 -4.96434048e-02 -1.40688084e-02 -2.98723597e-02
  -5.61508313e-02  3.58635038e-02 -3.53167094e-02 -3.84594947e-02
   2.13981047e-02  3.29354927e-02  4.34787422e-02  2.98984721e-02
   2.61301473e-02 -5.03134616e-02  1.63679197e-02 -3.46370004e-02
   5.54427728e-02 -9.53987613e-03 -5.12765385e-02 -4.79718708e-02
  -9.78223979e-04  3.49588543e-02 -2.95403730e-02  1.70035511e-02
   4.40969318e-03  2.47957334e-02  2.88249180e-02  6.76681101e-03
   2.75955647e-02  3.74175906e-02  3.92816439e-02 -8.62260163e-03
  -3.89432237e-02 -2.72512808e-02 -5.96104302e-02  3.79603207e-02
   4.16692123e-02  2.55944133e-02 -4.63264100e-02 -3.47900018e-03
   5.81324175e-02 -3.57782170e-02 -4.24782559e-03  2.63635367e-02
  -5.19528948e-02  5.00110537e-02  5.91082051e-02 -2.03218460e-02
   5.04548699e-02 -3.75404879e-02 -5.17221987e-02  4.08253074e-02
  -4.62070405e-02 -4.83310185e-02  3.03197205e-02 -3.90732773e-02
  -1.93819925e-02 -5.15847169e-02  3.46276164e-03  4.12636250e-03
  -2.93796267e-02  5.46248108e-02 -3.64829376e-02  3.62426639e-02
   5.79636768e-02  1.42053068e-02 -4.50060666e-02 -4.97455373e-02]
 [-5.07795513e-02  1.02597028e-02  4.40079868e-02  2.15668455e-02
   4.33708429e-02 -2.51428522e-02 -1.44940130e-02  5.75072318e-03
  -5.72707020e-02  2.43839845e-02  4.44129109e-04 -1.42480955e-02
  -4.52639498e-02 -3.81190628e-02 -1.86104141e-02  4.99395430e-02
   1.11116469e-03  5.44216484e-04  2.52134874e-02 -3.79668064e-02
   2.98168436e-02  4.46868092e-02  5.90153784e-03  5.01362681e-02
   1.48291141e-03  3.64192277e-02  5.17734811e-02 -5.82238697e-02
  -3.99367958e-02 -2.13131979e-02  5.53485006e-02 -2.77970731e-02
  -3.49250063e-02 -4.42849398e-02 -3.38223018e-02 -4.09815609e-02
   5.96261919e-02  4.12303209e-03 -4.17595729e-03 -2.17204615e-02
  -1.83959641e-02 -3.30682024e-02  2.13830918e-03 -1.58328116e-02
   6.25933707e-03 -2.06141770e-02  2.43823975e-04 -5.99708222e-02
   4.39799801e-02 -5.71254306e-02 -2.19422951e-02 -2.94019021e-02
  -2.03983672e-02  7.12791830e-03  5.25288209e-02 -5.75284287e-03
   5.69695979e-02 -1.72825381e-02  4.30589989e-02  2.01391056e-02
  -1.67122521e-02  2.72868723e-02 -4.66827378e-02 -4.12218645e-02
  -2.82133408e-02  2.48726830e-02  4.86395657e-02  1.33569911e-02
   4.63724509e-02  3.50980461e-03  4.13239598e-02  5.58532327e-02
   3.34372446e-02  2.74365246e-02  5.24695069e-02  4.17158306e-02
   4.84358147e-02 -3.73283178e-02  3.77579555e-02 -5.33775948e-02
  -4.90741357e-02 -1.84133872e-02 -3.68458629e-02  4.81688976e-02
   4.43679765e-02 -3.80902365e-03 -5.14594615e-02 -3.43474075e-02
  -5.58728315e-02  4.68756929e-02 -2.87612230e-02 -2.66078785e-02
   5.30610234e-02  3.68230566e-02 -1.39109418e-02 -5.20388260e-02
   1.80977061e-02 -2.57880688e-02 -3.62824351e-02 -3.45622376e-02
   3.94399241e-02  4.04683575e-02 -2.32627243e-03  3.29875201e-02
  -5.52253909e-02  2.34717056e-02  1.10604391e-02 -1.51825249e-02
   6.38536364e-03  1.45135671e-02 -5.17872795e-02  1.73204169e-02
   5.96797764e-02  2.40893066e-02  2.96367630e-02 -7.48470426e-03
  -9.55764204e-03 -1.27913430e-02  3.15711498e-02 -2.82409713e-02
  -2.76801065e-02  5.45543879e-02  4.88322526e-02  4.39593941e-02
  -2.42400616e-02 -2.40517035e-03 -4.43442538e-02  3.00167426e-02]
 [ 5.52337244e-02  5.08276448e-02 -5.01802340e-02  5.27419522e-02
   4.61408272e-02 -3.89804915e-02 -3.46825123e-02  6.77502900e-03
  -2.53350064e-02  3.33301425e-02 -5.37628680e-02 -1.03264302e-02
   1.83237940e-02 -9.88328829e-03 -4.33923304e-02 -5.54064810e-02
  -4.30905074e-02  4.87077981e-02 -1.14294887e-03 -5.46696521e-02
  -2.23686285e-02 -3.64521146e-02 -4.04954404e-02  3.07998583e-02
   4.99942154e-02 -4.78693508e-02  2.00647935e-02 -3.96290347e-02
  -1.21811554e-02 -4.97918390e-02  2.45356709e-02 -2.73364782e-03
  -3.58733088e-02  3.85419577e-02  5.70219085e-02 -4.11231518e-02
   8.30992311e-03  2.27913260e-05  4.70425859e-02  3.35872546e-02
  -1.19805075e-02  1.72341317e-02  5.19293025e-02 -4.72426862e-02
   3.15381512e-02  4.90431413e-02  2.61593014e-02 -5.04187196e-02
  -6.54029846e-03 -3.61459814e-02 -2.29106247e-02  2.62204483e-02
   3.01843733e-02  1.37543902e-02  5.72917461e-02  4.12656367e-03
  -3.31602022e-02  5.82108870e-02  5.97351789e-03 -2.17556208e-02
   2.33969018e-02  1.46177188e-02  1.51671320e-02  2.09458917e-02
  -3.16347033e-02  9.89429653e-03  1.44090578e-02  3.90893519e-02
  -4.47692275e-02  4.35204804e-02 -5.51134944e-02 -3.81235592e-02
   1.92917362e-02 -5.60771301e-02 -2.70213857e-02 -2.49865577e-02
   9.73951817e-03  5.27231246e-02 -1.74335353e-02  3.63069698e-02
   5.46178371e-02 -3.10350657e-02  4.15569320e-02  3.36004123e-02
  -5.55898212e-02  5.58985323e-02 -1.47289336e-02  2.31660455e-02
  -4.77000587e-02 -2.54068337e-02 -5.70140779e-02  1.72378272e-02
  -4.29617725e-02 -1.14354901e-02 -1.02826655e-02 -1.94150619e-02
   1.85728148e-02 -5.26115149e-02 -3.02859657e-02  5.24784550e-02
  -5.53107038e-02 -5.00079915e-02  3.95376906e-02 -4.39419858e-02
   4.95028719e-02 -3.87443826e-02  4.99105230e-02  2.71037519e-02
   2.06267908e-02 -4.36986908e-02  3.78697515e-02 -3.69265936e-02
  -4.88040596e-03 -5.38806953e-02  5.57165369e-02 -3.93458642e-02
  -1.29537918e-02  2.87507102e-02 -4.34024930e-02  2.01241300e-02
  -1.26792155e-02 -4.83852476e-02  4.10572439e-03 -5.45534007e-02
  -2.01673433e-03 -1.74336210e-02  1.32918805e-02 -4.55092341e-02]
 [-3.85771096e-02 -8.33268836e-03 -5.03453612e-03 -2.66719200e-02
  -2.80734971e-02 -5.25778905e-03 -2.70324945e-02 -5.40737063e-04
   4.15190458e-02  6.50446117e-03  3.16732675e-02 -1.71026923e-02
  -4.50950563e-02  5.77430874e-02  2.29002461e-02  3.89263034e-03
  -4.69592325e-02  4.56147790e-02  2.26924717e-02  2.07707882e-02
   5.69309369e-02  4.04036194e-02  5.19924238e-02  8.75316560e-04
   4.96118367e-02 -7.05069676e-03  2.54563987e-04 -3.03162448e-02
   4.72183526e-03  4.65829074e-02  3.39999422e-02  3.16876695e-02
  -5.64973429e-03  3.89669910e-02  3.57703865e-02  2.44922340e-02
  -1.72263160e-02 -3.24208662e-02 -4.07897197e-02 -5.31641506e-02
  -3.52971256e-02  4.10302952e-02 -5.12353331e-02  1.81065872e-03
  -2.86752060e-02  1.01577640e-02 -7.29225948e-03 -1.66028999e-02
  -3.27777192e-02 -5.90643249e-02  3.35135311e-03 -4.89753336e-02
   4.35401499e-03 -5.18295318e-02 -4.42179516e-02  4.72430140e-02
  -9.91673023e-03 -4.56167236e-02  5.21512926e-02 -5.25915995e-02
   2.81087980e-02  4.03776169e-02  3.07555646e-02  2.46355310e-02
   1.48020685e-04  1.23098046e-02  4.83392179e-03 -4.41144295e-02
  -3.87517959e-02 -1.32737122e-02  7.58974254e-03 -2.03201436e-02
  -4.94505875e-02  5.46008348e-03  5.76631054e-02  3.50412130e-02
   5.25432229e-02  2.62878165e-02  2.95601711e-02  1.74045265e-02
  -8.91515985e-03  5.85885718e-02 -1.57256089e-02 -2.32560262e-02
   8.13622028e-03  5.17715737e-02 -4.64613736e-02  3.21818814e-02
  -1.08283386e-02 -2.43335627e-02 -4.96708751e-02  1.51834264e-02
   3.32862213e-02  6.83862716e-03  4.53019589e-02 -2.52979286e-02
   3.29521969e-02 -4.88162190e-02  3.64101380e-02  4.34571952e-02
  -3.61851826e-02 -1.34134553e-02 -2.50774808e-02 -8.79949704e-03
   5.80143183e-02 -5.54774627e-02 -2.32211091e-02  5.09696901e-02
   4.86865714e-02  4.55876440e-02  2.46097296e-02 -1.06492974e-02
   1.11061782e-02 -4.06354740e-02 -3.90765071e-03  1.98298693e-03
   1.20707750e-02 -5.84807508e-02 -1.77449919e-02  4.44061160e-02
   5.16588911e-02 -1.60232186e-04  5.92123717e-02  2.80663818e-02
  -4.91131321e-02  4.19608280e-02  5.49593866e-02  1.64648294e-02]
 [ 4.41963375e-02 -3.42121124e-02  7.39008933e-03  1.92063823e-02
   2.47542262e-02  6.68153167e-04  4.73497808e-03 -6.96704537e-03
   2.55052596e-02 -4.25745808e-02  5.67693040e-02 -5.07713333e-02
   2.24214867e-02  2.60416865e-02  1.36969835e-02 -1.05740055e-02
  -2.24694870e-02  4.69692573e-02 -1.74640864e-02  3.14400345e-03
   1.37531981e-02 -5.64813986e-02  2.71501467e-02 -3.55571434e-02
   8.05966556e-04 -3.10919601e-02  1.48354322e-02 -5.05574010e-02
   2.29448974e-02  3.20700109e-02 -3.88229229e-02  1.61899999e-02
  -4.75871265e-02  2.80982479e-02  8.86040926e-03  5.59512675e-02
   4.27942425e-02 -2.96380837e-02  2.54356861e-03  4.79525477e-02
  -3.05647384e-02  3.88894528e-02 -1.90652646e-02  1.95948035e-02
  -2.05632374e-02  5.58543205e-02 -3.25636454e-02  3.64739001e-02
  -5.30640781e-03  8.60464573e-03 -5.47913127e-02  5.36851585e-02
   4.42622751e-02  5.20954877e-02  3.67722437e-02  4.40184772e-03
   4.64063287e-02 -1.23766065e-02  8.93495977e-03 -5.60384579e-02
   1.66731924e-02  3.52516696e-02 -2.20048428e-03  1.18338466e-02
   4.84282002e-02  2.72387564e-02  2.88875923e-02  2.93268859e-02
  -2.12489441e-02 -4.25765142e-02  4.54984531e-02  5.68995178e-02
  -4.11269888e-02  7.51920789e-03 -4.53822166e-02  1.58893615e-02
  -2.56009661e-02  3.42767537e-02 -4.32477742e-02  5.08989841e-02
   1.76454484e-02 -2.14679018e-02  4.08590659e-02 -8.48495960e-03
  -3.79055180e-02  4.54798564e-02 -1.51705295e-02 -3.15331258e-02
   1.41436309e-02 -2.04830505e-02  3.70988473e-02 -3.73815000e-02
  -5.12887202e-02 -4.60947827e-02 -3.20295952e-02 -5.75342104e-02
  -2.42346786e-02 -1.95043534e-02 -4.58329022e-02  1.33137852e-02
   1.58772245e-03 -2.50336453e-02  3.28507200e-02 -2.22479962e-02
  -1.54180452e-02 -5.29088415e-02 -5.02578542e-02 -3.03123370e-02
   2.79998779e-02 -2.17631385e-02 -1.20079815e-02  5.99338263e-02
  -3.71308923e-02 -5.67191094e-03  1.56202540e-02  2.37037763e-02
   4.73535508e-02 -7.27854669e-03  2.17861161e-02 -4.13253307e-02
  -2.18524300e-02  1.76282227e-02  4.60939929e-02 -5.02302684e-02
   5.19870669e-02  3.65189537e-02 -3.65215912e-02 -5.15227690e-02]
 [ 1.95207074e-02 -2.57774778e-02  1.32869408e-02 -4.94838133e-03
   1.54056922e-02  5.59003502e-02  5.09351715e-02 -5.24610057e-02
  -1.37787722e-02 -1.59514807e-02 -5.66496626e-02 -4.63631600e-02
  -1.70547180e-02  1.91728100e-02  2.94630602e-02 -4.30529267e-02
   4.84093577e-02 -1.27323307e-02  3.38722989e-02  2.73775980e-02
  -5.87200262e-02 -9.19105485e-03 -1.17382295e-02  4.61696014e-02
   5.76499850e-04 -4.84596789e-02 -8.11377540e-03 -3.70957851e-02
  -4.21721004e-02 -4.75895777e-02 -1.99917480e-02  2.93544158e-02
   1.11652240e-02  4.12390903e-02 -1.47682019e-02 -9.24770534e-03
   3.27072591e-02  4.11732867e-02  7.84699619e-03 -1.16770566e-02
   8.92513990e-03  3.77023518e-02  1.78239867e-03 -1.14170648e-02
  -4.19233926e-02 -3.92159559e-02 -3.81373316e-02  4.01559994e-02
  -2.64966860e-03  1.66653320e-02  1.78324804e-02 -2.51467302e-02
   1.05398893e-02 -5.04629128e-02  4.62823734e-02 -4.16163281e-02
   4.14722040e-02  3.43819112e-02  5.31155169e-02 -3.71640772e-02
  -3.10874209e-02  4.70100716e-02 -1.87467076e-02  4.71860468e-02
   1.77183226e-02 -2.06233375e-02 -2.28488222e-02 -2.58098617e-02
  -2.31078938e-02  5.37864938e-02  2.44582072e-02 -1.79774351e-02
   4.23943996e-03  5.69395721e-03 -4.90743630e-02 -4.47635725e-02
   5.19049242e-02 -4.70301136e-02 -4.03098278e-02  4.76275161e-02
  -5.49350940e-02 -5.18854931e-02  2.32876688e-02 -5.74164577e-02
   2.47718096e-02 -4.21063863e-02 -6.63064793e-03 -3.53087038e-02
  -5.83295412e-02  1.34411752e-02  2.41337344e-03 -1.62862614e-02
  -5.76782934e-02 -9.25285742e-03 -4.24277633e-02 -3.21581587e-02
  -4.51789089e-02 -1.05159506e-02 -2.36567482e-02 -2.02248953e-02
   5.79597801e-03  3.12974602e-02 -1.61626376e-02 -3.75980288e-02
   9.95878130e-03  8.74665380e-03 -5.65990806e-02 -2.47611441e-02
   3.45304161e-02  2.05009580e-02  4.26720083e-02  3.43662202e-02
  -4.05458808e-02  5.15697673e-02  2.94610038e-02  4.34339941e-02
  -3.00626550e-02 -3.03749144e-02  2.84399837e-03 -1.55654773e-02
   3.82348448e-02 -1.08276680e-02  4.49298546e-02 -2.27347314e-02
  -1.40366964e-02  1.31631717e-02  5.05215526e-02  5.74921891e-02]
 [ 1.17676333e-03  4.91646305e-02 -8.07365775e-03  2.58192196e-02
   2.60429755e-02  3.36536542e-02  3.69948521e-02 -3.04517224e-02
  -1.80690028e-02  6.92605972e-04  4.13796455e-02 -3.21529731e-02
   3.65149900e-02 -2.72617601e-02  5.14325052e-02 -3.16641107e-03
   5.99505231e-02  3.62547487e-03 -1.35030337e-02 -1.47024319e-02
  -5.60345203e-02  5.39607406e-02 -3.84358317e-03  4.58612069e-02
   5.87983653e-02 -2.58411840e-02  4.54581231e-02  1.96575969e-02
   5.43078557e-02  2.33961120e-02  3.99819091e-02  2.60504931e-02
   3.62964198e-02 -1.45727023e-03 -3.39410156e-02  3.90416384e-02
  -2.15349011e-02 -3.07880472e-02 -2.78625116e-02 -5.32907210e-02
  -1.31923221e-02 -3.88398170e-02 -5.90244941e-02 -2.23047324e-02
   1.31574869e-02 -3.32329869e-02 -7.87229836e-03  5.43155745e-02
  -4.93865833e-03 -3.90325040e-02 -2.67088711e-02  3.83506045e-02
   4.72218692e-02  3.85348052e-02 -4.48909737e-02 -3.08633968e-03
   4.00158092e-02  1.50927305e-02 -4.10716832e-02  2.51949057e-02
  -3.17882895e-02 -9.37363133e-03 -4.93143946e-02  3.54897380e-02
   1.78936720e-02  4.51409593e-02 -2.05008611e-02  3.53016704e-03
   5.85606694e-03 -1.55602545e-02 -3.27720642e-02 -3.48925814e-02
   3.09037417e-02 -5.74005507e-02  1.48036778e-02 -3.82682830e-02
  -5.03301248e-02  5.09000421e-02 -4.68943343e-02  2.95617208e-02
   4.02794778e-02 -3.84955332e-02 -2.17830092e-02 -5.64764440e-02
   4.77664173e-03  2.02164054e-04 -9.63286310e-03 -5.43077141e-02
  -3.27916071e-02  4.08811718e-02 -3.19649130e-02  3.56724039e-02
   4.87791523e-02  4.52869013e-02  4.78503257e-02 -2.76105143e-02
  -2.45332383e-02  4.50414419e-02  1.26822069e-02 -3.96846943e-02
   3.17882448e-02  3.37228999e-02 -3.35279852e-04 -5.90044968e-02
  -4.72119339e-02 -3.29036787e-02  3.21670175e-02 -5.71718067e-03
   5.03343493e-02 -5.06821126e-02  3.60261127e-02 -2.43211947e-02
   3.95019427e-02 -5.56652099e-02 -1.45853236e-02  5.33444434e-03
   1.84587315e-02  3.28247547e-02 -4.58049998e-02 -2.94788685e-02
   1.09509900e-02  5.06459773e-02  4.43667918e-03 -4.96057346e-02
  -2.29718722e-02  3.83554623e-02 -9.64693725e-04  2.48089060e-02]
 [ 5.23158386e-02  5.43038622e-02 -4.05124947e-02 -1.22812018e-02
   3.58095989e-02 -7.97221065e-03  1.38548091e-02  3.39554325e-02
   5.17368838e-02  2.29382291e-02  4.34869751e-02 -4.33829501e-02
   4.38089669e-03  2.52066180e-02 -2.74321288e-02 -4.39277403e-02
   1.54882818e-02 -1.72027946e-02  1.92767531e-02 -4.99368347e-02
   2.39313394e-02 -4.17154431e-02  5.87604567e-02 -3.16797569e-02
  -1.62075907e-02 -3.45110446e-02 -1.76056474e-02 -5.25543615e-02
  -3.45512331e-02 -2.28400156e-02 -4.56274599e-02 -3.69095430e-03
  -3.00513748e-02  1.88246071e-02  4.57855016e-02  2.89238989e-04
   1.49692520e-02  1.72623545e-02 -4.79501970e-02 -4.55806740e-02
  -3.87144461e-02  1.96375102e-02 -4.92547527e-02 -2.71852091e-02
  -1.32860616e-03 -5.42138256e-02  1.01120770e-03 -4.13623080e-03
   4.23445702e-02  3.35690826e-02 -1.60366371e-02  5.58349937e-02
  -2.14590095e-02  4.07474414e-02  3.62478569e-02  1.52234286e-02
   2.32349113e-02 -5.08459508e-02 -1.59278177e-02  7.14565814e-03
  -3.43605205e-02  4.50511202e-02  2.23389789e-02 -3.20722908e-03
  -3.75827067e-02  4.96481434e-02 -3.43675613e-02 -3.69398668e-02
  -3.11240572e-02  2.60197297e-02  2.77945921e-02 -4.07394543e-02
  -4.66061421e-02 -5.70504814e-02  5.28410524e-02 -2.18209773e-02
  -2.79333815e-02  7.87520409e-03  1.59596428e-02 -3.81826013e-02
   4.10646573e-02 -1.02406144e-02 -5.42591661e-02 -4.51580919e-02
   5.11111841e-02  2.35979632e-02  2.78651640e-02  5.11003435e-02
  -5.43047488e-03  2.63804197e-03  4.09990102e-02  3.91509309e-02
  -5.28022684e-02  3.82446945e-02  2.91098729e-02 -5.33686765e-02
   3.64276916e-02 -2.26173773e-02  3.09386179e-02  4.52598408e-02
   1.89668685e-03  6.18720800e-03 -4.90428358e-02  3.67470458e-02
   2.21854597e-02  4.59688157e-03 -5.18831871e-02 -1.20393075e-02
   1.25596300e-02  1.71754509e-03 -3.95852253e-02 -3.92579474e-02
  -1.29297413e-02  3.54544222e-02 -5.01987413e-02  5.99887297e-02
  -1.35921240e-02 -2.32623853e-02  1.59893334e-02  3.31900790e-02
  -5.09536266e-02  2.93686911e-02  8.05086643e-03 -1.09400526e-02
   2.98072323e-02 -2.91080698e-02  2.39171684e-02 -3.11784744e-02]
 [-4.92757559e-02  3.74811441e-02 -5.66973649e-02 -4.94956002e-02
   1.45086423e-02  2.02941149e-02  1.45402700e-02 -3.06473579e-02
  -4.07851413e-02  2.27011889e-02 -2.41779573e-02 -2.03848816e-02
  -4.68129031e-02 -5.06147109e-02  4.12163511e-02 -1.03149749e-02
  -4.37440015e-02  4.85465378e-02  3.41693237e-02  1.57227442e-02
  -3.03480700e-02  2.13568211e-02  1.22058392e-02  3.48058939e-02
  -3.46935242e-02 -1.86836272e-02 -5.30209132e-02  4.51058522e-02
  -5.41537814e-02  2.16063708e-02  1.30697861e-02 -1.44050904e-02
  -4.54876199e-03 -5.25274910e-02 -3.34719047e-02 -5.48762530e-02
   1.50087327e-02  7.21454620e-04  3.94662246e-02 -5.30827157e-02
   4.45943922e-02  1.40508860e-02 -5.66972941e-02 -1.31989494e-02
  -5.60898259e-02 -5.58048561e-02 -3.49598117e-02  1.96132883e-02
   1.33509934e-02  9.74714756e-04  4.76469174e-02  3.69710624e-02
  -6.49423897e-03  2.72829831e-03 -5.23984693e-02  1.23442486e-02
   1.59831941e-02  2.59488299e-02  1.49105489e-03  4.21464443e-02
   2.09533945e-02 -4.26467210e-02  3.97688225e-02  2.54053771e-02
   4.36145812e-02 -5.88529930e-03 -5.37816212e-02 -4.28439304e-03
   4.60863933e-02 -4.06963453e-02  3.24615240e-02 -3.49886715e-02
   6.15578145e-03  6.74507022e-03  5.23570925e-04 -2.41653286e-02
  -5.89178354e-02 -1.31744556e-02 -4.08237055e-03 -3.74618322e-02
   4.77499664e-02  1.36635825e-03 -3.95486020e-02  1.31224245e-02
  -4.29533273e-02  5.01709133e-02  3.36126387e-02  2.57806256e-02
   2.34833434e-02  2.51368657e-02  4.40937281e-03 -1.64289549e-02
   3.46574187e-03  2.10184008e-02  5.83932474e-02 -4.41060513e-02
  -2.33426131e-02  4.37694266e-02  4.22201306e-03 -2.09706724e-02
   3.35404500e-02 -2.00026557e-02  3.12234014e-02  5.94597906e-02
   3.31920758e-02 -1.36900209e-02  1.14494786e-02  2.68638879e-03
   2.22384930e-02  3.85761485e-02  5.81578910e-03  4.07023728e-02
   3.55067626e-02 -1.86486170e-03 -5.97309023e-02 -3.48615646e-03
  -5.83889820e-02  1.02675632e-02 -2.93972921e-02 -5.16823269e-02
   9.04104114e-03  2.42528319e-03  2.87711695e-02 -1.70090608e-02
   2.61553302e-02  3.12851369e-02 -3.83246616e-02 -3.99581864e-02]
 [-2.58364454e-02 -9.25805420e-03  2.09974572e-02 -2.42215097e-02
  -3.69035453e-02  1.67499632e-02  2.93441787e-02 -4.09771800e-02
   5.17635718e-02 -3.35964411e-02 -3.53789702e-02 -5.14160097e-02
  -4.53611463e-02  5.76586500e-02 -2.39488184e-02 -4.64705378e-02
   8.69103521e-03 -3.83771770e-02  2.82940418e-02  5.15239313e-02
   4.74600568e-02 -4.11001742e-02 -4.09385264e-02  1.02878734e-03
   1.39063746e-02 -4.13541347e-02  5.23012727e-02 -4.01704162e-02
  -5.17614819e-02  4.86994088e-02 -2.33393498e-02  3.55766714e-02
   4.57039997e-02 -9.85459983e-03 -1.50282681e-03  8.74257088e-03
  -1.22421868e-02 -5.02972677e-03 -5.52500598e-02 -2.97864899e-03
  -1.57162771e-02  4.68697399e-03 -1.79057196e-03 -2.28416920e-02
  -2.70795524e-02 -3.92855480e-02 -5.71287088e-02  3.85599583e-03
  -9.55853239e-03  3.54425833e-02 -2.77709439e-02  1.54148564e-02
  -5.05667776e-02  4.83953729e-02 -2.94688754e-02 -5.41671962e-02
   8.57167691e-03  3.75626981e-03  5.32212555e-02  4.53141332e-03
   3.01378742e-02 -4.68640029e-03 -3.11990622e-02  5.61654568e-04
   3.67806852e-03 -1.51990354e-03  4.92495671e-02  5.20426482e-02
   4.29868549e-02  5.41418567e-02  2.72656232e-02 -5.95604777e-02
   3.15350145e-02 -2.14001127e-02  4.45203930e-02 -3.71568054e-02
   1.01053715e-03 -5.65823726e-02 -6.63094968e-03  3.90012786e-02
  -5.33025190e-02  5.63205704e-02  3.68269235e-02 -1.89403258e-02
   1.13728270e-02  3.38418335e-02  4.10615653e-02 -2.55366862e-02
   2.65059918e-02  3.37472260e-02  5.35631254e-02 -4.89127412e-02
  -7.90141523e-03  3.48976925e-02 -4.45462465e-02 -4.55732010e-02
  -5.73091693e-02  9.59079713e-04  3.68516892e-03 -5.67343608e-02
  -2.41820812e-02 -4.61479835e-02 -5.54881021e-02 -3.55667174e-02
   5.30318245e-02  3.27153504e-03 -1.50596313e-02  1.20551735e-02
   2.20300630e-03  5.57195395e-03  4.86780629e-02 -4.06691879e-02
   7.10215420e-04  2.51987576e-02 -3.81514356e-02 -2.20748372e-02
   4.78491038e-02 -2.70813704e-04 -4.17334959e-02  1.14934295e-02
  -5.53439185e-02 -3.61708216e-02 -3.50156575e-02 -3.61551158e-02
  -3.40200737e-02  3.59386206e-03  8.82609189e-03 -5.88175207e-02]
 [ 2.38536894e-02 -2.69515216e-02  3.55076790e-03  4.03720587e-02
  -4.80022654e-02  6.36685640e-04  1.67377666e-02 -1.53855644e-02
   3.92822996e-02 -1.32194087e-02  2.96214893e-02 -1.97893977e-02
  -4.40473855e-03  1.04155466e-02 -1.26846544e-02  1.46420896e-02
   2.41256133e-02 -1.12824328e-02 -3.00186612e-02 -2.89826095e-03
   2.74926722e-02 -1.10827722e-02 -4.51829173e-02  3.56184617e-02
   2.21763998e-02 -4.28401679e-02  2.38222778e-02 -5.94875664e-02
  -1.40367970e-02  2.69767791e-02  7.29887187e-03  1.42324641e-02
  -2.33252607e-02 -1.30682960e-02 -3.76626924e-02  7.00451434e-03
   2.69667804e-02  1.91004127e-02 -1.97907165e-02 -4.32764068e-02
   3.86513993e-02  4.98894453e-02  2.68631428e-02 -4.39634919e-02
  -4.41007838e-02  1.82001442e-02 -5.34426644e-02  5.83208799e-02
   5.22040576e-03 -3.72163579e-02  2.74816900e-02 -3.79388034e-02
   5.01076728e-02  3.49756852e-02  4.15295362e-03 -2.54838876e-02
  -3.13702151e-02 -3.27646360e-03 -4.58559096e-02  2.77587622e-02
   4.72362116e-02 -4.06155586e-02 -1.47708505e-02  5.02696410e-02
  -5.08032031e-02  4.27055955e-02  4.81604338e-02  3.68222371e-02
  -3.71598229e-02  3.77669334e-02  2.17751935e-02  9.83561575e-03
  -3.34899724e-02 -3.12724933e-02  1.49261579e-02 -6.00140132e-02
  -4.14803773e-02 -3.01221125e-02 -5.17771617e-02 -1.69215724e-02
  -5.50197773e-02  5.43937534e-02 -7.10544363e-03 -2.04929411e-02
  -5.87223731e-02 -5.27766272e-02 -2.98050437e-02 -4.54059988e-03
  -6.84468076e-03 -3.70519497e-02  3.85406688e-02 -7.14510679e-04
   5.52524924e-02  3.53680924e-02  4.65278998e-02 -5.25490232e-02
  -1.86817236e-02  3.81735787e-02 -9.27852839e-03  2.69087702e-02
   4.36815247e-02 -5.28849773e-02  8.75516981e-03  4.03205529e-02
   3.59753966e-02  2.56211087e-02 -4.52588797e-02  2.13407427e-02
  -6.38820231e-04 -4.59417105e-02 -5.06100282e-02  2.26286575e-02
  -3.45844179e-02 -5.93777858e-02 -5.87556027e-02  1.96888372e-02
   2.27426812e-02 -5.34827486e-02 -1.24134980e-02  2.95463875e-02
  -3.22143361e-02  5.79569489e-03 -1.30630583e-02 -2.36729272e-02
  -1.82912685e-02  4.91979271e-02 -3.66997495e-02  3.30937579e-02]
 [ 1.32084712e-02 -4.52833921e-02 -9.52942669e-03 -1.99620835e-02
   1.32098794e-04 -4.84023131e-02  5.57697788e-02  5.52899316e-02
   3.15655842e-02 -4.04423140e-02 -5.47721311e-02 -2.64836848e-02
   3.73427644e-02  1.80223286e-02 -1.16850436e-02  2.75816098e-02
   4.91179973e-02 -5.18441200e-02 -9.13929939e-03 -3.04795429e-03
  -5.62275387e-02  4.97723073e-02 -3.17747891e-03 -7.28421658e-03
   2.60204822e-02  8.00365210e-03  3.63104790e-02  3.16809118e-02
  -3.45648751e-02  1.30705759e-02  4.74072099e-02 -1.35923848e-02
   5.13677374e-02 -2.02435628e-02 -1.98482536e-02 -2.35001259e-02
   2.28263438e-04  5.26078194e-02  4.70278934e-02 -4.70575877e-02
  -1.65570751e-02  2.36253515e-02 -3.38812992e-02 -4.10567820e-02
  -4.86345738e-02  4.60760295e-02  4.56537008e-02  1.84477046e-02
   1.65206790e-02 -4.02669907e-02 -3.26362327e-02  2.59212181e-02
   2.89548412e-02  7.40261376e-03 -1.55434757e-02  4.98345569e-02
   2.79235765e-02 -4.59174886e-02  1.30533352e-02 -1.16201863e-03
   5.07988632e-02 -5.38308918e-03 -3.44597176e-02  4.83559445e-02
  -3.02137807e-02  2.74031833e-02  6.86446577e-03 -3.95672843e-02
  -4.46968973e-02 -3.67497653e-03  2.56486982e-03  1.75192356e-02
   1.91872269e-02  2.73003727e-02 -5.53614721e-02 -3.78354788e-02
   1.89814419e-02  5.42981625e-02 -2.13142857e-02 -1.33539550e-02
  -2.99296696e-02  5.38235903e-03  2.65344083e-02 -5.85113168e-02
  -5.61247319e-02  4.89075333e-02 -5.94290085e-02  4.55268994e-02
  -5.43528832e-02 -4.64921668e-02  5.11668473e-02 -3.60612944e-03
  -2.63001025e-03  5.24160936e-02 -1.70398131e-02  9.40047950e-03
   3.82496417e-02  5.45732155e-02  1.23224854e-02 -6.98779151e-03
   5.96037582e-02  4.78222370e-02  4.54235226e-02  4.04210985e-02
  -1.28222369e-02 -1.36896931e-02 -1.66790634e-02 -3.98956090e-02
  -2.39114985e-02  1.10061467e-03 -6.66117296e-03  6.20637089e-04
  -5.65527231e-02 -5.47242537e-02  4.75365222e-02  5.24260104e-05
  -4.68674637e-02  3.38387489e-02 -1.03587285e-02 -3.58215272e-02
   5.76248094e-02  4.46127206e-02 -2.58998536e-02 -1.99837461e-02
  -3.02970316e-02 -4.13894281e-02  3.09217945e-02  1.00820884e-02]
 [ 3.01479548e-03  2.09098980e-02  1.78793669e-02  2.65959948e-02
   5.99785224e-02 -3.26947719e-02  1.31311342e-02 -4.67093810e-02
   4.05174792e-02 -3.27316821e-02 -2.32909583e-02 -2.21216977e-02
   4.49710861e-02  8.30872357e-03  5.26363403e-02  3.32361832e-02
  -3.74685749e-02  5.79256713e-02  2.94585675e-02  2.50262544e-02
   3.38629633e-03 -5.32390811e-02 -2.83614583e-02  4.00964841e-02
   2.86198333e-02 -5.79693057e-02 -4.92544509e-02  3.21673900e-02
  -1.04121268e-02  2.72925869e-02  4.80134785e-03 -2.58707218e-02
   1.16301253e-02 -1.68143958e-03 -1.23013556e-03  5.53466082e-02
   3.12139913e-02 -5.28078973e-02  4.40993086e-02 -2.74030082e-02
  -5.85246049e-02  1.34051964e-03 -1.88670680e-02  2.58605406e-02
  -1.16135180e-02  4.09869030e-02 -9.85890627e-03  6.99508935e-03
   1.87978595e-02 -1.51605345e-02 -1.90654360e-02 -3.53150219e-02
  -3.37336101e-02 -1.70720406e-02 -3.76405567e-03  7.65392929e-03
   1.37108117e-02 -4.22657579e-02 -2.33995095e-02  4.23242003e-02
   2.92400718e-02  4.96405661e-02 -5.34718260e-02 -5.58722280e-02
   3.97132561e-02  1.28294826e-02 -5.14173135e-02  2.80281529e-02
   4.73462269e-02  3.35219428e-02  4.85277399e-02 -3.60627621e-02
   4.76700515e-02  2.18988582e-02 -8.92832875e-03 -7.43800402e-03
  -3.14249620e-02 -3.23291980e-02 -1.94545612e-02  3.10166404e-02
   2.42141932e-02  1.99665204e-02 -2.74531320e-02 -1.48511529e-02
  -3.64011899e-03  3.73237804e-02 -4.75132838e-02 -4.65866588e-02
   5.25018200e-02  5.31203821e-02  2.92109698e-03 -2.82331966e-02
  -5.80471903e-02  4.50095534e-03  2.63996422e-02 -2.50206441e-02
  -4.81219217e-02  6.40712678e-03  2.38430500e-02 -4.78304811e-02
  -3.04480568e-02 -4.44287807e-03 -6.38381764e-03 -4.70028259e-02
   4.55478579e-03  3.54096219e-02  5.11807725e-02  2.65016779e-02
   3.00208330e-02 -1.69754736e-02 -3.85227352e-02 -4.03159410e-02
  -2.64025964e-02  6.14386797e-03  3.17300335e-02 -6.17545098e-04
  -9.97547433e-03 -5.23589142e-02 -3.90413664e-02  7.46380538e-03
   4.96404991e-02  2.55836025e-02  5.90596721e-02  1.80147439e-02
   5.61327338e-02 -1.56489573e-02  1.90369785e-02 -4.01244983e-02]
 [ 1.12146586e-02  3.83509919e-02  2.77509019e-02  2.13116407e-04
  -3.28324959e-02 -2.17933320e-02 -2.55164430e-02  5.18509001e-03
   2.37967074e-03 -4.07002270e-02 -5.13631254e-02  1.43079981e-02
  -4.29634899e-02  2.05144212e-02  3.48062068e-02  5.45416027e-02
  -6.77123666e-03  5.56587428e-02  1.16891116e-02  5.80896065e-02
   3.68586034e-02  4.27917913e-02 -1.44478567e-02 -1.18724331e-02
  -4.25477400e-02 -3.43381129e-02 -3.21995020e-02 -5.67139871e-02
  -2.97656860e-02  4.11416665e-02  1.83656141e-02  3.09912711e-02
   1.51374117e-02 -5.59321865e-02 -8.17741081e-03  2.00819001e-02
  -9.77007300e-03  9.38971341e-03  3.03804278e-02  1.12915263e-02
   3.75006050e-02 -5.77016883e-02 -1.80004835e-02 -5.97528517e-02
   3.64133418e-02  2.79901028e-02 -9.87656042e-03  5.00973091e-02
   2.84711942e-02  5.64552322e-02 -1.42377168e-02 -3.12722623e-02
   3.77530158e-02 -4.71013673e-02  5.68575412e-02 -4.21987846e-02
  -5.63747399e-02  3.14035863e-02  4.01802212e-02 -1.92276724e-02
   1.56460702e-02 -2.03942880e-02  4.98191565e-02 -1.85825378e-02
  -2.46455930e-02  4.31268737e-02  1.97982714e-02  1.62138790e-02
  -2.14755908e-02 -3.74993570e-02 -1.86425112e-02  2.84676775e-02
   3.73232886e-02  1.21659487e-02 -4.85043339e-02  3.06992680e-02
  -3.31879482e-02 -7.04803318e-03 -3.35410982e-02  3.50964591e-02
   5.01264632e-03 -3.79830226e-03  2.00708881e-02 -3.06523982e-02
  -2.58688144e-02  1.64036304e-02 -5.34575954e-02  5.06830886e-02
  -2.65915878e-02 -5.76490723e-02 -4.47372012e-02  3.46327946e-02
   5.59068471e-02 -1.94876455e-02 -2.69941986e-02  9.06204432e-03
  -1.80206709e-02  4.76113632e-02  6.31602854e-03 -1.42131485e-02
   8.40753317e-03 -2.41861157e-02 -2.33860053e-02  3.41815650e-02
  -2.99859904e-02  9.97851044e-03  5.03874496e-02  2.44150236e-02
   4.84383777e-02  5.56139275e-02  3.10131013e-02 -5.19945435e-02
  -9.38060507e-03  8.88280571e-03 -1.13021620e-02 -2.61702798e-02
   2.24708170e-02 -1.31426007e-03 -3.63996699e-02 -5.19382916e-02
   2.68714353e-02  4.98278886e-02  4.55344021e-02  2.45194957e-02
   5.86505458e-02  9.64126736e-03  5.07602841e-02 -3.08955796e-02]
 [-3.01594064e-02 -2.19877660e-02  9.12714750e-03 -3.64931449e-02
   1.20411068e-03 -3.93477976e-02 -3.79426852e-02 -4.80876490e-02
   1.70146674e-03 -2.99829114e-02  4.63217869e-02 -2.78811231e-02
  -5.53775616e-02  4.37282771e-03 -4.91585433e-02  3.68908271e-02
  -4.55489643e-02  1.78546682e-02  1.10223144e-03  3.87374088e-02
  -5.70507422e-02 -7.69921020e-03 -2.44718790e-03 -3.71357277e-02
  -1.12398826e-02  5.42004406e-02  4.99360785e-02  1.90087035e-03
   4.13388461e-02 -6.45567104e-03 -5.23115396e-02  1.46906078e-02
   4.43963930e-02 -2.49588527e-02 -2.67522335e-02  2.04660147e-02
   8.08240473e-03  1.91807300e-02 -5.97433373e-03  5.86761460e-02
   1.68047249e-02  5.31366915e-02  4.98056412e-03  2.52107382e-02
   3.63829955e-02  4.37053442e-02 -4.68037687e-02  3.91939282e-03
  -3.94255966e-02  1.20985508e-02 -5.90425469e-02 -3.34673524e-02
   4.41491604e-02 -1.36556923e-02 -2.24866122e-02 -4.93663475e-02
   5.75278103e-02 -2.15352476e-02 -4.10404466e-02  5.98376021e-02
  -2.37706788e-02  5.74817732e-02  1.86498165e-02  4.22624648e-02
  -2.07789876e-02 -2.45046467e-02  4.30340841e-02 -2.92645488e-02
   3.87677327e-02 -5.36283627e-02 -6.05283305e-03  4.50671986e-02
   4.04997170e-03  3.67426127e-03  2.98246890e-02  3.02085578e-02
  -3.48302200e-02 -1.90829895e-02 -5.12434654e-02 -1.10039189e-02
   4.75307032e-02 -1.26493238e-02  1.17769837e-02 -3.76558676e-02
   2.58813873e-02  8.27857107e-03  2.71088853e-02 -2.06178688e-02
   2.17407718e-02  5.29663339e-02  2.51837522e-02 -1.27337761e-02
  -2.92404406e-02  1.75466761e-02  1.06712729e-02  4.06522304e-03
   5.04862517e-02  3.81129906e-02 -3.45273502e-02  3.55547965e-02
  -1.29702725e-02  2.44509205e-02 -4.07713354e-02 -5.48465326e-02
   4.91774008e-02  1.19752139e-02  5.72403371e-02 -6.93522394e-04
  -3.46333496e-02  4.63860855e-02  1.67203844e-02 -4.85976636e-02
   9.61676985e-03 -5.57547323e-02 -5.93850724e-02 -2.51924992e-02
   5.37163541e-02  2.20667049e-02 -4.92035411e-02  4.41650376e-02
  -3.30609456e-02 -3.98391113e-02 -1.68000981e-02 -7.12778419e-04
  -1.08817406e-02 -3.99965681e-02  2.48361379e-03  3.82337570e-02]
 [-5.77599704e-02 -5.01524732e-02  4.79151383e-02  5.45604154e-02
   4.57566977e-02  3.88354063e-02  4.34485525e-02 -3.77625227e-03
  -4.73754145e-02 -8.64312798e-03 -2.54710577e-02 -6.39378279e-03
   4.27581519e-02 -3.89685668e-02  4.21493500e-02 -4.46774438e-03
  -1.47055686e-02  4.21470031e-02 -3.57726775e-02  1.68908387e-04
   1.51036829e-02  3.42423767e-02  4.86011878e-02 -5.17401509e-02
   5.57094961e-02 -4.06407565e-02  9.41377878e-03  3.05969343e-02
   2.96285450e-02 -3.76697816e-02 -3.39173377e-02 -3.54719870e-02
   1.86395943e-02  1.64476261e-02  1.97047591e-02 -1.07274503e-02
   4.19803560e-02  3.31766680e-02  1.87641755e-02  4.60883379e-02
   9.88646597e-03  1.21572614e-02 -4.13123891e-02  3.91837731e-02
  -4.54150736e-02 -3.91198471e-02 -4.82201949e-02 -3.50042060e-02
   5.49435392e-02 -4.99853566e-02  4.55291793e-02 -3.95236611e-02
   5.35529852e-03 -1.15755200e-03 -2.69680135e-02 -3.67540345e-02
   4.33415920e-03 -4.51758504e-04  3.14426124e-02 -4.91645001e-02
  -3.62962484e-02  1.44573748e-02  2.41694674e-02  3.05715501e-02
   5.32898754e-02 -9.67161730e-03  2.97194570e-02  1.94174126e-02
  -1.45942569e-02 -3.70125361e-02 -1.01175644e-02  3.88811901e-02
   4.76879627e-03 -2.30629817e-02 -5.74449748e-02 -3.80405225e-02
  -5.69187850e-02 -5.28014116e-02 -3.17284316e-02 -4.35482487e-02
   2.81070396e-02  3.36459205e-02 -4.33304384e-02 -5.11113182e-03
   3.98117527e-02 -5.36099076e-04 -1.46613605e-02  4.52256650e-02
   1.47717074e-02  4.10229489e-02 -1.21325366e-02 -1.42951421e-02
   3.31671163e-02 -5.92997447e-02  4.33763117e-02 -3.14677432e-02
   2.94121951e-02  3.10432687e-02 -4.50497307e-02  1.69757903e-02
   4.84885126e-02  1.90847665e-02  1.54999271e-02  4.79969010e-02
   2.49147341e-02  3.35919634e-02 -4.04361151e-02 -3.89668345e-02
   5.52008227e-02 -4.93400767e-02  2.93292627e-02 -5.98944835e-02
   4.34289053e-02  5.82661480e-03  2.45947093e-02 -5.94813079e-02
  -4.79937345e-03 -3.47878970e-02  5.70722297e-02 -4.91081476e-02
  -4.81506586e-02  4.47803065e-02  4.40851077e-02 -2.31897831e-02
   2.71886736e-02  1.55067965e-02 -5.78555316e-02 -3.30161229e-02]
 [ 5.76605275e-02  4.96597067e-02 -3.49834487e-02  4.21789289e-02
   1.84003487e-02 -7.20322505e-03  5.42425737e-02  2.04954669e-03
   5.95359579e-02 -2.10328214e-02 -2.66705714e-02  1.50673613e-02
   3.53602469e-02  1.95365548e-02 -4.51880284e-02 -2.12744139e-02
   4.74779382e-02 -8.39868933e-03 -2.22208686e-02  5.17959148e-02
   3.79438177e-02 -5.64112328e-02  2.91110352e-02  3.27172801e-02
  -1.43063664e-02 -4.83917780e-02 -3.53713408e-02 -3.76710966e-02
  -7.68012553e-03 -5.25164977e-03 -3.97977233e-02  9.96349007e-03
  -3.83831039e-02 -1.88389495e-02 -2.95140017e-02  3.99763361e-02
   4.54642102e-02  2.49049813e-03 -1.73401758e-02 -2.53525749e-02
   3.36393043e-02 -5.76161966e-03  5.31347170e-02  2.05583721e-02
   4.04962152e-02  2.59402394e-02  5.87419569e-02 -6.19283319e-03
  -5.86293302e-02 -2.20389292e-03 -1.17956810e-02 -3.48796695e-02
  -3.26729268e-02 -3.64557207e-02 -6.99821115e-03  2.04300359e-02
  -5.16779758e-02 -2.23145261e-02 -4.36685532e-02  2.23217830e-02
   5.29051796e-02  4.66381088e-02 -2.71806158e-02  2.09449753e-02
  -4.91866618e-02 -1.17045268e-03  5.34470156e-02  8.13475996e-03
  -1.95379704e-02 -4.38511744e-02 -5.60946092e-02  6.04296476e-03
   1.52466893e-02 -5.71628697e-02 -1.06197745e-02  4.58139628e-02
   2.23263949e-02 -2.71278434e-02 -5.28918058e-02  1.49974525e-02
  -4.48723063e-02 -5.76906502e-02  5.36672324e-02  1.55101195e-02
   2.53422409e-02 -4.07335125e-02  9.57328826e-03  5.55445775e-02
  -3.65964249e-02  1.44804865e-02 -4.53082882e-02 -4.45335880e-02
  -3.25362161e-02 -5.92480637e-02  5.89495227e-02  3.88602465e-02
   4.79201227e-03 -2.77757682e-02 -5.97382635e-02 -4.02757674e-02
  -1.87517032e-02  5.43995425e-02 -1.54968463e-02 -7.70324841e-03
  -1.59296058e-02  4.81951684e-02 -5.69831654e-02  5.07365763e-02
  -2.49680616e-02  3.09522450e-02  4.07646522e-02 -3.49706933e-02
   3.94481122e-02 -1.37872472e-02  4.48892862e-02  2.77366862e-02
   4.84889001e-02  2.82321796e-02 -1.49902664e-02  4.43972945e-02
  -2.26910524e-02  3.37537229e-02  3.97874191e-02 -4.51241769e-02
  -4.40462530e-02  3.94125804e-02 -5.49872071e-02  4.12441716e-02]
 [ 2.43232995e-02 -4.31189835e-02  5.13428226e-02 -2.62148343e-02
  -5.54140434e-02 -3.79499868e-02 -5.87292872e-02 -3.06605436e-02
  -3.64710242e-02  1.59136727e-02 -1.63950399e-03  4.06747013e-02
   2.36219168e-02  3.22244614e-02 -5.28082103e-02  1.47604868e-02
   1.07909292e-02 -8.75875354e-04  1.67442039e-02  1.05156079e-02
  -3.23331356e-03  3.29338834e-02  5.02887070e-02 -5.81370816e-02
   7.44524598e-03  5.22135124e-02  7.95653462e-03 -2.27513164e-03
  -1.27358958e-02  1.58928409e-02  3.49207446e-02  2.16131583e-02
   3.31998467e-02  4.63941693e-02  3.06398869e-02  1.65676251e-02
  -4.58499976e-02 -2.26873904e-04 -5.03886119e-02 -4.10228930e-02
  -4.18803282e-02  4.18253392e-02 -5.71121164e-02  2.56058648e-02
  -2.79870369e-02  5.97284734e-03  1.57405436e-02  3.10251042e-02
  -4.24634293e-02  3.17236334e-02  5.17263040e-02  5.15150949e-02
   5.72615787e-02  4.38976213e-02 -2.59671435e-02  4.50194776e-02
  -5.49539365e-02  3.57903987e-02 -3.95719931e-02  6.10611588e-03
  -5.32865971e-02 -5.53572625e-02  1.95629820e-02 -5.23202457e-02
   5.34135848e-03 -4.76879738e-02  1.17118731e-02 -3.87120396e-02
   1.44843087e-02 -2.18083337e-02 -6.04610518e-03 -4.18070406e-02
   3.08543891e-02 -1.30923055e-02  6.25476241e-05 -2.86162384e-02
  -5.12129888e-02 -3.74487191e-02  3.69632989e-02 -4.41058651e-02
  -3.18117253e-02  5.73601499e-02 -3.52266282e-02  5.50226122e-03
  -5.30988947e-02  4.34220657e-02  5.16624972e-02 -5.98520637e-02
  -3.39456387e-02  4.65073287e-02 -3.70502621e-02  4.97177616e-02
  -1.26606748e-02 -1.18265487e-02 -1.88015401e-02 -4.29497473e-02
   4.63621616e-02  1.86155662e-02 -2.58486420e-02  3.68993655e-02
   3.71134207e-02  3.66421491e-02 -1.06880367e-02 -4.57184575e-02
   5.64424843e-02 -1.10684335e-03 -1.81570090e-02 -5.59055731e-02
  -3.94007564e-02  5.99420592e-02 -5.30481264e-02  5.56061566e-02
  -5.53748719e-02 -5.05791195e-02  1.52652636e-02  9.50163603e-03
  -3.58484685e-02 -4.37464342e-02 -3.23113725e-02  9.09833610e-03
  -4.10512090e-03 -5.18109202e-02  2.06570253e-02 -1.67518780e-02
  -4.99431491e-02 -7.82112777e-03 -4.79100794e-02 -3.80682535e-02]
 [ 1.04296207e-02  9.63028520e-03 -3.05132978e-02 -3.66389006e-02
   4.56485227e-02  2.14597136e-02  4.64414880e-02 -3.32493521e-02
   2.74205282e-02  5.68179935e-02  2.49022245e-03 -8.83638859e-03
  -3.67404222e-02 -5.01170531e-02 -4.64665405e-02 -3.48751619e-03
   3.96230370e-02  7.25749880e-04 -2.63320841e-02  4.82518598e-02
  -3.72703746e-02  2.47479230e-03 -4.47043851e-02 -1.79087147e-02
   1.55731514e-02  5.05664349e-02  5.54239228e-02  3.87410820e-03
  -2.24022865e-02 -2.75206603e-02 -3.47896740e-02  1.65021122e-02
  -2.45829448e-02 -5.04159965e-02 -4.93714437e-02  5.16591221e-02
   4.75660712e-02 -5.72786182e-02  4.79780436e-02  2.61695907e-02
   3.75812873e-02  3.24606895e-03 -3.36783193e-02 -5.74704185e-02
   1.15724131e-02  5.74098006e-02  1.21130943e-02 -2.55239569e-02
  -1.24265403e-02 -3.56693715e-02  3.10280398e-02  2.17230991e-03
  -3.62997986e-02  4.74262238e-02  9.31076705e-04 -2.15655975e-02
  -2.78909169e-02  3.65434363e-02 -3.12269647e-02  1.68871135e-02
  -5.75927943e-02  2.23330632e-02 -4.24379557e-02  2.23105922e-02
  -1.31726339e-02 -5.67447543e-02 -4.13072631e-02  2.33292580e-02
   6.09419495e-03  4.73781899e-02 -3.94066796e-02 -2.81105638e-02
  -3.81445736e-02 -1.82069577e-02  4.67231199e-02  5.10216057e-02
   5.32776788e-02  6.35505468e-03 -2.63903551e-02 -2.92902812e-03
   6.76177442e-03 -1.50755048e-04 -7.14869425e-03 -5.36978990e-03
   2.90828198e-03 -4.62475568e-02  5.23063168e-02  1.27885342e-02
   1.18708611e-03 -1.98838711e-02  1.82586834e-02  5.53698167e-02
   1.95203722e-02  4.07088175e-02  1.76947713e-02  5.99641800e-02
  -2.38348171e-02  9.28774476e-04 -3.31479460e-02  9.58207995e-03
   3.67338806e-02 -5.03915325e-02  1.40172243e-03 -1.34803429e-02
   3.91665176e-02 -5.18504530e-04  4.60887849e-02  5.05463928e-02
   2.62918398e-02  4.17591631e-02 -1.88946687e-02  1.89392045e-02
  -2.46433727e-02  3.53135169e-03  3.73321697e-02  2.05832347e-02
  -4.28854078e-02 -3.90981883e-02 -2.85046957e-02  4.16727215e-02
  -2.87749805e-02  4.40841243e-02 -5.83989471e-02  2.16766521e-02
   3.23921070e-02  1.55225843e-02  3.63104343e-02 -5.21702059e-02]
 [ 5.08873165e-02 -2.85627209e-02  2.56108418e-02  3.42629403e-02
  -4.94393483e-02 -4.15781885e-02 -1.16388164e-02 -2.05766074e-02
  -3.17274556e-02 -4.51942123e-02  1.04003474e-02 -3.27265970e-02
   5.44924289e-03  5.55174202e-02  1.36056542e-02 -1.93963647e-02
   1.66519508e-02  2.27698535e-02 -5.44871762e-03 -5.71091808e-02
  -4.97615151e-02  4.85013574e-02 -2.27239504e-02 -3.84239480e-03
   5.11543900e-02  8.17277282e-03 -5.81313558e-02 -4.34543043e-02
  -5.65902628e-02  2.40321159e-02  4.65167910e-02 -1.74414068e-02
  -1.98256634e-02  5.26405871e-04 -3.74192670e-02 -6.05504960e-03
   8.51064175e-03  5.49104884e-02  8.58151168e-03 -3.97330970e-02
  -3.79052460e-02  3.29423323e-02 -2.52426788e-02  4.75039333e-03
  -5.72247431e-02 -3.69740091e-02  2.26198882e-03 -4.20524254e-02
   5.63997403e-02  5.77665567e-02 -2.90904026e-02 -5.34423925e-02
  -4.11108881e-03  5.46379685e-02  5.39553389e-02  1.40755400e-02
   1.43330395e-02 -2.71042064e-02 -3.10750511e-02 -1.16383731e-02
  -1.10990368e-02  2.72892341e-02 -1.33820437e-02  4.47842032e-02
   5.17485812e-02  5.48833385e-02  5.85593283e-03  4.71712574e-02
   5.80924973e-02  5.78581542e-02  1.94513425e-02  5.05705178e-02
   6.00269437e-02 -2.88547091e-02  3.53510082e-02  4.47982997e-02
  -3.18102911e-02 -5.43468706e-02 -5.88850528e-02 -5.25818951e-02
   5.33856377e-02 -2.31903568e-02 -5.43904491e-02 -4.31462713e-02
  -6.33993745e-03 -1.08093992e-02 -4.56714258e-03 -3.74083146e-02
  -4.67515290e-02 -4.02343497e-02 -4.77883630e-02  1.06946975e-02
  -3.43302973e-02 -1.00034475e-02  5.45292199e-02 -2.19809934e-02
  -2.73074210e-03  1.56473964e-02  2.43998766e-02  3.52299809e-02
  -1.60170235e-02  5.08278012e-02 -2.69798264e-02  2.81263143e-03
  -1.91624910e-02  5.53053617e-03  2.59645805e-02  3.56247574e-02
   3.98169979e-02  3.49997953e-02  4.99743968e-03 -5.37775420e-02
   4.82611358e-03  4.70809639e-02  1.42514482e-02 -7.37425312e-03
   3.98426801e-02  1.54873803e-02  3.36873978e-02 -2.87319869e-02
  -2.58019306e-02 -2.39434950e-02  4.02126163e-02  4.86810580e-02
  -1.87946670e-02 -2.27426626e-02  6.99135661e-03 -2.58173607e-02]
 [ 1.59284770e-02  3.70701477e-02  3.02084982e-02  5.88317662e-02
   9.62421298e-03  2.81418860e-02  7.14365393e-03  3.28171775e-02
   5.32323644e-02 -2.14841776e-02  4.69162837e-02 -4.99646664e-02
  -4.32798006e-02 -5.49455471e-02 -5.02800196e-02  2.74971426e-02
  -3.29423919e-02 -4.70743328e-03 -1.07327104e-03  5.88637590e-03
   5.40114865e-02 -4.47713435e-02 -3.33400629e-02  2.50864998e-02
   4.05647084e-02 -5.67559898e-02 -1.80201977e-02  4.12608609e-02
   2.84814015e-02 -2.64837109e-02  1.33975074e-02  5.46965748e-04
  -1.96814798e-02  3.29203606e-02 -2.06436254e-02 -1.22081712e-02
   8.21075588e-03 -4.12976854e-02  5.18225133e-02 -3.01249325e-02
   3.86948362e-02  3.63557935e-02  4.48711216e-03 -6.10696152e-03
  -4.34116572e-02 -3.78183424e-02 -3.13809402e-02 -1.42393634e-02
   2.31785178e-02 -3.33601609e-02 -8.30206648e-03 -1.73685066e-02
  -4.88977395e-02 -4.59152460e-03  4.86917272e-02 -3.82899046e-02
  -3.63793857e-02 -4.41490114e-03  5.66050261e-02 -5.99461980e-02
  -4.84679863e-02 -1.52504444e-02 -3.14753428e-02  5.41926920e-03
   3.32080200e-02 -3.52894925e-02 -1.04073621e-02  5.49172163e-02
  -3.63937169e-02  5.85217550e-02  5.09487465e-02 -4.46746796e-02
   7.75892287e-03  4.87014279e-02 -1.44359879e-02  3.42982262e-03
   1.08348280e-02 -5.90104349e-02  1.24623328e-02  4.57421690e-03
  -1.08743235e-02  1.04816481e-02 -1.04808807e-03 -2.63273753e-02
  -5.33851981e-03 -4.75918092e-02  5.75487316e-02  2.01962441e-02
   8.15267116e-03  5.14981598e-02 -3.65992300e-02 -2.95093060e-02
   2.01917812e-02 -7.32664019e-04  2.26118416e-02  4.76761907e-02
  -5.15069216e-02  4.08626795e-02  1.55552700e-02 -4.90835235e-02
  -2.45558843e-02  1.98815539e-02 -2.61122994e-02  2.61036232e-02
   2.82474607e-02  1.97727159e-02 -2.62541883e-02  3.35695744e-02
  -2.24598832e-02 -1.93068720e-02 -1.98112577e-02 -1.13701932e-02
   2.24837065e-02 -2.36349441e-02  3.02304998e-02  4.02242318e-02
  -2.50410028e-02  3.88687104e-02 -6.02062047e-03  1.43602267e-02
  -9.26823542e-03  2.78270394e-02 -4.68757376e-02  2.41265148e-02
  -3.54639404e-02 -2.32808217e-02  2.06425935e-02 -1.19148977e-02]
 [ 4.26587090e-02 -1.02021061e-02  1.87704265e-02 -1.78477131e-02
   4.96752858e-02  5.96661344e-02 -1.24793686e-02  2.74168253e-02
   2.00250372e-03 -1.17774159e-02  3.56387421e-02 -2.52023377e-02
  -2.40855142e-02  4.94223386e-02  3.44041586e-02 -4.32511121e-02
   2.62754187e-02 -4.64198142e-02  6.71474636e-03  4.46292236e-02
  -1.20149404e-02  5.86730838e-02 -3.75296772e-02  3.69753093e-02
   9.99268144e-04 -5.29554561e-02 -1.76662505e-02  3.14837322e-02
  -5.09906486e-02  1.33155733e-02  4.63063121e-02  3.05778980e-02
  -5.78052662e-02  1.45504326e-02  1.57926232e-02  4.60462198e-02
  -1.10992827e-02 -3.41371074e-02 -2.43869089e-02 -2.74019353e-02
  -4.71084528e-02 -5.84300272e-02  2.60500610e-02 -1.65602937e-02
  -2.37602293e-02 -4.06126529e-02 -3.55371386e-02  3.70520055e-02
  -3.85459960e-02 -3.90796065e-02  1.72844678e-02 -8.38961080e-03
  -1.66309029e-02 -2.73484476e-02 -3.28433216e-02 -9.61501151e-03
  -5.92715852e-02  2.66277343e-02 -5.59034534e-02  4.25880551e-02
   3.68636176e-02 -2.82281861e-02  1.05697662e-02  2.48372927e-02
  -1.56149417e-02  3.40104848e-03  2.33818591e-02  5.44805005e-02
  -5.62501028e-02 -5.33191115e-02  2.97543481e-02 -6.90251961e-03
  -5.93903847e-02  3.72182056e-02 -2.56354399e-02  5.19980788e-02
   2.40792856e-02  3.26963440e-02  4.27025110e-02  2.69213542e-02
  -5.22094779e-02 -5.79476170e-02 -5.27448580e-02  1.27499253e-02
   4.67990711e-02 -9.43804160e-03 -3.65421921e-02 -4.03920636e-02
   3.47801968e-02 -2.86279917e-02  3.81839871e-02 -2.21296996e-02
  -3.59853208e-02 -9.97511670e-03 -2.76630372e-03 -2.74536610e-02
  -3.49132679e-02 -1.48710236e-02 -3.98939848e-03 -5.08695841e-04
  -9.88002867e-04  5.30205965e-02 -2.80914195e-02 -1.69700198e-02
  -6.69440255e-03 -4.12162095e-02 -5.33777848e-03 -1.97628848e-02
  -7.33800232e-03  3.39942425e-03  9.82834399e-03  3.89562696e-02
  -7.04943761e-03 -5.01437970e-02 -5.68567961e-02 -5.99690750e-02
  -1.01113245e-02  5.49093559e-02 -3.14015150e-02  1.65037885e-02
  -5.11040166e-03 -4.32803035e-02  2.42312849e-02  2.81575173e-02
   3.09627131e-02 -2.50347592e-02 -2.28501521e-02 -3.68554965e-02]
 [ 3.24121118e-03  3.66236717e-02 -4.75754440e-02  4.35658917e-02
   4.26203832e-02 -5.49333207e-02 -7.34510273e-03  3.29367518e-02
   3.08752358e-02  4.09243107e-02  5.63197061e-02  4.93945256e-02
   3.04293633e-02  5.12675866e-02  7.59743154e-03 -3.89658287e-02
   4.96727675e-02 -2.88994052e-02  2.73058563e-02  2.67776772e-02
   7.51922280e-03  3.71067673e-02  3.99041250e-02 -5.21940291e-02
   1.22262388e-02 -5.90155348e-02 -2.35052072e-02 -5.99089600e-02
  -4.91067320e-02  7.81422853e-03  3.71656567e-03 -5.52525073e-02
  -4.55925986e-02 -1.52189769e-02 -3.49002704e-02 -1.57496184e-02
   2.53408924e-02 -2.95505524e-02 -3.02656647e-02  5.38935810e-02
  -1.21690705e-03  5.60089499e-02  4.96923923e-03 -2.71244645e-02
   4.56653684e-02  2.46400088e-02 -1.24425627e-02 -2.26690918e-02
   5.57509363e-02 -3.88016924e-02 -4.49159853e-02  3.55844274e-02
   3.36855799e-02 -3.47195938e-02  1.02654696e-02 -1.18893981e-02
  -5.30172624e-02 -5.03378436e-02  3.37815285e-02  7.42686540e-03
  -4.34664600e-02 -3.65179405e-02 -3.01873684e-03 -2.78836600e-02
  -6.22118264e-03  5.38069755e-02 -2.87027247e-02  1.22901350e-02
   3.01452354e-02 -2.66329758e-02 -2.44594477e-02 -7.17939064e-03
  -3.54687944e-02 -3.60342711e-02  2.85187438e-02 -2.05676183e-02
  -1.57694146e-03  1.69194862e-03 -5.17375022e-02 -4.69054170e-02
  -5.21035790e-02 -3.88014317e-02 -5.24121001e-02 -1.99275799e-02
  -4.91306186e-03 -3.70805264e-02 -4.94251028e-02  4.88763079e-02
   5.42869419e-02  5.73421568e-02  2.89894119e-02  2.92960629e-02
   2.65160650e-02 -2.03149021e-02 -3.15871537e-02 -4.84669544e-02
   3.00047770e-02 -6.27200305e-03 -3.44589725e-03  8.30218196e-03
  -2.46019289e-02 -5.24063036e-02 -2.15928853e-02 -2.21505761e-04
  -4.71370593e-02 -3.18322852e-02 -3.95575538e-03 -5.14316857e-02
  -1.98416114e-02  2.31532082e-02  4.31416929e-02  2.65364870e-02
  -1.29639842e-02  2.49322504e-04 -1.49427801e-02  1.22561455e-02
   2.09691972e-02 -4.97058816e-02 -2.24621594e-02 -4.66766208e-02
  -3.36360559e-02 -5.96170425e-02 -4.81556803e-02 -3.16853672e-02
   2.39377841e-02 -3.87423076e-02  1.33007690e-02  2.00427696e-02]
 [-2.16089040e-02 -3.81018259e-02 -4.62849215e-02 -2.75418498e-02
  -1.59190409e-02  1.64882541e-02  2.31794789e-02 -5.16081974e-02
   1.09362006e-02 -4.35873941e-02 -4.42309529e-02 -1.88509598e-02
  -5.45229055e-02  2.33365744e-02  3.96819040e-02  2.28387862e-03
   1.95078552e-04 -3.88276763e-02 -1.81663297e-02  1.58325136e-02
  -5.54679707e-03  4.92552817e-02  5.65739870e-02 -5.91148324e-02
   2.55834460e-02 -2.14131102e-02 -4.36105579e-03  4.98717651e-02
  -1.10047646e-02 -5.59321009e-02 -5.79557642e-02  1.34782344e-02
   1.39973983e-02 -5.89649938e-02  4.38920930e-02 -3.34738344e-02
  -4.98131141e-02  2.04726979e-02 -5.47663160e-02 -6.61714748e-03
   5.31702191e-02  4.50070277e-02 -3.57424989e-02 -2.82539837e-02
  -3.01214103e-02 -3.41166370e-02 -2.60261409e-02 -4.35206369e-02
   3.01100314e-02 -6.97736815e-03  1.20697618e-02 -6.86393678e-03
   9.34833288e-03 -5.41069806e-02 -3.99795920e-03 -5.91347888e-02
   3.76332849e-02 -3.12240440e-02 -4.41460088e-02  4.16360870e-02
  -3.12736779e-02 -2.97227222e-02  2.08628699e-02  7.12309778e-03
  -1.12413317e-02 -1.39388293e-02  2.93850377e-02  3.25093567e-02
   4.23514545e-02 -1.52316019e-02 -4.47396189e-02 -5.85306175e-02
  -8.27638060e-03 -3.58902290e-03 -4.24958542e-02 -3.70217860e-02
   5.93173131e-02  4.45025638e-02 -1.94357373e-02  3.85580957e-03
  -2.53439434e-02 -4.34411056e-02  1.15116835e-02 -9.00247693e-03
   2.01464072e-03 -4.06065397e-02 -9.06037167e-03  1.40287504e-02
   5.28192222e-02 -2.01660395e-02 -5.54868281e-02  8.45915824e-03
   2.91339681e-02 -4.00914252e-03  4.98750284e-02 -1.11307912e-02
  -3.95858958e-02 -2.30765827e-02 -4.11469862e-03 -1.52269341e-02
  -5.47494739e-04 -3.08413617e-02  4.50028852e-02 -5.86170740e-02
  -1.92667432e-02  9.31881368e-03  2.91672945e-02 -1.91299766e-02
  -5.87848648e-02  1.19261220e-02  3.83134559e-02 -4.81668189e-02
   4.30234224e-02  1.81260109e-02  2.28796005e-02 -4.92788740e-02
   5.78181967e-02 -5.10527976e-02 -1.92677006e-02 -3.88588607e-02
  -3.04788239e-02 -3.34495679e-02  3.62942442e-02 -4.97784391e-02
  -4.06755283e-02 -3.89402770e-02  2.01602429e-02 -1.12273283e-02]
 [-5.54491170e-02  9.76177305e-03  4.11981866e-02  2.30716467e-02
  -3.96978371e-02  3.74712944e-02  3.55876088e-02 -2.19918415e-03
  -4.09273282e-02  1.31088421e-02 -3.24963033e-02  1.70092061e-02
  -5.87690994e-03  2.15125978e-02  3.56612355e-02 -4.10935730e-02
   1.66196972e-02 -3.85795683e-02 -7.43526965e-03 -1.24473721e-02
  -7.57637247e-03 -5.56485057e-02  3.76660377e-03  2.10490450e-02
  -4.95741963e-02  4.13230807e-02 -9.93900746e-03 -4.83229868e-02
   5.69969788e-02 -1.86498426e-02 -3.08692362e-02  2.87089497e-02
   2.79590338e-02 -5.21042347e-02 -4.88268994e-02  5.32422885e-02
   5.05080968e-02 -2.37970650e-02  2.54075229e-02  4.04883251e-02
  -2.99718454e-02  4.83955741e-02 -4.85419147e-02  1.99313462e-02
   5.74374050e-02 -3.82539965e-02 -9.31401923e-03  2.48396844e-02
  -3.09345927e-02 -5.57371229e-03 -4.29124087e-02 -2.96654701e-02
   2.86400318e-02 -8.77800584e-03  1.41712427e-02 -4.35024798e-02
   3.76704931e-02  4.75352705e-02  1.52361989e-02  3.47400457e-03
  -5.71370125e-03  1.25667602e-02  5.52958474e-02 -3.43031660e-02
   4.30961326e-02  2.54966244e-02  5.78358620e-02  2.11798772e-02
  -3.48594114e-02  5.85046858e-02  3.52783427e-02  2.66467035e-02
  -1.92359090e-03 -4.23664302e-02  2.04333588e-02 -6.33027405e-03
  -3.07422485e-02 -2.14042626e-02 -5.60595319e-02  1.07301250e-02
  -1.03668012e-02 -2.35060379e-02  1.77615806e-02  5.31130359e-02
  -3.87726575e-02  4.43550795e-02 -1.87597051e-02  3.72424573e-02
  -2.29183994e-02  5.84987625e-02 -4.51252945e-02 -5.73120601e-02
  -1.26160495e-02 -2.52358802e-02  1.74932927e-02 -1.57289021e-02
  -5.98082691e-02  3.64169776e-02 -2.57053971e-03 -4.06049937e-02
  -2.84228474e-03 -8.68716836e-03 -2.62455866e-02 -2.44785920e-02
  -3.42253298e-02 -1.75678805e-02 -2.26541311e-02  7.83531368e-03
   5.00433072e-02 -4.74287309e-02 -2.24891454e-02  2.78226808e-02
  -8.27370584e-03  1.36413053e-02 -5.11327572e-02  3.70500311e-02
  -2.36499608e-02 -5.48531488e-02  8.68782401e-03  4.63275313e-02
   4.10224497e-03 -1.02154762e-02  2.40165815e-02 -1.79544725e-02
   1.05084479e-02  3.12006101e-02  5.17996624e-02 -5.86686730e-02]
 [-3.04284301e-02  4.14965451e-02  6.57454133e-03  2.22668201e-02
   3.49055827e-02 -1.20531768e-04 -5.22447228e-02  5.40549234e-02
   3.18903252e-02 -5.18761016e-02  1.36941746e-02 -3.63502800e-02
  -3.81354541e-02 -3.70846465e-02 -3.63963507e-02  5.80317378e-02
  -6.70672581e-03  2.84416229e-03 -2.53125653e-03 -4.44560349e-02
  -2.63757259e-03  4.03451174e-03  3.77715155e-02  3.27018276e-02
  -3.10465768e-02 -5.95229119e-02 -2.57614143e-02  9.22202319e-03
  -5.77861406e-02 -4.30540144e-02 -2.48610005e-02 -1.58622600e-02
  -4.24307287e-02  5.72542846e-03 -2.20286511e-02 -4.38076258e-02
  -2.82388553e-03  4.99057397e-02 -5.45029342e-02  5.66984639e-02
  -4.32308391e-02 -1.76299587e-02 -5.22673726e-02  3.70320901e-02
  -2.07212493e-02 -2.45269947e-02  2.85361335e-02 -7.91241229e-03
   1.25750452e-02 -1.92722976e-02  5.79983518e-02 -5.87038323e-02
   4.76460829e-02  4.55524772e-03 -3.50063518e-02  3.94544154e-02
  -3.06444671e-02 -5.46796732e-02 -9.28845257e-04 -5.56121096e-02
   4.74503636e-02 -5.36588281e-02 -2.30332762e-02 -1.06822811e-02
   3.58677953e-02  2.23186612e-03 -4.37402502e-02 -3.60632017e-02
  -1.33202672e-02  2.29405016e-02 -4.50963452e-02 -1.74692683e-02
  -1.89174190e-02  4.39823270e-02 -2.78883241e-02  5.92874587e-02
   2.63644159e-02  5.77099919e-02  4.44178805e-02  3.55304405e-02
  -4.18653265e-02  3.42599303e-02  2.86083370e-02  3.69344503e-02
  -5.92429675e-02 -5.80643117e-03 -1.33360177e-02  3.47752571e-02
  -1.66485719e-02  3.21390033e-02 -3.94043624e-02  5.27848154e-02
   2.20248029e-02  4.36354950e-02  2.07255408e-03 -2.19662115e-03
  -5.35165519e-02  5.42511493e-02 -3.95395532e-02  3.31846550e-02
  -2.99555250e-02  2.36215740e-02 -5.35311550e-02 -4.75873575e-02
  -2.63422802e-02 -4.07171324e-02  4.26923633e-02 -4.71845269e-04
   2.85962224e-02  5.03794476e-02 -2.03721672e-02  3.68230790e-03
  -2.15614475e-02 -1.17050298e-02 -4.22233269e-02 -4.28728238e-02
   1.61307976e-02 -1.19584203e-02  4.33779508e-03  8.66630673e-03
  -2.37434618e-02  1.50432512e-02 -6.55697659e-03 -9.35333222e-03
   4.88376617e-03 -1.97767429e-02  2.64430791e-02  3.29291224e-02]
 [ 2.06535310e-03  7.21764565e-03  3.39308083e-02  2.10310891e-02
  -2.40571424e-03 -1.99464075e-02 -4.21657711e-02 -5.17671965e-02
  -5.20553440e-03 -2.73746178e-02 -3.77058461e-02  2.02744976e-02
  -4.94394079e-02 -2.02583522e-02 -1.31704882e-02  4.78582829e-03
  -5.72447889e-02 -4.83669527e-02  8.84413719e-03  4.52828333e-02
   1.31430253e-02 -2.90277246e-02  4.18086126e-02 -1.62661187e-02
   9.09380615e-05  2.89139822e-02  7.18534738e-03 -4.27538380e-02
   1.47078186e-02 -2.14730427e-02  2.47644335e-02  5.31219989e-02
   3.41392830e-02  1.89379305e-02 -5.08534238e-02 -3.07104811e-02
  -4.66406606e-02  2.23045051e-02  2.29853019e-02 -3.13520916e-02
   3.01077366e-02  2.49850526e-02  2.30562240e-02  4.43146005e-02
  -1.44066662e-02 -4.29372489e-03 -9.42505896e-03  5.99740148e-02
   4.77641672e-02 -1.17336214e-02  5.78320995e-02 -5.90103343e-02
  -5.48130311e-02 -5.57013303e-02  4.89295796e-02 -5.75619005e-02
  -5.98995090e-02 -4.21545468e-02  2.46490985e-02  5.08082435e-02
   9.98553634e-03  5.51576912e-02 -1.18481368e-02 -1.47351474e-02
  -2.12231018e-02 -1.08140819e-02 -3.70508172e-02  4.86886725e-02
  -2.27151066e-03  2.99059153e-02  5.88645637e-02 -5.79171814e-02
   4.12457138e-02 -3.72850522e-02 -4.53219190e-02 -1.32524520e-02
   3.33012789e-02 -1.84285343e-02  4.89107370e-02  4.09644693e-02
   5.14054298e-02  4.88421172e-02 -3.08220927e-02 -4.41330522e-02
   5.16619533e-02 -7.30647892e-03 -5.40197082e-02  9.28759575e-04
  -7.54909962e-03 -3.96522135e-02 -2.75554359e-02  2.55680680e-02
  -1.03963912e-03  3.06001157e-02 -4.14180160e-02  5.65894172e-02
   5.70536628e-02 -5.83497994e-02 -7.68981874e-03  1.23627484e-02
   3.18447649e-02  3.73853818e-02 -1.14434659e-02 -2.19355226e-02
  -4.71872091e-02  4.96884584e-02 -5.82255572e-02 -5.99563904e-02
   6.92471117e-03 -3.21236849e-02 -3.05300951e-03  3.58837992e-02
   3.97397578e-02  2.35448778e-03  2.77364850e-02 -4.16880846e-02
   2.84880325e-02  3.43880057e-03  5.49876243e-02  2.80934572e-02
   3.46564576e-02  3.10520008e-02  2.61648968e-02  2.30927020e-02
   2.19311416e-02 -1.54384486e-02  5.32915071e-02 -4.43448126e-02]
 [ 4.40010279e-02 -4.48701568e-02 -5.20371050e-02  3.17605436e-02
  -3.09897102e-02  2.64509395e-02  1.70391425e-02 -4.62153293e-02
   8.23158771e-03  5.87292984e-02  1.79039016e-02  4.02215347e-02
   4.56472784e-02  1.34399384e-02 -4.59514037e-02  4.33565825e-02
  -1.26992427e-02  1.41719878e-02 -3.46542969e-02  4.61060628e-02
   1.40520707e-02 -3.70373726e-02 -1.76749118e-02 -5.28613254e-02
   5.84013090e-02  3.57074514e-02 -3.85341011e-02  5.41048050e-02
  -4.36258912e-02 -3.63794118e-02 -2.07040124e-02  1.57691017e-02
   3.22528183e-03 -5.22799790e-03 -1.59958787e-02 -2.52580568e-02
  -8.78331810e-03  5.88533953e-02 -2.58485563e-02  4.25982475e-03
   5.69413304e-02 -1.96179263e-02 -3.88701707e-02  5.96839860e-02
   3.93275246e-02 -3.09234541e-02 -1.69905499e-02 -1.59550197e-02
  -1.86436139e-02 -3.06780823e-02  4.34298068e-02 -3.49466130e-02
   8.32183659e-03  3.57035249e-02  4.22233418e-02  5.88043034e-03
  -2.54363269e-02  5.45018911e-03  5.08120954e-02 -1.20997801e-02
   2.48578787e-02 -8.94362107e-03  3.49919349e-02 -3.57185304e-02
  -3.23034860e-02  2.00698599e-02 -3.75283062e-02 -5.37365302e-03
  -9.05320048e-03  4.75688204e-02 -3.03093866e-02  1.75572261e-02
   2.47764215e-02 -7.13314489e-03 -8.58402997e-03  7.75828212e-03
   1.83591172e-02  1.35643110e-02 -2.91477684e-02 -4.68881354e-02
  -1.64732933e-02 -1.48374401e-02  3.95435467e-02  5.41943163e-02
  -5.51639162e-02  3.64865735e-02  2.97062695e-02  3.65102962e-02
   3.71646360e-02  2.64506713e-02  3.42969820e-02  4.49917018e-02
  -1.48372538e-02  5.52738234e-02 -5.55365346e-02 -1.78140551e-02
   5.52183092e-02  1.65831149e-02 -4.57787588e-02 -3.94858792e-02
  -3.60983238e-02  5.85030317e-02 -4.52104472e-02  3.88464853e-02
  -1.61522254e-03  2.58336663e-02 -9.81507078e-03 -4.18250784e-02
   2.80162320e-02  5.90475649e-03 -2.26870589e-02  2.13294178e-02
  -4.26674671e-02 -4.09983844e-02  5.10431379e-02  1.67150423e-02
   1.64607838e-02 -2.76722871e-02  5.30620292e-02  3.08541954e-03
  -4.50367033e-02 -3.19626182e-03 -9.14909318e-03  4.72246110e-03
  -2.23837607e-02 -2.55772844e-03 -1.15527436e-02 -3.44595164e-02]
 [-3.83375920e-02  6.00039810e-02 -4.00780290e-02  2.01004222e-02
   7.42938370e-03 -5.25843352e-03  2.09543109e-02 -3.81901711e-02
   4.65123430e-02  5.01510948e-02  5.23298532e-02  2.11028308e-02
   1.41735375e-03  2.19105706e-02  1.20489299e-02 -3.44499685e-02
  -5.24708852e-02 -4.33781557e-02  5.77103198e-02  1.14144906e-02
  -1.97292976e-02  4.59805802e-02 -9.78280231e-03  2.72620916e-02
   3.18573117e-02  3.49815413e-02  4.14963290e-02 -8.07294250e-03
   2.98334584e-02  5.46005368e-03  5.15614972e-02 -3.55137885e-02
   3.80970463e-02  1.76981017e-02 -2.04340890e-02 -5.22466451e-02
   3.68790179e-02 -3.49448510e-02  4.26503569e-02  2.97331065e-03
  -1.96878798e-02 -3.95355299e-02  3.00610811e-03 -1.62756108e-02
   4.12236676e-02 -1.85463056e-02  5.70292696e-02  2.88190469e-02
  -2.79821008e-02  2.75368243e-02 -1.53318904e-02 -4.41634208e-02
   3.91049907e-02 -4.42453101e-02 -4.14756984e-02 -2.47857235e-02
   3.70541960e-02 -4.80604917e-02  9.56819206e-03 -2.53134035e-02
  -5.37640564e-02 -1.15268007e-02 -2.06263028e-02  4.21034247e-02
   3.33473384e-02 -4.46607918e-02  1.93859264e-02 -5.80753796e-02
  -3.35592031e-03 -1.64962858e-02 -5.11383675e-02 -5.56294620e-03
   9.79800522e-03 -7.84314796e-03 -3.01581044e-02 -2.23382339e-02
  -5.64307347e-02  5.86077124e-02  3.01750749e-03 -4.36558835e-02
   1.36551186e-02 -3.63861397e-03  1.47749484e-02  8.27137381e-03
   2.90371478e-02  1.09584332e-02  2.02142447e-02  5.05667776e-02
   1.50856748e-03  3.26211974e-02  3.41733545e-03  1.54900476e-02
   2.81806439e-02 -5.91795519e-03 -2.08411515e-02 -3.98583114e-02
   5.31900600e-02  2.70942450e-02  5.62126487e-02 -4.09598015e-02
   2.69130245e-02  5.50051630e-02  2.14832500e-02 -4.26119193e-02
   1.58102363e-02 -5.58130294e-02 -5.02998605e-02  5.16451895e-02
   2.94948146e-02 -4.60987352e-02  5.49506024e-02  1.30222961e-02
   1.41441599e-02 -1.50238127e-02 -4.08681743e-02 -3.37471813e-03
   1.15257278e-02 -2.25131959e-02  3.07029039e-02 -5.61984479e-02
  -5.90966232e-02  3.37838903e-02 -2.98997611e-02 -4.76634502e-02
  -5.68157770e-02  1.20992213e-03  2.46190950e-02  1.12847686e-02]
 [-7.90137425e-03  3.96735743e-02 -4.61781919e-02 -7.18926638e-03
  -5.68521991e-02 -5.14191464e-02  5.94394878e-02  5.95173165e-02
   1.90600678e-02 -3.57433148e-02  2.53852010e-02 -2.18712129e-02
   2.01087818e-03 -2.41254456e-02 -4.64415327e-02  9.80005413e-03
   3.81249934e-02 -1.68346129e-02  4.94562015e-02 -5.54460250e-02
  -1.88436173e-02  4.41999882e-02 -4.96698320e-02 -2.51275748e-02
  -8.05322826e-03  4.02590632e-02 -2.69346274e-02  3.35269347e-02
   9.90743935e-03  4.71859202e-02  5.87193370e-02  1.69132724e-02
  -3.98408622e-02 -4.41333838e-02 -3.41275707e-03  1.74460188e-03
   1.37241110e-02 -2.62559205e-02  1.68961734e-02 -8.13297182e-03
  -7.20893964e-03 -3.76544073e-02 -5.10652252e-02 -5.32131568e-02
   3.68470922e-02  4.08213586e-02  1.23377964e-02  5.49113750e-03
   6.90773129e-04 -4.49954867e-02  9.31966305e-03 -1.38517097e-03
  -1.40298679e-02 -3.03619858e-02 -1.07037127e-02 -2.38357782e-02
   4.63409871e-02  3.00400630e-02  3.15995812e-02  1.68623775e-02
   3.42397466e-02  1.24536827e-03  2.57685706e-02  5.67034036e-02
  -9.04479623e-03 -2.94141434e-02  9.07096267e-03  3.08188796e-03
  -5.12018800e-04  5.76366931e-02  1.72728598e-02  6.83065504e-03
  -5.26003912e-02  3.29679027e-02 -1.81639530e-02  1.77390054e-02
  -2.38597430e-02  3.82054523e-02 -2.43666619e-02  2.56691873e-02
   2.60474309e-02  2.99123675e-03 -4.56920415e-02  5.05185872e-03
   3.19356918e-02 -4.64048795e-02  3.47297862e-02 -2.33640894e-02
  -5.47176264e-02  3.67876962e-02  1.95174292e-02  2.25564316e-02
  -3.03665381e-02 -2.17054561e-02  2.54169852e-02 -3.14125940e-02
   4.88893315e-02  3.63250971e-02  2.99246833e-02 -1.15799531e-03
   1.05992630e-02  5.06588817e-02  3.86504531e-02  1.71552598e-03
   1.87893435e-02 -3.47268507e-02  4.61176783e-03 -3.41671892e-02
   5.66282272e-02  2.66165286e-03  3.90868485e-02 -5.33033796e-02
   7.69388676e-03 -4.20266315e-02  4.13809940e-02 -4.27786186e-02
   1.67338997e-02 -4.67321649e-03 -2.48382092e-02  4.42229211e-05
   3.33831236e-02 -4.33145761e-02  1.92053095e-02 -1.34265386e-02
   3.42947915e-02 -2.21180320e-02 -7.26222619e-03  5.70097789e-02]
 [ 1.24153048e-02  2.60350630e-02  3.39696184e-02  4.62668389e-02
  -5.01865894e-02  1.41820088e-02  2.99436301e-02  5.33788800e-02
  -5.38460910e-04  3.52699533e-02 -5.13599329e-02 -6.28948584e-03
  -4.20126133e-02 -2.13460103e-02 -2.94089690e-03 -5.79245239e-02
   1.20358542e-02  3.66860181e-02 -3.65603752e-02 -1.73996910e-02
  -1.34630762e-02 -3.25561166e-02 -1.73703544e-02 -2.87611485e-02
  -5.91064133e-02  2.33583078e-02  3.31229791e-02 -1.36064142e-02
  -5.73684126e-02 -4.55867015e-02  2.94035897e-02 -4.79106978e-03
   3.16851363e-02 -3.73640209e-02  4.90508005e-02  8.03619623e-03
  -5.42767905e-02 -9.31328908e-03 -2.49006152e-02 -3.43930870e-02
  -4.53909673e-02 -1.11033022e-02  3.72822583e-02 -4.43989784e-03
  -2.76436694e-02  3.29800695e-03  1.23459548e-02 -5.00636511e-02
  -3.76115143e-02 -6.27230480e-03  8.09587538e-04 -4.95818630e-03
   4.30590659e-02 -4.96578626e-02  3.70929390e-02  3.26260552e-02
  -8.94675404e-03 -4.69367579e-03  1.47606805e-03  2.94626504e-03
   4.36527878e-02  2.43218839e-02 -5.70022091e-02 -2.98190452e-02
  -1.23135261e-02 -4.66171503e-02 -4.74571437e-03 -3.89371403e-02
  -4.03085276e-02 -1.69877298e-02  5.47174290e-02  5.83377257e-02
  -8.73728842e-03 -1.10953152e-02  3.86891514e-02  4.58156317e-03
  -3.26920971e-02 -1.26911998e-02 -1.64275952e-02  8.39927793e-03
  -2.34001502e-02 -7.46843964e-03 -3.98388878e-03 -3.55142504e-02
  -2.32419260e-02 -2.28582844e-02 -3.49829346e-02  3.14878672e-02
  -2.72517093e-02 -2.05199160e-02  4.33131754e-02 -3.04936562e-02
  -4.79153059e-02  6.30984455e-03 -4.30520251e-02 -1.47920251e-02
  -1.01958327e-02 -2.09159255e-02  5.37572876e-02 -4.47197184e-02
  -4.94896732e-02  3.34500149e-02  2.86770836e-02 -1.81637928e-02
   2.54716277e-02  3.13193202e-02  3.22222933e-02 -1.33606419e-02
  -4.27463204e-02  1.63658783e-02  1.99169293e-02  1.10248327e-02
   5.66979125e-02  2.23111883e-02 -5.36807179e-02 -3.45937647e-02
  -3.26972753e-02 -5.69150895e-02 -4.23523188e-02  1.24504939e-02
  -3.26112658e-02 -4.16638926e-02 -3.29416022e-02 -3.00000347e-02
  -5.81098385e-02 -2.21474655e-02  5.85388914e-02 -3.36562321e-02]
 [-2.19470784e-02 -4.13188040e-02 -3.72973643e-02 -1.74739584e-03
   3.32195312e-02  7.78345019e-03  3.31053883e-03 -3.38399112e-02
  -2.36434042e-02  1.02573633e-02  9.77816433e-03 -3.85885760e-02
   5.84864095e-02 -3.80728915e-02 -1.86983310e-02  5.27402237e-02
   1.53846592e-02  4.61268350e-02  4.33999896e-02 -8.63146037e-03
   4.41852137e-02  4.36738804e-02 -5.07784784e-02  3.94402519e-02
   5.71759790e-02 -2.09554099e-02 -5.47689199e-03 -2.63423659e-02
  -1.54236145e-02  1.01412013e-02  5.99524826e-02  5.05083427e-02
  -2.27710828e-02 -3.40708084e-02  7.10217655e-03  2.12627277e-02
  -1.22222602e-02 -4.83983904e-02 -2.83076875e-02 -5.84288687e-02
   5.96552417e-02 -4.01464030e-02  4.96189669e-02  3.46442163e-02
   8.59213620e-03 -1.31078400e-02  5.78416064e-02 -2.12173052e-02
  -5.81620075e-02 -3.17809880e-02 -3.16771939e-02  5.89182079e-02
  -2.67688856e-02  3.79846320e-02 -2.11502016e-02  6.10159338e-03
  -3.61528397e-02 -9.27929953e-03  2.49580368e-02  4.62039188e-02
  -4.12921757e-02  5.99361584e-02  5.55327684e-02  1.25888363e-03
   1.57344714e-02  3.16271856e-02 -4.07985225e-02  5.22050112e-02
  -2.94823758e-02 -3.73400003e-02  4.61943969e-02  2.76986882e-02
   4.61307764e-02 -4.32046801e-02  3.51752639e-02 -4.45680618e-02
  -4.34232801e-02  3.59819978e-02  8.34669173e-03  3.23527455e-02
   3.21536884e-02  3.62503380e-02 -2.70817727e-02  1.22399107e-02
   2.63863280e-02 -1.70369372e-02 -7.12210685e-03  3.04705948e-02
  -1.56369060e-02 -3.29749174e-02 -1.35002993e-02 -1.28688961e-02
   1.69090182e-03  3.00436318e-02 -2.60908380e-02  4.69797328e-02
  -3.74997556e-02  5.21533862e-02 -5.26064485e-02  3.34551707e-02
   9.37692821e-04 -6.74992055e-03 -5.48278354e-02  4.04081121e-02
   4.00083512e-03 -4.70266938e-02 -3.00451182e-02  6.47064298e-04
   5.18658832e-02 -1.55145824e-02  2.03025863e-02  1.84834003e-02
   3.67940217e-03 -1.35923550e-02 -2.55696997e-02  2.60644630e-02
  -9.67342034e-03  5.91305643e-03  3.14958841e-02  4.53788564e-02
  -3.00657768e-02 -2.39776112e-02 -9.04993340e-03  3.88595611e-02
   3.54183018e-02  3.98163497e-02 -1.30122602e-02 -4.17029187e-02]
 [-8.88837129e-03  4.41112220e-02 -4.13675793e-02 -4.92494404e-02
   3.18120867e-02  4.15033326e-02 -2.27957070e-02  2.29010731e-02
  -1.56132951e-02 -3.12215537e-02 -8.66913050e-03 -6.69232383e-03
   4.54852283e-02  2.40774527e-02 -1.22105181e-02 -5.95467053e-02
  -2.58083567e-02  5.77683896e-02  4.68466356e-02 -4.08187546e-02
  -2.90070232e-02 -5.87762333e-02 -2.38421187e-03 -4.86620292e-02
  -1.90636329e-02  2.90575027e-02  1.02409348e-03  3.03447098e-02
  -1.81431361e-02 -2.77374573e-02  1.04851648e-03 -5.61549254e-02
  -3.58640477e-02  3.95725667e-03  3.06129456e-04 -2.99997199e-02
  -5.16959429e-02 -5.06846197e-02  1.16258562e-02 -5.37514575e-02
  -4.44259420e-02  5.54737598e-02 -4.39183190e-02  3.51998582e-02
  -5.66538870e-02 -2.24730968e-02  5.14317900e-02 -1.97116286e-02
   1.62775740e-02  5.39487973e-02 -3.90202180e-02 -6.37517124e-03
   5.14061004e-03 -1.00654513e-02 -1.29374005e-02 -4.40988839e-02
  -1.73187442e-02  5.67367896e-02  7.19987601e-03 -4.53877449e-02
  -5.34029789e-02 -2.26734430e-02  4.04004976e-02 -4.88379113e-02
   5.91330901e-02 -1.32622272e-02  5.69381863e-02 -3.40041071e-02
  -1.77593231e-02 -4.27668095e-02 -2.21383609e-02  5.00152037e-02
   6.10468537e-03 -2.88324468e-02 -8.54580477e-03  3.81200835e-02
  -3.46375741e-02  5.70303425e-02  1.21936798e-02 -4.94595058e-02
   2.31874511e-02  2.84227803e-02  4.68149930e-02 -7.03084096e-03
   5.92591465e-02  1.19879991e-02  4.92988452e-02  1.17852166e-02
  -4.90576699e-02 -5.68876341e-02 -3.93121913e-02  5.55327535e-02
  -5.52370772e-03 -2.20381729e-02  5.81797212e-03  2.77027264e-02
  -4.95313331e-02  4.58064601e-02 -4.41085733e-02 -1.79492012e-02
   2.61161476e-02 -8.37085769e-03 -6.35217875e-03  6.69547170e-03
  -2.57086866e-02  4.37572300e-02 -3.51899043e-02  2.13502795e-02
  -2.58180797e-02  4.32916284e-02 -1.46847516e-02  5.80631196e-03
  -3.36307585e-02 -4.56932895e-02 -4.84354272e-02  5.44406548e-02
  -3.86025198e-02 -4.58569713e-02 -1.54111311e-02 -3.18660289e-02
   2.23169774e-02 -3.84531543e-02 -1.32155009e-02 -1.06964111e-02
   8.94532353e-03  1.13035664e-02  4.38966751e-02  4.05969471e-02]
 [ 3.83635610e-02  5.04247844e-02  1.78277418e-02 -4.57676053e-02
  -1.59801878e-02  4.55167517e-02 -2.90677249e-02  2.18068585e-02
  -3.71740125e-02 -2.39279754e-02 -5.47205284e-03  2.35068128e-02
  -1.17572844e-02 -3.88012454e-02 -4.81980741e-02  5.51256537e-03
  -4.53039631e-02  3.35708484e-02 -1.39344335e-02 -2.27425918e-02
   1.30149126e-02  5.81965372e-02 -5.99940121e-03 -4.18854505e-02
   2.02127099e-02  4.41162363e-02  2.29381695e-02  4.18102890e-02
   1.83808059e-02  4.60795909e-02  4.94824722e-02  1.49905980e-02
   4.53059971e-02 -2.03666836e-02 -5.38516790e-04 -4.47905995e-02
  -3.99319977e-02  1.68748721e-02 -3.56774032e-02 -1.06401332e-02
  -5.29194213e-02 -3.84288318e-02 -1.71063729e-02 -1.06452741e-02
   4.79539335e-02  1.91391110e-02 -5.95640279e-02 -4.33869325e-02
   2.39873752e-02  4.67062742e-02  4.09877449e-02 -4.62693721e-02
  -5.34694493e-02 -2.98499689e-02 -9.15775448e-03 -1.33388080e-02
   1.39311850e-02 -1.64581835e-03  3.36936265e-02 -6.15890324e-03
   4.08214033e-02  2.29847133e-02 -3.36256213e-02 -1.61479041e-02
   4.05031145e-02  5.74197397e-02 -3.53385992e-02 -4.80070338e-03
  -1.70896202e-02 -5.86710460e-02 -3.42172831e-02 -3.23326215e-02
   6.57474250e-03 -3.76139022e-02 -4.40958887e-03 -4.89773527e-02
  -1.23864263e-02  3.79574746e-02 -2.39090994e-03 -3.31520438e-02
   1.06074810e-02 -2.16399133e-03  4.16677520e-02 -9.33447853e-03
  -5.73531352e-02  1.91369951e-02 -5.99309206e-02 -2.29810067e-02
  -1.90735534e-02  4.55014482e-02 -2.51558945e-02 -5.55689894e-02
  -4.10119705e-02 -1.86961405e-02  3.13051343e-02  2.35827193e-02
  -2.43677944e-03  3.16505134e-03 -5.16415536e-02 -1.22570619e-02
   3.47313881e-02  2.03534737e-02  1.28216073e-02  4.95438054e-02
  -1.69644952e-02 -3.45277935e-02 -5.23883924e-02 -1.33773610e-02
  -4.57041971e-02  1.17973536e-02 -5.24832234e-02  2.24623457e-02
  -1.40308440e-02  5.04892692e-02  2.30106264e-02  4.51796129e-02
   4.68872339e-02  4.73836213e-02 -3.27182189e-03 -5.33212721e-02
   5.58310673e-02 -2.97462568e-03  1.65352970e-02 -2.85356343e-02
  -4.57886979e-03 -7.22792372e-03  4.90126163e-02  2.91320905e-02]
 [-8.08796287e-03 -1.92673579e-02  5.42538017e-02  3.93594950e-02
  -2.00884119e-02  2.72905529e-02 -2.91571394e-03 -4.32935730e-02
  -3.14305201e-02  1.94562376e-02  4.29970324e-02  2.20990032e-02
   2.54642963e-03 -2.37430781e-02 -4.73826602e-02 -3.14306170e-02
  -1.71457864e-02 -3.76548469e-02 -4.70658615e-02  8.21055472e-03
   3.72000709e-02 -4.54730839e-02 -2.66208090e-02 -5.09688891e-02
   3.15298438e-02 -5.78770377e-02 -9.96751338e-03 -4.95520197e-02
  -2.12831758e-02  2.99623683e-02 -1.25386119e-02 -5.40105328e-02
  -6.83460385e-03  6.64690137e-03  8.79815221e-03 -2.20238715e-02
  -3.39250937e-02 -4.31350023e-02 -2.86724009e-02  4.28502038e-02
  -1.09832324e-02 -3.76090780e-02 -2.91425865e-02 -4.52070422e-02
  -1.34183802e-02  4.87218350e-02 -3.19580846e-02  4.08377647e-02
  -1.37354620e-02  1.56976506e-02 -5.80640696e-02 -2.22846605e-02
   1.66751146e-02 -3.84657979e-02 -8.95614550e-03 -1.14118420e-02
   3.20863873e-02  3.46594304e-03  1.64275244e-02 -1.35824084e-03
   4.18376178e-02  5.58286905e-02  4.19840813e-02 -3.86714414e-02
  -5.55121824e-02  8.83401185e-03  4.38319892e-02 -5.79213612e-02
   2.04406753e-02 -5.24705537e-02 -1.69174485e-02  9.18652862e-03
  -7.25386292e-03  4.64822873e-02  4.64920998e-02 -1.36079900e-02
   1.71115398e-02  2.29497924e-02  4.25832421e-02  3.57778445e-02
   3.14575508e-02 -2.00260654e-02  4.36789170e-02  4.39322814e-02
   4.86031324e-02  5.55283129e-02  7.84958899e-03 -2.35998258e-02
   4.32474166e-02 -2.75699534e-02  2.57516950e-02  2.67468244e-02
  -1.59053132e-02 -1.61110274e-02  1.90680400e-02  1.09386221e-02
  -4.78964821e-02  4.76018190e-02  4.36018407e-03 -5.72696850e-02
  -8.56241211e-03 -3.35175730e-02  3.42067331e-02 -1.38376839e-02
  -5.76971322e-02 -4.46749665e-02  5.35094813e-02 -6.38997182e-03
  -6.08401373e-03 -3.38482298e-02  3.39112654e-02  2.97177583e-02
  -1.83311105e-02 -1.72404461e-02  9.16421413e-07  5.37287965e-02
   2.96768099e-02  4.79465201e-02  1.45251974e-02 -3.88083085e-02
  -8.90433416e-03 -3.64361629e-02 -2.45924369e-02  1.34839192e-02
  -3.19442824e-02 -5.33661619e-03 -1.21132247e-02 -5.26937656e-02]
 [ 3.44823301e-03  2.56436765e-02  4.69680652e-02  2.46341527e-02
  -1.72194168e-02 -1.53352693e-02  4.27007675e-02  2.21807808e-02
   5.28192371e-02  4.43015471e-02 -4.09886204e-02  1.32508203e-02
   5.88039607e-02 -3.91015820e-02 -7.90594146e-03 -2.88966559e-02
   5.08920103e-02  4.43926454e-02 -5.84337488e-02 -1.78795680e-02
  -5.15939221e-02 -2.29867734e-02 -1.73865184e-02  7.79567659e-03
   5.16500697e-02 -3.91829573e-02  5.87690175e-02  4.18728516e-02
   2.45054066e-02 -5.33665568e-02 -5.07637039e-02  4.65735421e-02
  -1.20356716e-02  2.51692533e-03  4.35142219e-02 -7.79179484e-03
  -1.02477893e-02 -1.34676993e-02  5.94836697e-02  1.88819543e-02
  -9.02885944e-03  4.40871418e-02 -8.48743692e-03 -1.27913132e-02
  -4.01500389e-02 -2.02019028e-02 -4.64707352e-02  9.21083987e-03
   1.91486478e-02  4.50481400e-02  1.48510560e-02 -4.42634225e-02
  -2.42818967e-02 -3.75885479e-02  9.85906273e-03  3.17017436e-02
   3.01867351e-02 -5.93235120e-02 -5.62408082e-02  1.61751658e-02
   5.37350401e-02  3.64990681e-02  1.67770162e-02 -4.88118380e-02
  -1.73360370e-02 -5.42730093e-02  3.86053324e-03  2.09198073e-02
  -4.72509339e-02  5.44565767e-02 -4.93995920e-02 -3.18872035e-02
   6.66745752e-03 -3.49723101e-02  3.00099105e-02  1.39881223e-02
  -4.37026396e-02  1.31766871e-02 -3.30202878e-02  3.75600457e-02
   5.11758178e-02 -5.04064336e-02 -4.50933091e-02 -5.80450967e-02
  -1.14204437e-02  2.84766629e-02 -4.02147397e-02 -3.76489908e-02
   2.78744251e-02  6.05434179e-05  2.10924670e-02  8.58769566e-03
   8.96881521e-03  2.11045444e-02 -3.86598408e-02 -1.44969486e-02
  -2.28977688e-02 -5.71279079e-02  5.58538437e-02 -9.30869207e-03
  -5.77890165e-02  3.39883491e-02  2.42798328e-02  1.12699345e-02
  -3.62635329e-02  2.11260468e-02  4.32422310e-02 -1.44601241e-02
   2.68977731e-02  1.82941929e-02 -5.92046976e-02 -5.98963760e-02
   2.44880840e-03  1.56407580e-02 -8.29085708e-04  3.56870070e-02
  -5.73237427e-02  4.79583442e-03  1.11697912e-02 -2.35842913e-02
  -5.21668568e-02 -5.98469824e-02 -4.98584248e-02 -5.98152429e-02
   5.95182925e-03  1.71100795e-02 -2.66403519e-02  5.60931787e-02]
 [-3.23934071e-02  2.87051499e-03  3.91851589e-02  2.84701660e-02
  -1.39562376e-02  3.47871706e-02 -3.10288947e-02  4.14126217e-02
  -4.29599695e-02 -2.90232729e-02  1.34241208e-02  5.67878485e-02
  -1.47745311e-02 -3.76123413e-02 -9.92742553e-03 -3.91220301e-03
   5.18223569e-02  2.56878510e-02  3.02705318e-02  8.42452794e-03
  -2.96721272e-02  1.44286826e-03  3.97909209e-02 -9.49810073e-03
   4.23257127e-02 -5.03902696e-02  5.38708866e-02 -1.32564604e-02
   5.77648953e-02 -1.07665211e-02  3.64373699e-02 -1.04903840e-02
  -1.90536417e-02 -5.65260239e-02  6.59063458e-03 -6.91590831e-03
  -9.67998058e-03 -1.92834064e-02  2.14479268e-02  3.28346267e-02
   3.98622751e-02  5.12188673e-02  1.19924173e-03 -3.94352898e-03
  -3.42121720e-03 -6.30632043e-03  1.08069107e-02  2.44418532e-02
  -1.81598701e-02  5.92423230e-02 -7.37578422e-03 -3.09653580e-02
   1.18506402e-02 -1.69680454e-02  8.55650008e-03  5.07011116e-02
   4.03267071e-02  3.66804600e-02 -2.02884302e-02 -5.43305911e-02
  -3.15790661e-02 -4.28256392e-02 -5.50367013e-02  1.91156715e-02
  -2.66098715e-02  9.46678966e-03  5.38931638e-02 -4.69144210e-02
   4.49046865e-02  4.49047983e-03  6.76671416e-03 -4.27225567e-02
   2.94137001e-02  1.30700171e-02  5.17174304e-02  5.15840948e-05
   2.02426165e-02  2.68035457e-02  1.19685531e-02 -4.60410938e-02
   3.02539989e-02 -4.62084003e-02 -5.11301085e-02  5.99128678e-02
  -4.19171527e-02  3.05563658e-02 -5.44152185e-02  5.26226833e-02
  -3.92271504e-02  1.47019625e-02 -5.64769059e-02  4.94431034e-02
   3.17159295e-03 -3.49509194e-02  2.52343491e-02 -3.59622724e-02
   1.41862631e-02  1.43465251e-02 -5.22385910e-03 -3.33590172e-02
  -1.83706544e-02 -2.59062648e-03  1.71730295e-03 -1.43559165e-02
  -1.08929351e-02 -1.33433454e-02  7.99977034e-03  3.93283665e-02
   3.98903415e-02  5.49445450e-02 -5.57345338e-02  3.77845988e-02
  -5.07294759e-03  9.06889141e-03  2.95922682e-02  6.95584714e-03
   4.80069593e-02  4.84941155e-03 -2.23216787e-03  3.01653892e-02
  -3.74712236e-02  4.68277484e-02  5.73333651e-02 -3.55176553e-02
   3.95604670e-02  3.50423157e-02  5.88787496e-02 -5.00174798e-02]
 [ 4.29216772e-03  1.84845999e-02  5.99428490e-02  4.47836146e-02
  -6.40566275e-03 -4.14735936e-02 -9.50318202e-03 -1.35788098e-02
  -5.03056869e-02 -7.07932934e-03  5.78664243e-02 -5.73067628e-02
  -1.80074126e-02  4.33841124e-02 -9.18481126e-03  4.78090048e-02
  -2.45217271e-02 -1.86673924e-03 -1.91902071e-02 -5.77508770e-02
  -5.32554314e-02 -3.17172930e-02 -2.96225641e-02  4.22488376e-02
  -5.70986457e-02  5.93312979e-02 -7.69384205e-03 -3.62792537e-02
  -4.54509519e-02 -5.32085896e-02  8.11544806e-03 -3.47200930e-02
  -3.11281383e-02 -2.72762626e-02 -3.66236120e-02 -5.44493049e-02
   5.15301153e-02 -1.95502974e-02 -3.69832143e-02 -1.58292055e-02
   1.55274570e-03  1.19325891e-02 -2.44372450e-02 -4.38935384e-02
  -5.27848043e-02 -2.07238533e-02  4.89638671e-02 -1.29692107e-02
   4.70286682e-02 -1.36883557e-03  3.23280692e-02 -5.36572263e-02
  -2.43427828e-02 -2.16060281e-02  1.41764879e-02 -4.43921424e-02
   5.69415763e-02 -7.53392279e-03 -3.86550464e-02  3.38224992e-02
  -5.83250597e-02  4.26433012e-02 -1.53578036e-02 -5.44344746e-02
  -4.74449918e-02  3.96641493e-02  2.92968899e-02  4.38787788e-02
  -2.95965225e-02  4.20899764e-02  4.28416729e-02 -6.83350116e-03
   9.86961275e-03  6.65203482e-03 -2.06777565e-02  3.99632826e-02
  -5.92431948e-02 -4.69233543e-02  1.44841596e-02  5.78314215e-02
  -4.51646633e-02  5.70076481e-02  4.43706661e-03 -3.53930444e-02
   5.45349345e-02 -5.54940477e-03 -4.49523069e-02  4.34230268e-02
   1.34512931e-02  4.45006937e-02  3.00171971e-02  5.10073453e-02
   3.04574072e-02 -2.53704861e-02  2.97168270e-02  3.31659764e-02
  -4.45442833e-02  5.82272783e-02 -3.90105285e-02 -4.42759916e-02
  -1.81751698e-03  5.78928292e-02 -3.26496437e-02 -5.67780547e-02
  -1.73879638e-02  3.48974168e-02 -5.37730753e-04  1.76137760e-02
  -3.36089581e-02  2.43860036e-02  1.48109272e-02  3.77589017e-02
   4.88400832e-02  3.16985101e-02 -3.82752717e-02 -1.72629096e-02
  -4.91813943e-02  2.35191807e-02  5.97922951e-02  5.89164495e-02
  -3.27954292e-02 -1.94978975e-02  1.69012696e-03  2.48888135e-03
  -1.87709294e-02  5.38870916e-02 -3.38483155e-02 -5.52640744e-02]
 [-4.74441051e-02  2.50407904e-02 -5.08790687e-02 -2.08862871e-03
   1.22046173e-02  3.98407206e-02 -3.36918496e-02 -1.31323934e-02
   3.82446647e-02 -5.97935654e-02  3.69737074e-02 -1.48011297e-02
   2.27198601e-02 -6.43103197e-03 -2.88410075e-02  2.10099146e-02
   2.49922276e-02 -2.59911641e-03  4.07088548e-03  5.48703671e-02
   4.13225368e-02 -4.59906869e-02 -5.96110523e-03 -2.49199867e-02
   3.96776646e-02 -1.51995756e-02 -1.87905431e-02 -1.17513873e-02
  -2.90724635e-02  1.90564990e-03 -5.79097345e-02 -3.75926420e-02
   2.64372677e-02 -9.61542130e-04 -1.16178282e-02  1.22020543e-02
   1.22250617e-03 -5.16721606e-02  3.18617299e-02 -5.80865592e-02
   3.22444290e-02  1.95162073e-02 -4.73920368e-02 -3.28815170e-02
   3.74110937e-02  5.29730320e-03  4.84865084e-02  4.69072163e-03
   4.79902402e-02 -1.38946064e-02 -2.82513089e-02  4.20464128e-02
  -1.11571066e-02 -3.09372693e-02 -3.64962071e-02 -5.55536561e-02
  -1.88586041e-02  3.86649519e-02  4.21528444e-02  5.74073195e-03
   4.99758199e-02 -2.67342962e-02 -2.11174749e-02 -2.57195234e-02
   1.13144293e-02  4.20200601e-02 -5.40880561e-02 -3.97914648e-03
   4.67242375e-02  4.71001491e-02  2.51631960e-02 -1.83858871e-02
   5.10418639e-02  4.32021469e-02 -4.45620343e-03 -5.71050011e-02
  -3.97486314e-02  3.89940515e-02  2.55616754e-03  5.62010407e-02
  -3.49452347e-02  2.56296247e-04  1.57831088e-02 -4.86167185e-02
   9.45129991e-03 -2.23460048e-03  1.13493651e-02  3.38701457e-02
   1.31989345e-02  4.11197022e-02 -5.02637252e-02  5.70264459e-02
  -1.95506401e-02 -2.42045708e-02 -2.84032486e-02 -2.19232254e-02
  -1.81212462e-02  2.49549299e-02 -3.00577730e-02  1.78030282e-02
   3.21122184e-02  8.96020234e-03 -4.71753255e-02 -4.00033668e-02
   4.97382656e-02 -5.16213812e-02 -4.85127233e-02  1.22764185e-02
   2.22401768e-02 -3.60562466e-02  4.26719636e-02  7.39900768e-03
  -2.18336880e-02 -5.54691255e-03 -3.17620896e-02  2.56330222e-02
  -4.48071063e-02 -1.66943707e-02  3.62750739e-02  2.71954760e-02
   3.67650613e-02 -2.93994118e-02 -4.44525853e-02 -5.00988699e-02
   5.61137944e-02 -3.31117585e-02 -5.36027960e-02  6.17770106e-03]
 [ 3.42024490e-02  3.63690928e-02 -2.57666968e-02  1.73424631e-02
   4.39945981e-02 -4.79489230e-02 -2.72313394e-02 -4.52112369e-02
  -5.51556572e-02  2.71114931e-02 -2.42426805e-02 -2.97000743e-02
   4.33722287e-02  5.86287528e-02 -3.57105583e-02  5.87254763e-05
  -1.74431540e-02 -5.23258857e-02  4.41963896e-02 -3.10634691e-02
   1.93272308e-02 -1.91570334e-02  1.32329762e-04  1.15761831e-02
  -1.51942223e-02  5.35403043e-02  1.43535808e-02 -5.24919145e-02
  -3.61565053e-02 -2.76391320e-02  2.99104154e-02  2.84202844e-02
  -4.18522097e-02 -3.75797153e-02 -2.17908695e-02 -1.53320916e-02
  -2.97495518e-02  5.00064269e-02  4.02107090e-03 -2.34944560e-02
   8.51988047e-03 -3.93298864e-02  3.78372148e-02 -3.09709124e-02
  -5.82285374e-02  2.33920738e-02  2.56238878e-02 -3.65860760e-02
  -3.77914719e-02  3.47151980e-02  5.11808321e-02 -5.40890284e-02
  -2.42640562e-02 -2.76380852e-02 -1.34700201e-02  5.60131446e-02
  -5.05624712e-02  1.96089372e-02  3.84633169e-02 -3.97995114e-03
  -5.66815734e-02 -5.27020954e-02 -1.51419081e-02 -4.10239957e-02
   3.66206467e-02  5.55097461e-02  3.04508805e-02  4.17451337e-02
  -3.47240306e-02 -5.97418845e-02  3.12213525e-02 -5.89708947e-02
   4.83597815e-02 -2.05385275e-02 -1.51882805e-02 -2.99931336e-02
  -3.25089023e-02  4.34841141e-02 -5.97587340e-02 -9.19803977e-03
  -1.48929283e-02 -2.88594197e-02  2.36271843e-02 -1.51935779e-02
   5.29561043e-02  1.79869309e-03  4.23686653e-02 -1.24115087e-02
  -5.09042777e-02 -1.80268288e-02  2.59643644e-02 -4.61357273e-02
  -3.69487554e-02 -5.48480228e-02  2.88357809e-02  9.40398127e-03
  -8.68328661e-03  5.92812151e-03 -4.24625352e-03 -1.47273429e-02
  -2.77589634e-03 -1.81467123e-02  3.70543078e-02 -2.30512396e-03
   5.04136905e-02 -4.99699079e-02  2.88651064e-02  3.13012972e-02
   3.74651849e-02  1.50495544e-02 -5.81107698e-02  7.33645260e-03
  -4.32856157e-02 -2.46102326e-02  1.51497871e-03  1.16196424e-02
   1.60409585e-02  5.87096885e-02  3.58833745e-02  1.18599609e-02
   4.51496020e-02  4.18939590e-02  2.02923790e-02 -3.00795641e-02
   4.81918752e-02  4.30408865e-02 -4.07541990e-02 -1.82335302e-02]
 [ 1.58460140e-02 -2.84077972e-03  5.78087196e-02  5.54571748e-02
   2.56225541e-02 -3.06652822e-02  1.17374286e-02  4.66367528e-02
  -3.47961709e-02 -4.96459380e-02 -5.80529571e-02 -2.41703130e-02
   5.57158366e-02  2.88162008e-02 -3.02055627e-02  5.43959439e-04
   2.45500579e-02  4.69670072e-02 -2.67707892e-02 -2.48826481e-02
   1.20584890e-02  1.02787390e-02 -2.19048858e-02  5.14964014e-03
  -4.94909026e-02  2.75948495e-02  5.52391484e-02  5.37831411e-02
   2.14331523e-02 -5.33258133e-02 -5.85270077e-02 -1.56979077e-02
   1.11751854e-02 -1.78638324e-02  5.92823103e-02  1.76984742e-02
  -2.61022039e-02 -2.48453394e-02 -1.27746500e-02 -3.03546842e-02
   5.16864806e-02 -4.08424772e-02  5.91154397e-03 -5.32784685e-02
   1.82211325e-02 -1.50486939e-02 -4.81686741e-03 -1.15869194e-02
   4.42643091e-02 -3.81568745e-02  5.80723733e-02  2.00312212e-02
   2.62782872e-02 -2.38216296e-03  5.12978435e-02 -5.32417037e-02
   1.39808208e-02 -2.19229609e-03 -6.10106438e-03 -4.56514992e-02
   1.68510377e-02  3.77194732e-02  1.55419856e-02  1.96987763e-02
   4.40243185e-02 -1.87980309e-02  1.60049275e-03  9.18555260e-03
  -5.06548993e-02 -1.58627331e-02  9.47120041e-03 -5.48044294e-02
   1.02706403e-02  3.90392616e-02 -3.85096222e-02  1.10632926e-02
  -4.50681709e-02 -4.88955490e-02 -6.11794367e-03 -5.47260717e-02
  -3.06961928e-02 -2.92519946e-02  1.88086405e-02  5.87675720e-02
  -2.55471803e-02 -1.53553262e-02 -4.50405106e-02 -2.28401162e-02
   4.07686085e-03  4.04899865e-02  4.97720689e-02  2.33545676e-02
   2.38464847e-02 -4.83083688e-02  2.50880793e-02 -4.80308011e-03
  -3.23020369e-02 -3.33274230e-02  3.91485095e-02  5.55309951e-02
  -3.38927396e-02 -2.57116929e-03 -3.97134274e-02  5.92862889e-02
  -4.40799966e-02 -1.38659738e-02 -1.21003389e-02  3.72844934e-02
   1.55237466e-02  5.48605323e-02  2.49084085e-03 -3.54219526e-02
   4.31847796e-02  1.39211789e-02  4.82972339e-02  2.28491351e-02
   3.19156051e-02  2.69182920e-02 -5.85242733e-03 -5.17376177e-02
   3.38489711e-02  1.29195750e-02 -5.75637035e-02  4.78305221e-02
  -5.21274582e-02 -4.18102331e-02  5.25002033e-02  1.09823793e-03]
 [ 3.56164947e-02 -3.36233899e-02 -3.56777310e-02  2.85870582e-02
  -4.83145118e-02  2.07780674e-03  3.73514518e-02  2.59503648e-02
  -1.24267153e-02  1.51138231e-02 -4.42301929e-02 -5.06022982e-02
   5.65543398e-02  6.04286790e-03  3.15517187e-02  1.92589536e-02
  -1.44718066e-02  2.97461450e-03  5.75614125e-02  1.17037445e-02
   9.39027220e-03 -3.68471369e-02 -1.44439191e-02 -3.57230827e-02
   2.32395232e-02  7.94744492e-03 -5.43797277e-02  2.98489779e-02
  -6.90717250e-04  1.53781623e-02  2.39042267e-02  3.29110101e-02
   1.56306922e-02  3.34923044e-02 -5.50655201e-02  5.32355905e-03
