mnist_model/dense/kernel:0
(784, 128)
[[-3.86204012e-02 -8.62045586e-03  1.96698532e-02  4.48603854e-02
   7.84060881e-02 -5.11960015e-02  7.08317384e-02 -7.52170309e-02
   5.26692197e-02  7.05747977e-02 -6.53367490e-02  1.38291866e-02
  -4.07656580e-02  2.88865715e-03 -5.59717864e-02 -6.50998950e-03
  -3.61669734e-02  5.76153919e-02  6.50482625e-03 -6.23260066e-02
   7.92240128e-02  2.19079182e-02  1.44967437e-03 -4.97934334e-02
  -6.66164979e-02  1.90912932e-02  2.11464688e-02 -2.09169835e-02
  -6.04135059e-02 -7.45721981e-02 -5.56122698e-02 -2.03547999e-02
   6.53817877e-02 -4.36670594e-02 -3.05265114e-02  2.20030546e-04
  -2.89755017e-02  3.09534371e-03 -5.23404405e-02  1.61305815e-02
  -2.43703201e-02 -1.40148550e-02  7.22378716e-02 -3.14987078e-02
   4.58263382e-02  5.20553216e-02  1.82905495e-02  7.51221254e-02
  -7.75226057e-02 -7.43268505e-02 -6.23776391e-02  1.92131400e-02
   6.80478439e-02 -3.70573252e-02  2.98139900e-02  4.77248207e-02
  -1.01148412e-02 -6.11443222e-02  3.93155217e-03 -3.45134735e-03
  -5.35411760e-02 -2.98559964e-02  2.74092928e-02 -5.06981015e-02
   6.26951233e-02 -6.61265031e-02 -4.52674776e-02  3.41862440e-04
   3.21633443e-02  4.99581546e-03 -4.59359661e-02  1.22876689e-02
  -7.98855498e-02 -1.13461912e-03  2.21962109e-02 -6.51651993e-02
  -1.46739185e-04 -2.53267139e-02 -5.22016734e-02  7.34056309e-02
  -7.74067268e-02  5.92320487e-02  1.96529180e-03 -3.60378884e-02
   6.20870069e-02 -3.46702859e-02 -2.19710171e-02 -6.86919391e-02
   2.89713293e-02  3.03418487e-02  5.59134707e-02  1.90725550e-02
   1.85097307e-02  7.03078285e-02 -8.03551227e-02  9.19536501e-03
   1.56788379e-02 -6.00844249e-02  1.14450082e-02 -4.88513298e-02
  -5.72140999e-02 -2.73011923e-02  3.25366110e-02  3.62347141e-02
  -2.20013782e-02 -1.67185441e-02 -3.34501714e-02 -3.38482521e-02
  -2.82494463e-02 -2.89004333e-02 -2.30508484e-02 -2.06721202e-02
  -7.46326670e-02 -5.01582325e-02 -1.89278461e-02  6.93087503e-02
   5.45272902e-02  7.33150467e-02  8.41086358e-03  6.48429021e-02
   4.61504087e-02  2.30861977e-02 -1.53567567e-02 -7.03761950e-02
  -5.25042936e-02  2.83427909e-02  3.22683156e-02  2.00018734e-02]
 [ 1.07362866e-05  5.04056290e-02 -3.98529284e-02 -5.11714444e-02
  -3.48921344e-02 -8.28802586e-04  3.56371701e-03 -5.99468537e-02
   1.24339238e-02 -6.95079565e-04  4.89968136e-02 -4.67698127e-02
   2.07125396e-02  4.70957831e-02  6.82303980e-02  7.94710740e-02
  -4.42805886e-02 -3.07916962e-02 -2.49487087e-02  6.07684255e-04
   2.20727175e-02  3.28531042e-02 -8.20611417e-03  6.90307468e-03
  -6.98085725e-02 -5.41379303e-03 -4.86512184e-02 -4.16195802e-02
  -7.82217234e-02 -2.26368345e-02 -7.57952482e-02 -2.55966969e-02
   4.84023914e-02 -7.13047013e-02 -4.53320891e-02 -3.13760638e-02
   4.61959466e-02 -7.81874135e-02 -5.29814884e-02 -7.49334916e-02
  -1.93145722e-02 -3.00785601e-02  2.02559009e-02  5.89902326e-02
  -3.70598584e-02  7.39487484e-02 -1.46050006e-02 -7.96151459e-02
   3.05003822e-02 -5.27697802e-03 -4.80244830e-02 -3.44366580e-02
   3.54894176e-02  2.38827616e-02  4.13536206e-02  4.98401299e-02
  -2.23100930e-02  7.57638291e-02  6.34938404e-02  5.21277413e-02
  -1.95799321e-02  1.70633048e-02  4.41216305e-02  1.97804719e-02
  -7.97502771e-02 -7.47227669e-02 -5.34775555e-02  5.53001240e-02
   1.34503320e-02  7.14366138e-03 -3.41793410e-02  2.90953442e-02
  -3.05353850e-03  2.14848742e-02  4.32530120e-02 -6.81876391e-03
   3.15817669e-02  4.06789258e-02  2.12685540e-02  1.16931349e-02
  -3.54755707e-02  6.25448748e-02 -3.31131369e-03  5.05732521e-02
  -1.72916502e-02  1.72619522e-03 -5.13346568e-02 -1.31155849e-02
  -4.79863845e-02  5.80204651e-02  7.97236487e-02  5.41015789e-02
   6.11446276e-02 -2.78829075e-02  2.34411731e-02 -5.68872467e-02
   3.25260311e-02 -6.90633357e-02  7.36076459e-02  7.32171312e-02
  -6.92327544e-02  7.75216520e-03 -1.33631676e-02  2.33010650e-02
  -8.48543644e-03 -6.15732223e-02 -3.93531695e-02  5.03043905e-02
   2.26930305e-02  6.80323318e-02  7.81435519e-03  6.33428171e-02
   1.60887092e-03  7.29599819e-02 -6.37009442e-02 -5.18552437e-02
   7.72266760e-02  1.77841559e-02  2.94750854e-02 -6.23460785e-02
  -1.82599798e-02  5.34931943e-02 -8.03967565e-02 -4.47803102e-02
   4.20158952e-02 -8.89832526e-03  1.73047632e-02 -8.03570151e-02]
 [-4.24887575e-02 -5.63672371e-02 -4.24790122e-02 -5.10077849e-02
   3.39049920e-02  7.12460801e-02 -6.04134649e-02  3.97186279e-02
  -6.34488836e-02 -7.27905408e-02  6.26148209e-02  5.61771616e-02
  -1.99271515e-02  5.62526807e-02 -1.12578720e-02  3.52549180e-02
  -1.98432244e-02  2.26475894e-02  7.78818354e-02 -1.18524060e-02
   3.90529037e-02 -3.87422927e-02  2.54394934e-02 -7.47168288e-02
  -2.90354714e-02  3.08858976e-02  5.43610677e-02  2.79280990e-02
  -5.89776561e-02  7.24837407e-02 -1.58806890e-02 -5.70351444e-02
  -1.86851881e-02  5.81363216e-02 -6.50773197e-02  4.23855856e-02
   7.14261308e-02  2.37562284e-02 -6.59917369e-02 -5.17095476e-02
   2.84604281e-02  1.71251670e-02  3.71387377e-02  5.49703017e-02
  -3.93240452e-02 -1.73224956e-02  6.07715771e-02 -3.82458195e-02
  -6.59890473e-02  4.17890996e-02 -1.10235289e-02  5.99749908e-02
  -8.02769735e-02  1.03020370e-02  7.61211738e-02  5.67627773e-02
   3.46006453e-03 -6.05865642e-02  7.49329403e-02  7.23483935e-02
   5.81258014e-02 -4.35479172e-02 -5.41594811e-02  1.59199685e-02
   2.06693932e-02  7.38093182e-02  6.61041662e-02 -6.45791143e-02
  -1.21296793e-02 -1.86072364e-02 -6.15445264e-02 -7.99453855e-02
   3.90482396e-02 -7.59774446e-03 -1.19712949e-02 -5.29880822e-03
  -6.74921572e-02 -5.55360168e-02 -5.71498573e-02  6.38689846e-03
   7.36058876e-02  5.52156791e-02  1.64569169e-03  6.81692883e-02
   1.54708326e-02 -4.71022017e-02 -6.20353296e-02  7.73006305e-02
   2.76204944e-03  7.51003698e-02 -7.10614771e-03 -2.93640085e-02
   2.01319084e-02 -5.03440127e-02  2.15354413e-02 -1.36196166e-02
  -4.71234731e-02  3.25152203e-02 -1.79191008e-02 -4.81392555e-02
  -7.12277368e-02  7.04848394e-02  4.13581431e-02 -2.91620009e-02
  -9.65213031e-03 -2.82699056e-02 -7.19952881e-02  7.00091496e-02
  -6.43364936e-02 -3.76449600e-02  6.84521422e-02  6.83243945e-02
   4.47518751e-02 -1.11480430e-02  4.95437607e-02  4.64998931e-03
   6.03026524e-02 -5.09528033e-02  3.85107175e-02 -1.88609958e-03
   8.40660930e-03  7.81226382e-02  9.98943299e-03 -3.09306420e-02
   8.97022337e-03  4.31441739e-02  7.29806945e-02  7.88413659e-02]
 [-4.04371396e-02 -3.46944965e-02  3.22326496e-02  4.54983637e-02
   4.50829789e-02  5.73905036e-02 -4.75271419e-02 -7.19657615e-02
   3.32630426e-03  3.80819663e-02 -5.30856997e-02 -6.16370812e-02
  -1.29436851e-02  6.34592846e-02  4.98949811e-02 -1.56866312e-02
  -3.60848792e-02  1.27607659e-02 -2.62771137e-02  6.60729408e-03
  -5.89308590e-02  2.48404294e-02 -8.03424716e-02 -1.49832740e-02
  -2.45084725e-02  7.27465078e-02 -4.37201820e-02  5.87297752e-02
  -5.56798950e-02  7.08017275e-02 -4.75967564e-02  1.90499425e-03
   4.15370837e-02  6.17653057e-02  5.84138259e-02  7.58940354e-02
  -1.76987052e-02  5.70399240e-02 -7.24178925e-02 -6.09050468e-02
  -3.66852768e-02 -5.74182346e-02 -3.32879834e-02 -1.21211857e-02
  -2.38059126e-02  1.03243142e-02  3.55503112e-02  6.97069690e-02
  -1.63515359e-02 -7.14886636e-02 -1.82404295e-02 -5.72656393e-02
  -4.76115718e-02  2.74102017e-02 -4.95612212e-02  7.28671029e-02
  -3.48902009e-02  7.81696364e-02 -1.15304813e-02  4.68708202e-02
   1.31942481e-02  6.84058741e-02 -7.46165812e-02  4.30228040e-02
  -4.37978469e-02  1.54151022e-03  6.74580112e-02  7.71758333e-02
   4.17481437e-02  7.82199875e-02 -5.69993854e-02  4.99809012e-02
  -7.99513608e-02 -3.62491012e-02  3.17944288e-02  1.49755925e-03
  -6.70574903e-02  3.52801755e-02 -3.45109180e-02 -2.61226594e-02
  -6.89417124e-02 -2.90482156e-02  6.05509803e-02 -5.74543402e-02
  -2.80547477e-02  4.04053628e-02  1.09652430e-02  3.42014879e-02
   2.45133862e-02  2.50403136e-02 -9.93596017e-03  7.51813576e-02
   5.65780476e-02  9.02528316e-03  8.24716687e-03 -1.89627111e-02
  -7.44709969e-02  5.52632883e-02  1.14973336e-02  6.73846081e-02
  -4.67152596e-02  1.40562207e-02 -4.36967053e-02  2.09791362e-02
  -1.15296468e-02 -5.02066910e-02 -6.64138496e-02  7.73108751e-03
   1.95798948e-02  7.03078881e-02 -7.73516148e-02 -3.36386263e-02
   5.84800616e-02  7.41054490e-02  5.18298969e-02  7.41736218e-02
  -6.05995804e-02 -2.24737749e-02  7.67125264e-02 -3.54644097e-02
   4.71064225e-02 -5.13465889e-02  1.73494890e-02  5.21058813e-02
  -7.72389695e-02  3.16486731e-02 -4.95159663e-02 -3.43297757e-02]
 [ 5.83588704e-02 -2.38872282e-02 -1.71671510e-02  5.27432561e-03
  -9.31454450e-03  4.62708846e-02 -5.18103614e-02  8.00325051e-02
   1.88924968e-02 -1.46806687e-02  5.55816367e-02  5.85703477e-02
  -7.02461973e-02 -5.99014685e-02 -4.57119681e-02 -6.93287700e-02
  -2.59083323e-02 -3.43691856e-02  1.72876269e-02  1.67834014e-02
   6.20983616e-02  6.20187744e-02 -1.82553902e-02 -2.82717049e-02
   5.44429198e-02  4.49441373e-03 -1.69036686e-02 -6.99475408e-02
  -7.39326179e-02  2.66180485e-02  1.91238746e-02 -3.06520946e-02
   7.25364015e-02 -2.05458403e-02  3.44552100e-04 -6.19721934e-02
   7.58886114e-02 -6.02804385e-02  7.24149868e-02 -9.19106603e-03
  -5.91821373e-02 -1.81541964e-02  1.40490234e-02 -3.99683416e-02
   4.26715612e-02  2.91482508e-02 -3.30955088e-02 -2.42482945e-02
   2.56125554e-02 -3.25060189e-02  2.12725177e-02 -9.33465362e-03
   2.21346989e-02 -7.20910579e-02 -4.87147644e-02 -3.83954197e-02
  -5.19644469e-02 -4.38147075e-02 -1.26949176e-02  1.80340856e-02
   1.10442936e-02  5.64287603e-03  1.09507218e-02 -6.75914437e-03
  -5.93598187e-02  5.19206896e-02  4.65525463e-02  6.69583604e-02
   1.06072426e-03  5.53205684e-02  3.64067852e-02 -5.34163676e-02
   5.26027307e-02  2.84529403e-02 -4.07021120e-02  8.03671554e-02
  -5.44845387e-02  4.68597040e-02 -5.07414751e-02 -1.95950344e-02
   3.58871073e-02  2.30511725e-02 -4.70608734e-02  5.61401248e-05
   6.53773919e-02 -7.77742490e-02  7.81884417e-02  2.80266330e-02
  -4.26349193e-02 -2.53391303e-02  5.00255078e-03  1.64120644e-03
  -3.96974869e-02  2.33343095e-02  7.70942345e-02 -6.77594841e-02
  -7.96813741e-02  4.39060479e-03  6.72568902e-02 -7.00598359e-02
  -2.07610168e-02 -1.31596774e-02 -6.29349500e-02 -1.52898580e-03
  -3.31682600e-02  4.07939479e-02  4.70816344e-03  5.93002215e-02
   3.92085984e-02 -5.41160256e-02  4.38011885e-02 -2.05485299e-02
   7.58709833e-02 -4.49957550e-02  1.71831995e-02  5.39103523e-02
   6.26577362e-02 -4.13769595e-02  3.88736799e-02 -6.99186474e-02
   7.08675608e-02 -7.31410086e-02 -1.61157474e-02 -2.89931409e-02
   5.02340123e-02  4.89279851e-02 -1.57702118e-02  3.30642983e-02]
 [-1.05393380e-02 -2.71473005e-02  7.80344680e-02  3.40703502e-02
   5.64606860e-02  5.28051630e-02 -7.58306757e-02  5.18736616e-02
  -7.78321475e-02  6.38336167e-02  5.52080646e-02 -3.91667485e-02
   8.03889409e-02 -7.39073455e-02 -4.85131219e-02  6.62928894e-02
   2.19368637e-02  5.86952195e-02  6.90110028e-04 -3.02438438e-02
   7.16392919e-02 -5.46418726e-02  5.52829579e-02 -4.53948006e-02
  -3.91172022e-02  1.92323327e-03  2.67115980e-03  3.26993614e-02
   2.76469216e-02 -6.51714429e-02 -2.93258727e-02  4.34550196e-02
   3.96819562e-02  1.63156241e-02  2.73091346e-03 -6.48529381e-02
  -5.30278981e-02 -5.30585647e-04  1.04641169e-03 -2.47218311e-02
  -1.21743530e-02  6.50206208e-03 -7.30409920e-02  5.96259609e-02
   5.92363104e-02 -6.64847046e-02  8.10093358e-02  5.65384999e-02
  -4.87263277e-02  1.07873082e-02 -4.84826081e-02  3.84797379e-02
  -5.59176207e-02 -5.69420904e-02 -5.59710562e-02 -7.53817558e-02
  -6.99799135e-02  7.49291480e-03  8.02953467e-02 -6.95272237e-02
  -3.41382697e-02  1.19944811e-02 -7.74035752e-02  3.59186679e-02
  -6.29811883e-02  4.38572168e-02  6.71648756e-02  4.72535193e-03
  -2.39864551e-02 -5.38153946e-03 -4.85172421e-02 -2.43027508e-02
  -6.17242754e-02 -4.01263684e-03  6.24091402e-02  1.73897743e-02
  -5.26968092e-02  7.93352202e-02  2.99001634e-02  1.95597783e-02
  -6.14429042e-02 -4.97140102e-02 -6.66493177e-02  4.56635728e-02
  -7.08922893e-02  1.02235228e-02  7.53376707e-02 -7.10521266e-02
  -4.22597937e-02 -7.93627203e-02 -7.92213753e-02 -9.45443660e-03
   6.42556921e-02 -6.08137250e-03  5.70894703e-02  5.70546314e-02
  -1.66059136e-02  4.04145345e-02  3.23138535e-02 -6.75467253e-02
   3.29438224e-02  5.69920987e-03  6.46714345e-02 -6.04918674e-02
   3.89491916e-02  1.01340637e-02  1.64321810e-02  3.91968936e-02
   6.46536425e-02  4.20342684e-02 -6.49524331e-02  1.73808634e-03
   1.28202885e-02 -5.94598353e-02 -4.73223627e-03 -8.00670981e-02
   4.06799316e-02  4.91348282e-02 -3.27453874e-02  1.88283324e-02
  -7.01915100e-02  2.88616568e-02  6.28021285e-02  6.96799904e-03
  -5.36055155e-02 -2.14134902e-03  2.73793936e-03  5.60417697e-02]
 [ 7.04530105e-02 -9.57766175e-03  7.75723159e-03  1.86601654e-02
  -4.41583693e-02 -6.37757406e-02 -5.35979159e-02 -1.91803463e-02
   5.35701141e-02 -2.29459368e-02  3.88998985e-02  3.97230908e-02
  -7.69542903e-02 -3.92454751e-02 -1.32036284e-02  3.30163389e-02
  -1.34137198e-02  7.34340474e-02 -3.71761397e-02 -7.64868408e-02
   3.83227691e-02  2.74203196e-02  1.76660940e-02  2.21596062e-02
  -4.94492911e-02  6.88299611e-02  2.90771425e-02 -6.18903711e-02
  -5.27003407e-03 -3.99729051e-02  7.50557259e-02  6.55334815e-02
  -1.07925385e-03 -5.19949421e-02 -4.74161394e-02 -3.64912190e-02
  -4.62537706e-02 -5.70876300e-02 -4.57556546e-02 -5.08144945e-02
   2.32045874e-02  1.03109479e-02 -1.17684379e-02 -7.30334893e-02
   1.42828226e-02  4.76813242e-02  6.30427375e-02  1.61403418e-03
   5.15017286e-02  6.17661998e-02  5.64607754e-02  2.24732608e-03
  -7.04882368e-02  7.44275078e-02  2.72147134e-02 -3.28846052e-02
  -2.59936936e-02  5.62514365e-03 -6.27998710e-02  4.91769090e-02
   5.03682718e-02 -4.04908434e-02 -3.93112265e-02 -2.55164430e-02
  -3.74921672e-02  2.93624625e-02 -3.88693251e-02 -5.08807302e-02
   2.41020545e-02  6.61796704e-02 -4.19451296e-03  2.54402310e-02
   7.21955225e-02 -3.07598077e-02  1.93788111e-02  2.33471841e-02
  -3.62339392e-02  4.82806340e-02 -3.02172713e-02 -3.14226300e-02
  -4.21722494e-02 -1.67770982e-02 -2.96320952e-02  5.68265542e-02
   2.26893201e-02  6.03081658e-02 -3.98602188e-02  5.37934229e-02
  -8.99188221e-03  5.66087291e-02  1.11684874e-02  7.58562237e-03
  -4.56171930e-02 -2.85427123e-02 -5.93830869e-02  1.74544007e-02
  -7.76785463e-02  1.50080696e-02  3.26719582e-02  7.40413740e-02
  -5.26870266e-02  6.73754439e-02  8.37560743e-03  7.93186501e-02
  -7.62680918e-02 -7.40913525e-02  4.96971086e-02 -7.52376467e-02
   1.83317065e-03 -6.49596676e-02  3.19832638e-02  6.56945631e-02
   1.78697854e-02  7.33256340e-03  9.23261046e-03 -3.03000025e-02
  -1.91781968e-02  1.78311467e-02 -3.32583934e-02  2.05679834e-02
  -4.38267365e-02  2.20967308e-02 -7.45768100e-03 -6.09624609e-02
   3.83903384e-02  4.52777669e-02  1.10808089e-02  1.67237446e-02]
 [ 2.80163214e-02 -2.04589143e-02  4.04777080e-02 -6.43036216e-02
   1.17661208e-02  3.49234194e-02  4.40735146e-02 -6.18908554e-02
  -5.86197823e-02  4.89753410e-02  1.70587972e-02 -7.73068815e-02
  -8.98990780e-03 -3.09900306e-02  2.90807337e-03  5.23116812e-02
   1.98583454e-02  7.17535689e-02 -2.61490569e-02  3.04398388e-02
  -7.10151270e-02 -5.34817576e-04 -6.32326230e-02 -4.05338891e-02
  -4.80404571e-02 -2.18156129e-02 -1.77742019e-02  1.05246007e-02
   8.08064565e-02  6.87112287e-02  4.50465903e-02 -2.50610635e-02
  -2.54345424e-02  7.65949488e-03  3.79965454e-02 -4.15445454e-02
   2.20260695e-02  7.48576149e-02 -3.61918397e-02 -7.77531341e-02
  -5.25231138e-02  4.22619283e-04 -9.86800343e-03  7.63724819e-02
  -1.17376745e-02 -4.66729850e-02 -5.46287075e-02  7.06359819e-02
  -1.37605742e-02  1.74485445e-02 -5.03441095e-02  2.25647390e-02
   7.58128092e-02 -2.16807276e-02 -3.64712998e-02 -4.93884720e-02
  -6.52313381e-02 -4.48223129e-02 -5.18089868e-02 -3.51249464e-02
  -4.03704010e-02  6.89062104e-02  5.66913933e-03 -7.37546682e-02
  -3.25179696e-02 -5.83615750e-02  6.25859201e-03 -6.19542263e-02
  -1.45621821e-02 -5.67312539e-03  1.36038959e-02 -3.31734233e-02
   4.46264669e-02 -5.66687211e-02 -2.80725211e-02  7.02917054e-02
   9.92352515e-03  6.36307821e-02 -5.95925562e-02 -1.38834864e-02
  -7.85538778e-02  1.41325444e-02  2.38168165e-02 -5.91152310e-02
   7.40665272e-02  1.76205561e-02  6.96808472e-02 -5.52947745e-02
  -4.81638350e-02 -1.52834430e-02 -2.14300640e-02 -4.78866212e-02
   1.84914917e-02  4.69520688e-03  7.02159479e-02  1.00908428e-02
  -5.22188246e-02 -6.89304769e-02 -3.89071889e-02 -5.23147807e-02
  -5.11429571e-02 -5.31367175e-02  5.58121279e-02 -2.18475983e-02
  -1.59291923e-02 -4.89719622e-02 -2.43645757e-02 -6.72789887e-02
   3.66041884e-02 -1.22411624e-02 -1.35376826e-02  3.94807234e-02
  -7.10352436e-02 -2.00541839e-02 -1.05239451e-02  4.88440692e-03
   2.09750980e-03  9.14614648e-03  4.01016027e-02 -7.08138794e-02
   5.49216345e-02  2.54987106e-02 -3.71504016e-02  6.16504997e-03
  -3.72957103e-02 -2.90509798e-02  6.53089061e-02  3.96834314e-02]
 [ 4.19282988e-02  4.68298048e-03  6.80331513e-02  5.40701821e-02
  -2.62944028e-02 -4.60567921e-02 -5.58883995e-02 -6.88357204e-02
   7.48790428e-02 -7.58814365e-02 -2.38729194e-02 -5.00381999e-02
   2.96787769e-02 -4.94309776e-02  1.20453015e-02  1.69160441e-02
  -7.56891966e-02 -4.29733582e-02  2.33483836e-02 -3.39608788e-02
  -5.05198762e-02  3.39801610e-02  3.44565213e-02 -1.08242482e-02
   4.62506190e-02 -7.91812912e-02  2.08259970e-02 -6.89502656e-02
  -4.18575183e-02  5.24559543e-02  4.97653559e-02 -7.39836395e-02
  -1.47735327e-02 -6.87645972e-02 -2.62372382e-02 -3.32669802e-02
  -4.50258665e-02 -1.02727190e-02  4.82688099e-03 -3.61320265e-02
  -5.52929752e-02  1.60501897e-02  7.69302472e-02 -3.06116566e-02
  -1.06421337e-02  1.45284981e-02  8.09862241e-02 -4.27550822e-03
  -3.24303098e-02 -5.46794385e-03  4.09629270e-02 -7.39061683e-02
  -7.55066276e-02 -2.17166394e-02  6.06260970e-02  1.70377418e-02
   4.79546711e-02  8.81727785e-03 -4.12645675e-02  1.82414874e-02
  -7.25859404e-02  1.36640593e-02  6.22987002e-03 -6.63719624e-02
   3.66804227e-02  7.49943778e-02  2.81919912e-02  2.81526223e-02
  -5.55461720e-02 -2.01234147e-02  2.80933827e-02 -7.37000406e-02
   2.75620297e-02 -3.04925554e-02 -1.45835504e-02  6.77261129e-02
   4.42703813e-03 -2.36429274e-02 -6.67542219e-02  1.38519481e-02
   4.70697060e-02  5.11924997e-02 -5.41701540e-02  3.34971473e-02
   4.37011123e-02  4.84555140e-02 -4.87840325e-02 -3.16618383e-03
  -4.27248999e-02  2.73567140e-02  5.91507480e-02  2.53580064e-02
  -2.52031609e-02 -4.06214930e-02 -1.44240484e-02 -2.80250646e-02
   7.30122700e-02  8.30926001e-04 -1.15368441e-02  4.40097228e-02
   7.06007257e-02 -4.85313982e-02 -2.53027342e-02 -3.39572020e-02
  -4.15434651e-02 -7.52171502e-02 -2.06557810e-02  2.86562890e-02
  -3.77365053e-02 -1.77086890e-03  5.42993173e-02 -1.29484609e-02
  -3.38014141e-02  4.72403094e-02  6.06631264e-02  3.09902802e-02
   6.59047589e-02 -2.22923793e-02 -4.10745479e-02 -5.11122681e-02
   3.15621495e-04  7.85469487e-02 -2.21024007e-02  2.85462290e-03
  -1.23452842e-02  5.99906817e-02 -4.61837873e-02 -4.89036031e-02]
 [ 1.69843659e-02  5.80947846e-03 -7.50478059e-02 -2.87848450e-02
   5.28728217e-03 -1.35459602e-02 -1.34895891e-02 -3.90049070e-02
  -4.46432009e-02 -2.16105096e-02  6.62748292e-02  7.15968087e-02
   5.68369254e-02 -7.43478909e-02  4.26453575e-02 -4.99743819e-02
   2.44817063e-02 -7.64242634e-02  5.33759519e-02 -8.61413032e-03
  -3.94423977e-02  2.07181647e-02  6.97843730e-03  9.07877088e-03
  -8.04519653e-02 -4.22103256e-02 -2.44187601e-02 -6.10813536e-02
  -1.39390677e-02  4.44904491e-02  5.15761003e-02 -7.08851367e-02
   3.68819088e-02  7.45048746e-02 -6.49556518e-02 -1.95891410e-03
   2.44776160e-03  6.44587949e-02  7.92551413e-02  5.72982356e-02
   3.72947827e-02 -1.04580000e-02  7.10522905e-02 -5.18498681e-02
  -5.51515147e-02  5.98433688e-02  6.97868243e-02 -3.04310210e-02
  -5.79735935e-02  1.90828219e-02 -4.55417149e-02  7.79513493e-02
   2.93669477e-02 -6.73316121e-02  1.41937137e-02 -5.26691973e-03
  -7.77959898e-02 -7.06907883e-02 -5.02590612e-02 -2.77449675e-02
  -7.11926743e-02  5.90958521e-02 -7.04060346e-02 -6.03165030e-02
  -4.80161682e-02  4.58948538e-02 -4.17819060e-02  3.52875441e-02
  -1.22787580e-02  7.43356869e-02  1.72039717e-02 -1.62676871e-02
  -7.37355649e-03 -2.66906843e-02 -2.63231248e-03 -1.76362172e-02
   2.47815251e-02  6.13954291e-02  4.56722751e-02 -2.27115750e-02
  -7.97648430e-02 -3.52723822e-02 -3.83585431e-02 -6.14012703e-02
   2.09315419e-02  6.92757294e-02  2.14101896e-02  7.43010119e-02
  -7.69609585e-02 -2.24326774e-02  3.85678187e-02 -7.67909363e-02
  -3.81811894e-02  1.09915212e-02  2.03653425e-03 -1.61564499e-02
   6.27686605e-02  4.16748673e-02  3.55140120e-02  1.60285085e-02
  -1.67604685e-02 -4.85458635e-02 -7.75118470e-02  4.80231866e-02
  -1.17198378e-02  2.80696973e-02  4.27471027e-02 -2.17708275e-02
  -2.69718617e-02  7.49469772e-02 -7.65139535e-02  1.73062086e-02
   5.94332293e-02  5.83288446e-02  7.16325417e-02 -7.27551728e-02
   2.70769075e-02 -4.78882045e-02 -5.57820424e-02  4.41156551e-02
   5.69390133e-02  5.83759025e-02 -4.04685847e-02  2.54639015e-02
   5.76828420e-03  5.97934201e-02  1.05277300e-02 -9.03649628e-03]
 [-2.03727819e-02 -2.69852839e-02 -2.44894624e-03 -3.12039889e-02
  -3.94502878e-02  5.52667901e-02  7.10554942e-02 -1.82206780e-02
   2.93510556e-02  5.47510907e-02  7.55721107e-02  4.80118170e-02
   3.72704864e-03 -5.83269820e-02  1.45438910e-02 -6.83834776e-02
   4.77742627e-02  1.14953443e-02 -5.88892251e-02 -1.21943429e-02
   2.37647370e-02 -7.78359771e-02  5.52220568e-02  2.97569260e-02
  -7.72827119e-02  6.09953627e-02 -1.60988644e-02  8.14691931e-03
   4.04982269e-02  4.16700691e-02 -2.24055871e-02  4.26749513e-02
  -2.71122195e-02 -7.72125721e-02  1.43975392e-02 -3.93295176e-02
  -2.46425830e-02 -7.98018500e-02  7.93989524e-02 -1.40003860e-03
   3.79624218e-03 -7.24780560e-02 -5.32285124e-03 -2.26076134e-02
   6.79134652e-02 -2.06640363e-02  5.68156615e-02  6.42356500e-02
  -7.67278746e-02  6.76692948e-02  4.04832810e-02 -1.49566680e-02
   7.62367994e-03 -2.59585157e-02 -7.81524330e-02 -4.73752767e-02
  -1.39462203e-02 -4.55869734e-03  1.04906410e-03  1.08232424e-02
   3.22593600e-02  5.11113927e-02 -3.12890969e-02 -5.40436059e-03
   5.96773997e-02  6.31980076e-02 -4.99168709e-02 -1.54985264e-02
   3.36012021e-02 -4.82465811e-02  7.64844492e-02 -1.10504106e-02
  -5.51738329e-02  5.30279800e-02  3.78500447e-02 -5.60121983e-03
   5.63563928e-02  5.40233180e-02 -4.13506813e-02  2.57770419e-02
  -4.38381732e-03  2.80108303e-02  9.44304466e-03  5.25859818e-02
  -1.51510388e-02  2.03249976e-02  6.74053654e-02  1.47343725e-02
  -3.90039794e-02 -2.99879611e-02  4.42932919e-02  6.21965304e-02
  -7.34726042e-02 -2.47122981e-02 -3.28749418e-04  6.87765852e-02
   7.68311098e-02 -7.54896626e-02 -2.34384649e-02  3.35228667e-02
   1.34180114e-02  8.07785913e-02 -8.12796503e-03 -6.06514439e-02
  -1.32172033e-02 -4.07607853e-02  6.90060034e-02  3.39643359e-02
  -8.01759958e-03  6.85974732e-02  5.88167235e-02  2.72970572e-02
  -3.10684480e-02  4.40273359e-02  1.28858089e-02  4.71270457e-02
  -6.32648990e-02 -7.45011494e-02  6.73544034e-02 -7.26602599e-02
   6.10116646e-02 -1.33828968e-02 -3.58863734e-02 -5.81090599e-02
   3.33264470e-03 -6.71257302e-02  5.69782928e-02 -7.76126236e-02]
 [ 3.21850628e-02 -4.86512184e-02  4.09406871e-02  1.51304975e-02
   6.00838587e-02 -3.88851054e-02 -1.68828592e-02 -4.54350263e-02
  -4.99201380e-02  7.99416006e-03 -6.44368231e-02  3.75480950e-02
   2.29222104e-02  8.72746855e-03  2.41501555e-02 -2.90377922e-02
  -1.77033618e-02  5.30417040e-02  5.51938489e-02 -3.64795960e-02
  -1.48787946e-02 -2.36261413e-02 -6.66664690e-02  5.81767932e-02
  -6.61058873e-02  6.35613427e-02  1.63871422e-02 -1.24491081e-02
  -5.89575060e-02 -8.93659890e-04  2.73427144e-02 -3.73462029e-02
  -8.00801888e-02 -6.49844408e-02 -5.23889065e-02 -1.88964568e-02
   2.81904638e-02  3.12647969e-03  2.96463519e-02  9.64439660e-03
   6.31708577e-02  6.73727170e-02  2.97601968e-02  2.44728699e-02
  -3.63725387e-02 -3.58180329e-02  7.95394853e-02 -7.57106021e-02
   6.69861063e-02 -2.81885304e-02 -1.14951134e-02 -7.93601498e-02
   4.68464717e-02 -2.06554718e-02 -1.00392252e-02 -4.04149182e-02
  -3.61790955e-02 -2.54941434e-02 -6.88376203e-02 -2.79811099e-02
   5.29957786e-02  5.21870479e-02  6.41456768e-02 -6.52529374e-02
  -5.28037474e-02  6.81554750e-02 -7.23478496e-02  3.09510455e-02
   6.81361631e-02  3.47646922e-02 -2.33311951e-02  1.75363570e-02
   3.99253517e-02 -6.96443543e-02  7.59779140e-02  7.10725710e-02
  -5.82490265e-02  2.93346718e-02 -6.38142079e-02 -7.54886568e-02
  -5.53170741e-02  1.84575915e-02 -3.22985575e-02  5.19745797e-03
  -7.02028647e-02  7.28957281e-02 -7.23201782e-02  4.52667475e-04
   4.90670875e-02 -5.36989979e-02 -1.22013837e-02 -6.83797672e-02
  -5.17899580e-02  6.15295991e-02 -1.91331208e-02 -7.60371983e-03
  -5.52499294e-03  7.27640092e-03 -1.36132166e-02 -7.59646744e-02
  -2.70148106e-02  1.26078203e-02 -2.99225785e-02 -2.91755944e-02
  -1.48130208e-02 -7.52973557e-03  5.10360375e-02  7.89535865e-02
  -1.03613287e-02  1.00548118e-02  1.29302442e-02  6.26527295e-02
  -5.23382202e-02  7.61078075e-02  1.34681240e-02  1.68751404e-02
  -3.05678584e-02 -7.02063739e-03 -3.44529413e-02  5.58427796e-02
  -2.20448896e-02  1.84350684e-02 -4.64329608e-02 -4.85276058e-02
   4.72874865e-02  7.25276992e-02 -6.41066581e-02  1.05620772e-02]
 [ 6.23571575e-02  1.01970136e-01 -3.29909883e-02 -1.07932292e-01
  -7.85864443e-02 -4.92226556e-02 -5.46337925e-02  5.84848709e-02
   5.26050702e-02 -2.73645148e-02  2.57703736e-02 -2.62671560e-02
  -2.94359680e-02  5.61705092e-03 -4.73195594e-03  2.22274680e-02
  -2.46555312e-03 -6.57291040e-02 -8.97765160e-02  8.43622088e-02
   4.57804464e-03 -5.47380075e-02 -7.63734058e-02  9.61880460e-02
   2.01250985e-02 -8.16339254e-03  1.58885715e-03  3.42727900e-02
   3.34802940e-02 -2.12708283e-02 -4.87353578e-02  4.28358279e-02
   6.54183552e-02 -4.82114255e-02  3.24229114e-02 -4.69548628e-02
  -2.82227993e-02 -1.99419968e-02  6.24660738e-02 -4.47207876e-02
   6.20590672e-02 -4.75773253e-02 -3.40599976e-02  1.02651268e-01
   1.62502192e-02  3.30931954e-02  8.89827556e-04 -2.82395203e-02
  -5.04369736e-02 -6.98019415e-02 -2.30893902e-02 -3.95996384e-02
  -7.19075501e-02  6.35617971e-02 -3.27663161e-02  1.69264916e-02
   1.68112051e-02  6.95265457e-02 -1.60919558e-02 -6.25587851e-02
   3.44294086e-02 -3.61114591e-02  4.13354337e-02 -1.14128431e-02
  -6.25646040e-02 -3.34841982e-02  2.74533536e-02  8.61496031e-02
  -2.17758715e-02  4.00746018e-02  6.97899833e-02  5.04265986e-02
  -3.67822871e-02 -3.68107436e-03  4.01078686e-02  3.68031338e-02
   6.07668385e-02 -5.48944436e-02 -1.65619478e-02  3.76236290e-02
  -2.96058469e-02  5.96207865e-02 -4.98538278e-02  4.03733030e-02
  -2.38920450e-02 -1.11469561e-02  6.90309480e-02 -4.33764271e-02
   5.24337143e-02 -3.27555686e-02  3.55330892e-02  7.45040476e-02
  -4.51300852e-02  8.68920758e-02  6.83932379e-02 -2.56075822e-02
  -2.97634229e-02 -7.63962865e-02 -7.78775588e-02 -6.14205152e-02
   8.04836974e-02  4.09984067e-02 -8.88420939e-02  5.12278154e-02
  -1.14344299e-01 -5.81164239e-03  9.09885019e-02  1.70332827e-02
   4.83601168e-02  9.23285559e-02  1.74773193e-03 -9.22253281e-02
  -6.06150888e-02 -5.94716519e-03  6.66309819e-02 -4.91651185e-02
   6.63793758e-02 -2.08791569e-02  2.79921833e-02  2.27869786e-02
   3.13706473e-02 -5.85147366e-02  6.02558926e-02  3.44372541e-03
   7.82957971e-02 -6.33456409e-02  1.36926491e-02  8.65144841e-03]
 [ 4.66839932e-02 -1.18361939e-04  6.95113018e-02 -5.95443277e-03
   6.26490340e-02 -1.79255307e-02  1.38532043e-01  9.16593149e-03
   1.49356872e-02  2.07048021e-02 -3.54824960e-03  6.15054853e-02
   8.25137943e-02 -2.38749571e-02  6.72758138e-03 -2.78062001e-02
   1.12460010e-01  4.46267799e-02 -9.59669948e-02  6.44707754e-02
  -4.97735851e-02  2.16699764e-02  3.76627147e-02  6.33407012e-02
  -3.67888063e-03 -7.18511716e-02 -8.84648860e-02  1.04981355e-01
  -5.43765798e-02 -9.73610505e-02  2.37007514e-02 -9.69631504e-03
  -8.05981457e-03  7.12775066e-02 -3.75585146e-02  5.30298278e-02
  -4.32978161e-02  8.49020928e-02 -3.64324339e-02  9.53607559e-02
  -1.21084228e-02 -9.25886780e-02 -5.55355065e-02  6.72898740e-02
   9.41988360e-03 -7.44794607e-02  6.10531820e-03 -8.50678533e-02
  -1.47168580e-02  6.11172393e-02  3.22073027e-02 -1.33107556e-03
  -1.73067674e-02 -9.43711586e-03  8.25725123e-02 -8.55510905e-02
   8.29352513e-02 -4.24313061e-02  9.09404904e-02 -1.69276074e-02
   3.78397927e-02 -3.52444276e-02 -9.47525054e-02  9.17175114e-02
  -8.25336501e-02  1.12468369e-01  3.44905220e-02  4.69804332e-02
  -1.34537518e-02  4.61907908e-02  7.86961243e-02 -2.06283405e-02
   2.34379862e-02 -7.36463144e-02  6.85749575e-02  8.91045928e-02
   3.27979177e-02 -1.91673564e-04 -3.48057263e-02 -7.87133425e-02
  -2.31529959e-02 -2.73731258e-02 -7.36181438e-02 -7.75895119e-02
  -5.67138568e-02  2.06607929e-03 -6.75390512e-02 -4.85011712e-02
  -2.30532177e-02  4.67007756e-02  7.89188370e-02  3.23866233e-02
   2.43303273e-02  5.70313558e-02  3.82580832e-02  3.81231308e-03
  -7.06631169e-02 -4.49471287e-02 -3.98354456e-02 -9.13964957e-02
   5.74697144e-02  1.67609192e-02 -5.62625527e-02  5.56593016e-02
  -2.67640240e-02 -6.84337765e-02 -1.23733552e-02 -2.03936026e-02
   1.47424787e-02 -2.09844820e-02  9.32971761e-03  8.32504630e-02
   3.31045017e-02  4.73405048e-02  7.53051415e-02 -5.08147180e-02
   1.39305592e-02  2.67452747e-02  1.16794845e-02  1.94350667e-02
  -4.83856834e-02  4.13096696e-03  1.05307549e-01  2.99034715e-02
   3.12398206e-02 -1.42346660e-03 -1.51499823e-01 -1.63002796e-02]
 [-8.92269462e-02  7.01143965e-02  6.54388666e-02 -3.14937159e-02
  -1.45680606e-02 -5.56720793e-03  1.05098151e-02  5.86661696e-02
   6.60312399e-02 -6.66987821e-02 -1.76352561e-02  2.47257575e-02
   1.24822274e-01 -2.63186544e-03  6.44069687e-02 -1.05901308e-01
  -2.58566439e-03  5.42695895e-02 -6.84651434e-02 -3.37982140e-02
   2.62014568e-03  6.01883233e-03  3.02806646e-02 -1.03466986e-02
   3.38343307e-02  9.48600918e-02 -4.49550301e-02  9.10986960e-03
  -4.65503447e-02 -2.22461000e-02 -4.90298048e-02 -6.39335215e-02
  -1.41857266e-02 -7.83670694e-02 -3.42704467e-02  2.08366513e-02
  -2.27710605e-02 -7.23855346e-02  5.57927676e-02  7.43099079e-02
  -8.52958113e-03 -6.20976165e-02 -8.75603259e-02 -3.33649665e-03
   4.75697890e-02  1.38917705e-02 -4.39377986e-02 -4.13686074e-02
  -6.12600781e-02 -1.19462907e-02  2.21168622e-02 -7.37805432e-03
  -1.53449196e-02 -9.39146355e-02 -2.49050781e-02 -4.12527584e-02
   1.46739587e-01 -3.79106291e-02  2.22360864e-02  3.90343592e-02
  -5.60529158e-02  9.28581413e-03 -1.09124452e-01  1.04953870e-01
   7.89088532e-02  3.85452360e-02 -7.08904564e-02  1.00238458e-03
  -4.15746197e-02  1.69836134e-02 -3.66364084e-02  1.18541576e-01
  -4.22347821e-02  8.65575746e-02 -2.36067846e-02  2.54356638e-02
   4.44801375e-02 -3.04911807e-02  1.00529427e-02  3.13553140e-02
  -6.17714524e-02  3.25928931e-03 -5.33171818e-02  7.08962306e-02
  -1.18204951e-02 -3.91271291e-03  8.31507146e-04  1.16726011e-03
   4.83854711e-02 -2.89329588e-02 -5.80589920e-02  6.61419034e-02
  -5.46018817e-02 -1.70555618e-02 -3.52687649e-02 -2.03417838e-02
  -7.64043853e-02  1.57226160e-01  1.65810436e-02 -1.31090134e-01
   7.46464133e-02 -1.83487032e-02  6.19311556e-02  5.65398112e-02
  -9.19900313e-02 -2.81408243e-02 -5.47366925e-02  1.21154509e-01
   5.69617003e-03  9.59461033e-02 -1.61147863e-03  6.52680993e-02
  -2.07444280e-02 -3.25904116e-02  4.21519801e-02  3.12654674e-02
  -5.60562015e-02 -5.71276397e-02 -1.44559555e-02 -2.24270895e-02
   6.42510504e-02 -2.87305042e-02  1.47553096e-02  7.58443251e-02
   1.32915869e-01  5.94084822e-02 -6.82041496e-02  1.03798509e-03]
 [ 2.85547189e-02  7.31510594e-02 -1.45702688e-02 -3.82725075e-02
  -4.30113189e-02 -6.49674088e-02  7.30621666e-02  4.35425267e-02
   1.90697908e-02 -2.59758369e-03  1.27758682e-02 -1.07426113e-02
   2.96793133e-02 -5.28815277e-02  6.19165972e-02 -6.81422353e-02
  -4.56791520e-02  3.51858139e-03  4.91166636e-02 -3.15824710e-02
   6.42066374e-02  6.17340207e-03 -4.55830619e-02 -1.44759826e-02
  -1.64988190e-02 -5.99294193e-02 -2.22934224e-02  5.55193499e-02
   5.16959354e-02 -2.70534791e-02 -3.76503170e-03 -4.46511470e-02
   7.99387917e-02  2.47458294e-02 -3.64068635e-02  3.52852196e-02
   6.28703758e-02 -5.48728518e-02  3.16848233e-02  6.43362775e-02
   4.50349227e-02  1.09636609e-03  3.19892354e-03 -7.34513327e-02
   4.58797067e-02 -1.73964668e-02  8.07458982e-02 -6.88169673e-02
  -4.51444872e-02 -2.48839818e-02 -5.58865443e-02  6.01668358e-02
  -3.73055227e-02  6.39785677e-02 -3.73747684e-02 -5.25372736e-02
   7.91434944e-02  5.05878702e-02  2.53626630e-02  5.86382672e-02
   6.76349476e-02 -4.62756567e-02  3.93965989e-02  1.08367419e-02
  -1.52678415e-02 -3.03560644e-02  1.47390515e-02  2.19171550e-02
  -6.84762597e-02 -4.93398346e-02 -6.97469413e-02 -3.87779586e-02
  -6.73580244e-02  1.51849110e-02  1.07858628e-02  4.98086587e-02
  -2.51818299e-02 -6.65130690e-02 -4.09692246e-03 -5.19162789e-02
   1.59120969e-02  3.95975076e-02 -5.19016758e-02 -6.31203055e-02
  -6.68708980e-03  1.07555697e-03 -7.77570158e-03  3.18159685e-02
   5.45426011e-02  3.68482620e-02  5.41728921e-02 -5.96764917e-03
  -2.93784179e-02 -4.19847853e-02  1.18501782e-02  6.30195364e-02
   2.42231786e-03  7.11008161e-02  4.97595295e-02  2.55365409e-02
  -6.78973794e-02  3.66894826e-02 -2.77096778e-03 -5.77887595e-02
  -5.28246686e-02 -7.17324242e-02  3.00791580e-02 -4.52449545e-02
  -5.13090715e-02 -4.72615398e-02  2.94867903e-02  4.29431275e-02
   7.78432265e-02  2.66176835e-02  2.70393342e-02  6.62189722e-03
  -3.72931361e-02  1.01264790e-02  6.74941242e-02 -1.55433938e-02
  -3.47368931e-03  2.96064913e-02  2.76483335e-02  7.49118701e-02
  -1.04634231e-02 -6.23148046e-02 -2.51559969e-02 -4.99906242e-02]
 [-5.86225092e-03 -4.03460748e-02  3.38936597e-02  7.99243674e-02
   5.82100824e-02  1.53375566e-02 -5.73398396e-02 -2.94712223e-02
  -3.77101488e-02  8.85179639e-03 -1.10649914e-02  3.26554850e-02
  -5.12744412e-02  6.81659952e-02  1.87241361e-02  2.39784494e-02
  -7.11612701e-02 -5.40524721e-03  6.90912530e-02  4.23059165e-02
  -6.08727522e-02 -4.77585606e-02  7.81144574e-02 -5.87353483e-02
   7.19939694e-02  1.80929899e-04 -4.33799252e-02 -4.76109125e-02
  -7.94624463e-02 -7.00206608e-02 -2.56203115e-03  1.65554583e-02
  -4.27277796e-02  2.00340152e-02  6.29482493e-02  7.65858367e-02
  -4.13355194e-02 -5.62402457e-02 -7.21078590e-02 -9.66731459e-03
   1.07081011e-02 -2.51323432e-02  8.47247988e-03 -6.53449669e-02
  -5.06798252e-02  6.57699034e-02  7.71878138e-02  1.48603842e-02
   7.92222843e-02  5.46526685e-02 -2.79826932e-02  4.06531692e-02
  -2.24258713e-02  1.80514678e-02 -8.11412930e-04 -2.91273482e-02
  -1.54071301e-02  7.39585683e-02 -6.70832098e-02 -3.38877402e-02
   2.88143754e-02  4.69249859e-02 -4.34773527e-02  4.20729294e-02
   2.31177956e-02 -7.40044639e-02 -8.02223086e-02  7.73845688e-02
  -6.97661266e-02  4.00094166e-02  5.24197295e-02  1.43861100e-02
  -4.54562195e-02  6.18993416e-02  2.95214206e-02 -7.14618042e-02
   4.32553291e-02  3.64042744e-02 -2.67210454e-02 -5.99272624e-02
  -2.04355158e-02  2.91877016e-02  1.71742439e-02 -4.51330394e-02
   2.23890319e-02 -2.45179683e-02 -9.43534076e-04  2.54070610e-02
  -5.62039018e-03 -7.69174695e-02  4.78174463e-02 -4.68762703e-02
   4.05266359e-02  6.94985688e-03 -8.89615715e-03 -7.59879127e-02
  -7.56994039e-02  4.11866307e-02 -5.80881909e-02  5.98188862e-02
  -5.45535237e-03 -1.81678683e-02  4.39424142e-02 -7.51328170e-02
  -5.24352193e-02 -7.18765184e-02  3.57751027e-02  3.31035703e-02
  -4.69176546e-02  6.61327913e-02 -3.84515002e-02  4.13663462e-02
   4.04247418e-02  5.27819619e-02 -3.36535536e-02 -1.28887445e-02
   8.37358087e-03  7.07562491e-02  6.15925863e-02  2.69576684e-02
   6.57044426e-02  5.05120978e-02 -5.77852204e-02 -2.95957588e-02
   4.70133945e-02 -1.35342926e-02  6.96397498e-02 -6.31576926e-02]
 [-4.96160425e-02  2.37583742e-02 -7.98774287e-02  3.77391204e-02
   4.02665958e-02  4.73095402e-02  6.07653335e-02 -4.29196358e-02
  -7.84983188e-02 -3.19381319e-02 -3.11265811e-02 -6.53926581e-02
   4.51441631e-02 -2.24762857e-02 -1.29303187e-02  5.51222935e-02
  -7.39400685e-02 -1.85280815e-02 -8.06032345e-02  1.29484981e-02
   8.08535293e-02 -2.52997763e-02 -3.22965086e-02 -5.13610914e-02
  -6.50867075e-03 -6.00400828e-02 -5.75366840e-02  1.04973912e-02
  -2.93108858e-02 -9.17339325e-03  6.77659735e-02 -2.12887041e-02
   4.42495197e-03 -6.45795017e-02 -4.67566065e-02 -2.81876214e-02
  -7.15413243e-02  1.63172930e-03 -3.57545055e-02  6.01661727e-02
  -6.32210597e-02 -7.94203281e-02  8.17641616e-04  5.14494553e-02
   6.99566230e-02  4.22361195e-02  2.89623886e-02 -2.57625803e-02
  -4.02630866e-03  5.16024902e-02  4.65154722e-02 -4.30722162e-02
   1.54006556e-02  4.79644313e-02  6.37387112e-02 -5.65974042e-02
   6.68960735e-02  4.99955788e-02  2.41700485e-02  5.66095635e-02
  -6.32823035e-02  7.85125270e-02 -3.78481857e-02  5.92485070e-03
  -3.68518569e-02 -7.54728988e-02  6.61598146e-03 -5.12601063e-02
   2.23636627e-02  7.36231878e-02 -5.84289134e-02 -7.74572045e-02
   7.02025369e-02 -5.58614060e-02 -6.77477866e-02  5.33909351e-03
   3.88048887e-02 -7.94656351e-02  3.44723016e-02 -7.31843859e-02
  -7.58480579e-02  1.50840282e-02  4.89985719e-02 -7.55535215e-02
   3.81740928e-02 -3.27042378e-02 -7.44962916e-02  6.37291148e-02
   4.26506624e-02 -6.11136109e-02 -6.48218691e-02 -2.54084170e-02
   7.83445910e-02  3.18279415e-02  2.39183083e-02  2.00729817e-03
   5.36887124e-02 -6.08833134e-03  5.58938012e-02  3.12783048e-02
   5.51641658e-02  2.53821984e-02  5.32114580e-02 -4.27592434e-02
   7.52426609e-02 -5.47908396e-02 -7.79254586e-02  4.26236466e-02
   1.38750672e-03 -3.63588855e-02 -7.18349218e-02 -6.17426075e-02
   1.78214386e-02  2.41671726e-02  7.73700252e-02 -3.48936990e-02
  -4.88452204e-02  5.70856705e-02 -3.28412466e-02 -6.49704784e-03
   2.86637694e-02  4.48519513e-02 -4.61899340e-02  7.59380981e-02
   7.27610663e-02 -4.80232053e-02  3.39123011e-02  5.05821630e-02]
 [ 8.07861611e-02  1.39457211e-02  6.02734089e-03 -1.47196352e-02
   2.16847137e-02  2.95436606e-02 -1.87229551e-02 -8.27480108e-03
   1.93685293e-02  4.93024662e-02 -2.46430486e-02 -6.24686629e-02
  -6.72073960e-02 -7.33097196e-02 -3.01271938e-02  6.70884624e-02
  -3.11298855e-02 -2.64108591e-02  1.42453834e-02  3.90864164e-02
   2.85336822e-02 -4.61217687e-02 -7.58656412e-02 -4.92721498e-02
   4.16380912e-03 -7.50502422e-02  2.39008814e-02  3.69304270e-02
   2.38938779e-02  3.10510471e-02  9.54702497e-03 -5.17546833e-02
  -3.48646156e-02  5.33506945e-02  5.69226667e-02 -4.43480983e-02
   6.12346157e-02 -3.63710523e-03  4.34971750e-02  6.70376346e-02
   1.00033730e-02 -1.86949223e-03 -2.62335055e-02  7.26750717e-02
  -3.41344774e-02  7.75007159e-03  7.76516870e-02 -5.55593222e-02
   6.47472516e-02 -6.00823574e-02 -5.00608832e-02  6.00714982e-03
  -7.12567642e-02  6.48288801e-02  3.45191136e-02 -4.98920791e-02
   3.43705192e-02  4.43324074e-02 -7.63354227e-02 -6.73121735e-02
   4.48915586e-02 -2.21749581e-02  1.28438026e-02 -4.16247249e-02
  -4.23737541e-02  4.83509377e-02  3.49045694e-02 -6.62367716e-02
   1.02308691e-02 -8.10978487e-02  1.55662298e-02 -3.15888040e-02
  -7.13173300e-02  5.62630817e-02 -8.85471702e-03 -6.86287284e-02
   1.34162903e-02  6.97019473e-02 -3.79653163e-02 -5.77684529e-02
   4.48668525e-02  3.20975333e-02  3.88656110e-02 -3.90874594e-02
   4.92459536e-03  7.40021467e-04 -1.38144717e-02 -2.62426138e-02
   4.64368612e-03 -7.75306672e-02  5.75948879e-02  3.55862603e-02
   2.72159874e-02  5.95871881e-02 -5.17674536e-03 -4.95477803e-02
   2.65721753e-02  7.92965293e-04  1.60955414e-02  7.26806596e-02
   5.57579920e-02 -7.55958706e-02  1.51977539e-02  4.00689393e-02
   8.03313777e-02 -3.17303091e-03 -2.39180550e-02  1.63561106e-03
   2.31811702e-02  1.68773681e-02  4.16747332e-02 -4.55479994e-02
  -8.05514604e-02  2.26168185e-02 -1.74781084e-02 -1.12229437e-02
  -2.40146667e-02  3.87955084e-02  1.22605041e-02 -4.35159504e-02
   4.22032103e-02  5.22234514e-02  5.79197705e-03 -2.18325742e-02
   4.46685329e-02  1.59928352e-02 -7.67416656e-02  7.80136213e-02]
 [ 1.01623163e-02  1.81685090e-02 -2.35383064e-02  6.81428239e-02
   6.08119741e-02 -7.41975978e-02  5.43078408e-02  2.33480781e-02
   1.54009461e-02 -6.87457994e-02  3.17070782e-02 -1.95423365e-02
   6.92531466e-03  1.24451220e-02  1.98284090e-02  1.34003013e-02
   5.16817942e-02  3.57947871e-02  3.96226496e-02 -7.85456002e-02
   6.00644276e-02 -3.03557515e-03  5.21426722e-02 -2.90429927e-02
  -1.95848420e-02 -3.74523699e-02 -5.85307293e-02 -9.65828449e-03
   4.70236465e-02  8.92779976e-03  4.25286591e-04  9.27087665e-03
   5.40103242e-02  2.68069431e-02 -4.97848466e-02 -3.76701392e-02
   7.25074038e-02  1.62403062e-02  8.01873431e-02 -7.38127083e-02
  -1.58308148e-02 -1.19149834e-02 -7.48944506e-02 -3.59104872e-02
   6.49538711e-02 -2.85576992e-02 -2.74870545e-02  5.54401800e-02
  -4.10702825e-03 -1.61882043e-02  1.51788816e-02  1.47315487e-02
   5.94348684e-02  1.00740567e-02 -8.08940008e-02 -1.05880126e-02
   5.50956354e-02 -1.01246610e-02  1.05288699e-02  3.01278308e-02
  -7.45355487e-02  7.96216950e-02  3.90215963e-02 -1.40153393e-02
   7.80888721e-02 -5.88376671e-02  1.73373818e-02  3.86900008e-02
   5.27582243e-02  3.14058438e-02  1.29950494e-02 -3.37117054e-02
  -2.37680078e-02  1.68197975e-02  7.83598498e-02 -4.02782187e-02
  -4.20124568e-02  4.66733500e-02  2.06435025e-02  5.13097867e-02
  -2.84858197e-02  4.17554677e-02 -5.49177378e-02  5.80997989e-02
  -5.96817434e-02  5.18779680e-02  2.78713405e-02  1.44789517e-02
  -6.77122846e-02  2.82804295e-02  2.20056325e-02 -4.55377512e-02
  -1.04124397e-02  5.33909127e-02 -5.78749180e-03 -6.55924603e-02
   4.77354750e-02  3.72194573e-02  1.18701980e-02 -4.48372029e-02
   1.96821764e-02 -5.82086109e-02 -5.67315519e-02 -4.82443012e-02
  -6.57719001e-02  6.29604608e-03 -6.68681487e-02 -1.06194168e-02
   4.82088327e-03 -2.65392438e-02  4.69552353e-02 -8.95502418e-03
  -5.10081127e-02  5.65805063e-02  6.94661662e-02  6.42415807e-02
  -7.20322654e-02  7.07444474e-02 -4.82853353e-02  1.77085102e-02
   5.33263609e-02  1.76929682e-03  2.36920863e-02  6.22706190e-02
  -4.88740541e-02  5.47867343e-02  4.18668240e-03  8.60095769e-03]
 [ 1.87514573e-02 -5.18471040e-02 -1.47833154e-02 -2.32344046e-02
  -7.02113509e-02 -2.86255963e-02  7.57084563e-02 -4.95705791e-02
   6.28990456e-02  3.17794383e-02  3.26326638e-02  2.16436610e-02
   5.26308790e-02 -6.14751130e-03 -5.64926863e-02 -2.29467116e-02
   5.99428341e-02  7.37847388e-03 -1.94710381e-02 -2.85167582e-02
  -1.94470957e-02 -7.48691186e-02 -5.10281660e-02 -7.69362822e-02
   2.64515057e-02 -3.62291634e-02 -4.99628186e-02  3.04076746e-02
  -4.77781110e-02  7.76119903e-02 -9.44265723e-03  3.89483199e-02
  -3.94872800e-02 -1.70045942e-02 -2.22768337e-02 -2.07169279e-02
   6.67980984e-02 -2.69056484e-02  4.69884276e-03  6.00689575e-02
   2.74687186e-02 -4.92272489e-02 -2.08187997e-02 -5.35935089e-02
   6.59857616e-02  5.49804494e-02 -1.40948743e-02  4.47218344e-02
  -2.25261226e-02 -4.34873700e-02 -1.31548941e-03 -2.65443325e-03
   1.40056461e-02  2.02627257e-02 -7.68486857e-02  6.11716136e-02
  -6.62739798e-02  2.68283486e-02  3.03473622e-02 -5.96700087e-02
   4.57886979e-02  4.77350280e-02 -7.82422200e-02  6.80670068e-02
   9.60370898e-03 -7.83840641e-02 -4.86876518e-02  7.54671544e-03
   4.43403944e-02  7.70422146e-02  4.86162975e-02 -6.03446998e-02
  -7.52691329e-02  6.49166778e-02 -7.56897777e-02 -1.87308080e-02
   2.56989747e-02  2.44166702e-02  5.01632765e-02  1.30877718e-02
  -2.84181722e-02 -8.08145627e-02  6.47821799e-02  3.71743068e-02
  -3.92259806e-02  7.51513019e-02 -7.78721422e-02  4.16904315e-02
   7.82101527e-02 -3.45141292e-02  1.94110349e-02  7.78882727e-02
   6.04649261e-02 -4.27787565e-02 -1.25644207e-02  3.95053998e-02
   7.69957379e-02  5.30547872e-02 -2.76681744e-02  3.34709585e-02
  -7.56095648e-02 -4.26899754e-02  6.54692277e-02  3.87485325e-03
  -5.44305816e-02 -4.83423658e-02 -2.85458267e-02 -5.95322624e-02
   7.53361359e-02  7.21863285e-02 -2.90514044e-02 -2.65362114e-03
  -1.35451481e-02  1.63731202e-02  6.50488511e-02  1.31432787e-02
  -3.76929194e-02  8.06758478e-02  3.84202302e-02 -6.03791028e-02
  -6.30752146e-02  8.02739933e-02 -8.05849582e-02 -6.58814311e-02
   5.59305027e-02  6.15711287e-02  4.56503257e-02  4.35062274e-02]
 [ 5.92295453e-02  4.26309928e-02 -6.51627034e-03 -4.68125902e-02
  -7.72153586e-02 -8.07170793e-02 -6.42572641e-02  5.70254996e-02
  -3.38969268e-02  5.92414662e-02  1.08319521e-03  1.73587576e-02
   6.53774366e-02  5.72517142e-02 -3.76615115e-02 -3.79252695e-02
  -6.26844615e-02 -1.10790133e-05  2.01126263e-02  5.62733635e-02
  -6.58737347e-02 -1.97915509e-02 -1.09504685e-02 -3.12874354e-02
  -2.71251947e-02 -5.90204522e-02  5.76968566e-02  6.69451728e-02
   7.99112841e-02  4.65587303e-02  2.29366124e-02  2.25211680e-02
   1.20390952e-03 -3.58022898e-02  5.70613518e-02 -2.37896107e-02
   4.25345302e-02 -1.40547678e-02 -6.47146255e-03  3.66070122e-03
   6.56719431e-02  6.40406534e-02  2.01972649e-02  7.09968582e-02
   2.45186463e-02  1.39838755e-02 -9.66572762e-03 -1.77862048e-02
  -7.86725134e-02  1.77164376e-02  7.08421543e-02 -1.45252272e-02
   2.53014565e-02  5.83576933e-02 -3.34851928e-02 -5.52443191e-02
   4.22197655e-02  6.84561655e-02 -5.68069331e-02 -3.01624313e-02
  -4.79043126e-02  6.02687374e-02 -8.62375647e-03  7.07283989e-02
  -3.87689993e-02  1.68741941e-02 -7.98388124e-02 -5.50416932e-02
   3.72599363e-02 -4.38812710e-02 -6.83516115e-02  2.75040343e-02
   8.75094533e-03  5.37162796e-02 -5.95082603e-02 -2.69929804e-02
   2.24266425e-02  4.29506749e-02 -4.21003290e-02  3.82314622e-03
   7.21352771e-02 -4.72137034e-02 -6.36147261e-02 -5.26345223e-02
   6.47005439e-03 -5.17114624e-02  2.70957425e-02 -6.03544638e-02
   4.29027304e-02 -1.27057433e-02  2.06314772e-03  1.77126080e-02
  -1.67002454e-02 -2.69868113e-02 -1.95948593e-02  6.51180521e-02
  -1.22146085e-02 -4.58276905e-02  7.76424184e-02  2.43320838e-02
  -1.66404322e-02 -6.80819154e-02  7.15380833e-02  7.89641216e-02
  -4.31702994e-02 -4.65810522e-02  2.10293159e-02  1.98193789e-02
   2.36937851e-02  2.39728391e-02 -6.56690747e-02 -4.11953181e-02
  -3.25976051e-02  5.22127673e-02 -7.63882995e-02  3.07424590e-02
   5.55183068e-02 -4.51192334e-02  5.35264984e-02 -7.07206056e-02
   4.08189148e-02  8.02170858e-02  4.77942601e-02 -3.88796329e-02
   6.61743656e-02  5.82266599e-03  3.86645123e-02  6.96652904e-02]
 [ 3.51458043e-03  8.97517800e-03  5.16997054e-02 -1.96936429e-02
   5.50520644e-02 -4.81222942e-02  5.11647090e-02  1.73953027e-02
   3.13096493e-03 -9.38108563e-03 -4.53614630e-02 -6.21021837e-02
   4.13822010e-02  2.79886127e-02 -4.76785414e-02 -1.44222900e-02
   6.75897971e-02  7.17663839e-02  1.95305645e-02 -4.20753062e-02
  -5.09169698e-03  7.13622347e-02 -5.79570755e-02 -5.38824201e-02
  -6.34839982e-02  6.21481314e-02 -6.78739920e-02  2.99209356e-02
  -3.58825065e-02 -3.79128531e-02 -8.10465217e-02  3.01883221e-02
  -1.18320212e-02  1.46484300e-02 -1.53656304e-02  8.26969743e-03
   1.88002735e-03 -6.15367144e-02  5.32966033e-02  5.63939661e-03
   5.56459203e-02  7.60483220e-02 -7.67081529e-02 -4.99541759e-02
   8.03852752e-02 -5.95306382e-02 -6.96652010e-02  6.04343340e-02
  -2.96407938e-03 -1.32658258e-02 -5.09207621e-02 -2.85664983e-02
   6.79024979e-02  5.82843199e-02 -1.84272528e-02 -7.04036728e-02
   3.09648141e-02 -4.50004153e-02  4.52933535e-02  6.94019124e-02
  -4.03587222e-02  7.29233697e-02 -2.49862634e-02 -5.00470363e-02
   5.78726605e-02 -6.05054982e-02 -1.75978318e-02 -4.39732037e-02
   3.54853719e-02  4.79400158e-03  9.00480151e-03 -6.67724833e-02
  -5.62605299e-02 -2.90720798e-02  1.99586749e-02  6.22117296e-02
   6.72953352e-02  6.79266080e-02 -6.39187247e-02 -2.20384113e-02
   7.08393008e-03 -1.14171207e-02 -3.89656499e-02 -4.87663373e-02
   6.85597882e-02  1.02431849e-02 -6.66466504e-02  8.07519034e-02
   7.81122074e-02  1.29172504e-02  7.13820681e-02  2.17540041e-02
   1.81005299e-02  5.21691069e-02  2.30170041e-02  3.05717438e-03
  -7.99090639e-02 -7.32803196e-02 -7.45683163e-03  1.42766386e-02
   2.55899653e-02  5.09036258e-02  5.38622513e-02 -5.68930469e-02
   8.93986225e-03  3.60330120e-02  6.95355162e-02  2.91349888e-02
  -3.25977020e-02 -7.92735294e-02 -5.35230935e-02 -7.74104372e-02
   3.82122472e-02  5.26747480e-02 -3.61006409e-02  1.28008351e-02
  -3.61474603e-02 -8.83468240e-03  4.10505906e-02 -5.76531962e-02
   4.46735248e-02  4.41819802e-02  6.20586351e-02  6.01605847e-02
  -3.89256775e-02 -7.30283558e-03  8.01343694e-02  1.42809302e-02]
 [-5.44491485e-02  7.22193196e-02 -2.75036059e-02  4.21157628e-02
  -5.04551716e-02 -5.57590872e-02  2.17095613e-02 -5.27985282e-02
   2.44646147e-02  2.86787003e-03 -3.11804935e-02 -2.47278437e-02
   3.77537012e-02  4.69918326e-02 -7.87444338e-02  5.58352843e-02
   6.28516153e-02 -3.36639956e-02 -3.30442414e-02  6.89582899e-02
   4.78078946e-02 -7.10533261e-02  3.13598588e-02 -2.74444893e-02
   2.37936527e-03  7.42236301e-02  7.32018873e-02 -4.38111126e-02
   6.37063161e-02  4.20888439e-02 -3.75837162e-02 -6.62024245e-02
  -5.04218489e-02  2.11492926e-02  6.58622608e-02 -4.39269468e-02
  -1.70092881e-02 -8.59659165e-03 -1.71132535e-02  1.37015432e-03
  -2.93458104e-02  3.75620350e-02  7.49492645e-03  3.90388072e-03
  -5.88643737e-02  5.38056269e-02 -3.74757312e-02 -2.51671746e-02
  -4.49254997e-02  1.17317587e-03  4.41376045e-02  3.24891508e-03
   1.26103312e-03  3.76696736e-02  5.35948947e-02 -6.55964240e-02
  -7.15807974e-02  3.29060704e-02  1.11411586e-02  7.61205032e-02
  -4.67258766e-02 -3.24124210e-02 -4.22117971e-02  5.72189912e-02
  -1.64135918e-02  6.94070682e-02  7.23704472e-02 -5.24507314e-02
  -7.36172125e-02  3.56201828e-03  5.44885024e-02  2.99950391e-02
   2.29811147e-02 -7.97609687e-02 -5.06916195e-02  7.32243061e-04
   6.14453629e-02  5.10786697e-02 -1.53504312e-02 -1.37884393e-02
   2.06175894e-02  5.57567701e-02  5.78985587e-02 -8.02284405e-02
   4.34507653e-02  7.86128715e-02 -5.98730780e-02  1.00698993e-02
  -7.83649236e-02  7.75733218e-02 -6.47092387e-02 -5.91975711e-02
   4.72993329e-02 -7.80334249e-02  7.90227726e-02 -7.47437701e-02
   4.34493721e-02 -3.67838815e-02  1.10420734e-02  2.98089087e-02
   2.28922963e-02  7.12672397e-02  6.57473579e-02  9.98519361e-03
   4.02676165e-02  6.13030121e-02  2.44948566e-02 -2.45651118e-02
   1.61992759e-03  1.28893480e-02 -3.13537084e-02 -1.41520947e-02
  -4.91012633e-03  2.18279734e-02 -8.06833878e-02 -4.84776571e-02
  -7.27631748e-02 -4.95529249e-02  7.77985230e-02  3.09803411e-02
   3.43517214e-02 -3.99543382e-02 -1.59617364e-02 -6.83581457e-02
   7.64852837e-02 -5.32440469e-02 -5.68127707e-02 -1.74482539e-02]
 [-2.99493410e-02 -7.84153715e-02  6.93209544e-02 -3.62536646e-02
   7.60498717e-02  7.80229196e-02 -4.54840288e-02  5.86999133e-02
   2.66973153e-02  5.41557744e-02  2.68768892e-02  6.86049983e-02
  -5.41627295e-02  6.37971684e-02 -6.58955052e-02 -4.89711314e-02
  -1.04777813e-02 -7.72303641e-02 -6.17184937e-02  4.81938794e-02
   3.07198018e-02  1.87772587e-02  5.32044992e-02  3.65364701e-02
  -6.44837767e-02 -2.53614075e-02  8.26542079e-03  2.95324251e-02
  -5.16308434e-02  4.07258421e-03 -3.03847603e-02 -2.04341449e-02
   8.04072544e-02  5.46951070e-02 -2.57081799e-02  1.88412294e-02
  -2.77321674e-02  8.02873597e-02 -6.25494197e-02 -6.86564967e-02
  -7.32370839e-02  1.94772854e-02 -4.02369499e-02 -3.75895947e-03
   5.41735962e-02  3.36940661e-02 -8.02814662e-02 -5.89835644e-03
   1.48508251e-02 -3.95082608e-02 -6.70667514e-02 -5.13689257e-02
  -1.87990889e-02 -3.19692641e-02 -2.25610286e-02  4.97990102e-03
  -3.25270221e-02  1.99203640e-02 -6.44227266e-02 -6.39379695e-02
   1.41884312e-02  7.37224519e-03 -6.64099455e-02  7.17543811e-03
  -1.71311945e-03 -3.33784260e-02 -7.05552101e-03 -4.62242812e-02
  -3.24898325e-02 -6.35877699e-02  7.95834288e-02  7.35182539e-02
   3.89612466e-03  6.63087741e-02 -2.34939158e-03 -3.31040472e-03
   1.59166753e-02 -6.95871860e-02  1.53272077e-02  6.63557723e-02
   3.79075557e-02  7.45390579e-02 -3.38212363e-02 -7.54561126e-02
   2.00484246e-02 -6.52545244e-02 -1.67513937e-02  6.91855326e-02
   1.20975971e-02 -2.95086019e-02  6.07926473e-02  2.87325531e-02
   1.20737329e-02  1.33632869e-02  8.49034637e-03  7.71949664e-02
  -6.92584366e-02 -2.75175124e-02 -1.81995630e-02  6.32072762e-02
  -5.49755171e-02  6.56614974e-02  2.51791403e-02  5.85619286e-02
  -6.56483471e-02  7.06704631e-02  4.98767272e-02  1.81348771e-02
   5.79295531e-02  1.08658448e-02 -2.34443434e-02  3.62921506e-03
  -4.33113538e-02  4.81897518e-02 -6.50358945e-03  3.53282318e-02
  -7.66609833e-02 -4.50586639e-02 -3.40800732e-03 -7.25330114e-02
   7.09608123e-02 -6.57288134e-02  3.35132554e-02  3.92901301e-02
  -5.24176434e-02 -1.63171366e-02 -5.67567125e-02 -5.00650592e-02]
 [-7.86368549e-03 -7.99099356e-03 -2.06925981e-02 -5.02249897e-02
  -5.90371788e-02  3.71160358e-03 -4.30116802e-03 -2.02289969e-03
  -1.79076493e-02  8.08356032e-02 -7.50316679e-03  1.06123090e-03
   5.97308204e-02 -1.39895380e-02  6.08161315e-02 -1.73318163e-02
  -5.04674911e-02  1.92530751e-02  6.77828714e-02  3.55455950e-02
   3.23438868e-02 -3.62924598e-02  1.37395337e-02 -1.35557204e-02
   1.00036040e-02 -2.05925852e-03 -7.79021382e-02  3.03234011e-02
   4.25610095e-02 -3.53897065e-02  1.07816979e-02  3.30845639e-02
   3.66514921e-03  7.74358734e-02 -1.81639269e-02 -8.09365511e-03
  -5.46690263e-02  4.68226001e-02 -6.20190799e-03  6.66558519e-02
   5.27607277e-02 -5.45524955e-02  6.10020682e-02  5.08805886e-02
  -1.22051388e-02  7.86878392e-02  2.20789984e-02  2.67923847e-02
   6.09734729e-02 -3.96952443e-02  7.33005926e-02 -5.96177541e-02
   2.28693783e-02  3.65906358e-02  4.06295732e-02 -7.66886026e-02
   5.12367412e-02 -4.99762595e-04 -1.02187470e-02  4.63782996e-03
   1.34898201e-02 -7.76609480e-02  3.70145664e-02  4.47561368e-02
  -2.85675377e-03 -2.63047293e-02 -5.57927154e-02 -3.40063870e-03
  -1.95153020e-02 -4.34407443e-02  2.51931027e-02  4.17391881e-02
  -5.81967980e-02 -7.13191107e-02 -1.85260549e-02  5.56804761e-02
   6.08877838e-03 -4.46055084e-02 -7.07580075e-02  2.03392506e-02
  -3.83105241e-02  7.74642080e-03 -4.82682027e-02  1.80625543e-02
   5.82239255e-02 -3.44107263e-02 -5.04213274e-02  3.18497717e-02
  -4.28269804e-03 -3.00671682e-02  5.63956127e-02 -5.62399141e-02
   1.41141564e-02 -6.20516166e-02  2.72303373e-02 -4.79389280e-02
   7.82463327e-02 -3.80445085e-02 -6.75980523e-02 -7.11696595e-02
  -7.44870901e-02 -5.54367155e-03  2.87125185e-02 -4.72124480e-02
   2.13946402e-02  7.36002997e-02 -4.44059968e-02  2.27574110e-02
  -2.65962556e-02 -1.22133717e-02 -4.15414348e-02  7.77505264e-02
   2.44656727e-02  1.14724264e-02  6.67127222e-03  1.89954117e-02
   3.12121734e-02  1.54322311e-02 -6.64309412e-03 -7.33459145e-02
  -4.96199504e-02  4.78076562e-02  2.17759088e-02 -7.68759325e-02
  -4.16179933e-02  4.58925217e-03 -5.21451235e-02 -2.67682485e-02]
 [-1.07743368e-02 -7.98625946e-02 -3.12541910e-02  7.09537640e-02
   6.38565347e-02  8.63557309e-03 -7.68294930e-03 -4.07140441e-02
  -5.28676249e-02 -1.12713650e-02  6.93957731e-02  5.85167482e-02
   1.58140287e-02 -1.00810528e-02 -5.55281676e-02  2.49288455e-02
  -4.54215482e-02 -2.94052400e-02 -1.48660690e-02 -3.68694924e-02
   8.24766606e-03  5.56809232e-02  1.17971152e-02  7.65310451e-02
  -6.58778697e-02  5.36400601e-02  2.55507305e-02  7.06427470e-02
   5.23885712e-02 -4.70783375e-02 -2.07185335e-02  4.56346944e-02
   7.20095113e-02  5.91304824e-02 -1.91293880e-02  1.40303820e-02
   1.22415870e-02  7.70533755e-02 -7.77394399e-02  1.72319114e-02
  -9.22346115e-03 -1.56495944e-02  6.67992979e-03  7.06183985e-02
   7.71770850e-02 -3.11914831e-03  7.56266937e-02 -1.73115656e-02
   2.98913866e-02 -6.63771480e-03 -6.38106838e-02  5.34024760e-02
   4.32329178e-02 -6.91547096e-02  1.59018487e-03  2.57082358e-02
  -7.57551566e-02  2.76731625e-02  5.04561439e-02 -4.91921864e-02
  -1.98783427e-02  6.35299757e-02 -4.94279005e-02  4.11115587e-02
  -4.64999676e-02  7.56936297e-02  5.60591593e-02  3.46173197e-02
  -5.41366041e-02 -5.78461513e-02 -3.04094180e-02 -5.41495606e-02
   5.33188805e-02 -2.76992135e-02 -2.70879120e-02 -4.65895794e-02
   5.55200800e-02 -3.52999978e-02 -5.44436574e-02 -6.67630211e-02
   2.23874673e-02 -5.27379587e-02 -2.22680345e-02 -6.75276816e-02
  -4.01636772e-02 -1.20175183e-02  1.78390965e-02 -4.58961092e-02
   3.68494615e-02 -5.27996719e-02 -4.03230637e-03 -6.54777586e-02
   5.86388484e-02 -6.86239302e-02  4.85825911e-02 -1.33388788e-02
  -4.65627201e-02  6.13606796e-02 -7.52809644e-02 -6.66119754e-02
   8.10627267e-02  7.70265236e-02 -3.30257341e-02 -3.54098380e-02
   1.41042173e-02 -6.88326061e-02 -2.98856795e-02 -7.15826526e-02
  -3.79916355e-02 -2.28793360e-02  6.85273781e-02 -2.83301249e-02
  -3.71813439e-02  2.78165042e-02  4.44576517e-02  8.10322538e-02
   4.97217253e-02  7.86670819e-02  5.98065481e-02 -2.85124034e-03
  -2.47404724e-02  6.15350679e-02  4.87705395e-02 -4.12813537e-02
  -7.12616518e-02 -8.00293311e-02  5.25499135e-03 -4.19476628e-03]
 [ 2.19207257e-03 -8.91468674e-03 -3.72286253e-02 -1.72721371e-02
  -4.42944728e-02  3.14320847e-02  4.83291522e-02  4.29313928e-02
   3.88257205e-02  4.81526777e-02  7.77482986e-03  7.85180852e-02
  -6.12913817e-03  2.81921104e-02 -5.43328077e-02 -7.26079941e-03
   7.12653920e-02 -5.68890572e-03 -2.95913294e-02 -6.78900406e-02
  -4.16723154e-02  5.00587150e-02  1.27856880e-02  2.58615911e-02
  -5.95327988e-02 -2.97910385e-02  1.60434395e-02 -3.91730927e-02
  -4.74292673e-02 -4.25136462e-02 -6.13203570e-02 -3.26829255e-02
   2.58933753e-03  4.04319391e-02  7.74334148e-02 -7.80251846e-02
   5.31609282e-02 -3.63136344e-02 -7.56028518e-02  3.65620703e-02
  -7.01623857e-02  3.74759212e-02 -4.98004928e-02  5.35859987e-02
  -3.45117301e-02  4.52214554e-02 -3.41059528e-02  8.00527558e-02
  -2.38942690e-02 -3.74439396e-02  1.40492395e-02  6.56053498e-02
   5.06318286e-02 -4.85957153e-02  8.05684850e-02  4.20249328e-02
  -3.03354301e-02 -3.26303057e-02  7.78645501e-02  1.22948885e-02
   3.69747505e-02 -7.99461529e-02  4.46492508e-02 -5.25835454e-02
   3.71685401e-02 -4.15574051e-02 -6.49808049e-02 -6.53448105e-02
  -6.33576438e-02 -1.45116895e-02 -2.27605999e-02  6.90169409e-02
  -8.41314346e-03 -4.57789004e-02 -2.37910785e-02  1.96462795e-02
   6.56527206e-02  2.84032822e-02  3.83751169e-02  2.87436694e-03
  -6.83667883e-02 -6.77834898e-02 -8.08493793e-03  6.22311980e-03
  -2.26440839e-02  4.02794555e-02  2.32996568e-02 -1.88671984e-02
   3.60021889e-02 -3.68052721e-02  7.83556625e-02  4.02598083e-02
  -1.12385675e-02 -9.25302505e-03  7.03304633e-02  7.23451748e-02
  -1.16563141e-02  5.93703240e-03  5.99187985e-02  7.65543804e-02
   2.52578110e-02  8.02503452e-02 -4.96378206e-02 -5.05963713e-03
  -3.12113389e-02  2.49509513e-02 -4.87713665e-02  7.15134367e-02
   2.12024897e-02  7.86444321e-02  3.94986346e-02  3.28240022e-02
  -2.74482816e-02  1.82652175e-02 -4.95327525e-02 -4.17804159e-02
   5.89199737e-02  4.13484201e-02  6.57759383e-02  5.22996411e-02
  -6.07511699e-02  6.09585568e-02 -6.09817803e-02 -3.79108787e-02
   4.96147349e-02  3.57882529e-02  4.92620245e-02  1.34297162e-02]
 [ 2.67129391e-03 -8.07129592e-02  7.70305917e-02  1.92459226e-02
   3.97785902e-02  2.13237852e-03 -6.61768764e-02 -1.71407908e-02
  -3.41502577e-03  7.47137740e-02  2.49737352e-02  1.33254230e-02
   4.90216687e-02  2.86005363e-02  1.11498460e-02 -5.38826734e-02
  -6.57320023e-02  1.84726790e-02 -5.67933545e-02  2.17507780e-03
   4.19108495e-02 -3.92241813e-02 -2.94223353e-02 -7.63976201e-02
   7.13166371e-02 -3.25571746e-03  6.25548139e-02  6.28955439e-02
   6.62598833e-02 -7.56746754e-02  6.67501613e-02  4.80309203e-02
   6.87686130e-02  2.58266255e-02  4.31835651e-03 -7.48441741e-02
   7.22492263e-02  2.41572410e-03 -3.80195826e-02 -2.44763121e-02
  -4.89482917e-02 -4.43553701e-02 -5.96860573e-02 -8.01309943e-02
  -3.29669863e-02 -7.55557641e-02  4.74114642e-02  4.11167741e-04
  -2.58841217e-02 -1.97890960e-02 -2.10967883e-02 -9.46594030e-03
  -4.87773791e-02  1.24594122e-02 -6.73832819e-02 -3.11420113e-03
   5.13780117e-03  4.95358557e-03  7.57006183e-02  1.89506412e-02
  -5.40971160e-02  6.69705048e-02 -2.30420865e-02 -6.08886033e-03
   3.29559669e-02 -7.51599446e-02 -6.93862662e-02 -8.02447945e-02
   3.91101241e-02 -1.21174008e-03 -4.77047637e-02 -4.52397875e-02
  -5.48189953e-02 -6.37795106e-02  4.21107560e-02  1.28526241e-03
   7.75693879e-02  2.22378448e-02  7.15514049e-02 -5.05004041e-02
   1.56666115e-02  5.10914549e-02 -2.59315223e-03  1.85490102e-02
   1.84004307e-02  3.31085399e-02 -2.62576789e-02  3.30426767e-02
  -4.74250726e-02  4.83581424e-03  4.92280647e-02  5.10391667e-02
  -4.94863428e-02 -2.89370380e-02  5.73395118e-02 -1.56755671e-02
  -6.50219396e-02  3.12633812e-02  6.49681911e-02  7.66559914e-02
  -2.54494548e-02 -3.40548828e-02  6.39179721e-02  6.46735951e-02
   7.36261532e-02  5.53440824e-02 -6.44855350e-02 -3.20144407e-02
  -4.83013093e-02 -5.71547151e-02 -4.33403999e-03 -1.99124329e-02
  -6.20461814e-02  1.12595484e-02 -8.13923776e-03  7.18897358e-02
  -5.68377748e-02 -5.20488024e-02  2.21634135e-02 -3.73981260e-02
   4.08081412e-02  8.76920670e-03  7.32633546e-02  2.48770788e-02
   6.43909648e-02 -5.53603321e-02  6.48864284e-02  3.36384326e-02]
 [-3.33493426e-02  6.84675351e-02  6.64487705e-02 -7.45016336e-02
  -3.47802043e-02  5.27500883e-02  6.68964162e-02 -6.52772635e-02
   6.00830987e-02  1.00998729e-02 -6.64022490e-02  7.72994533e-02
   8.09093788e-02 -6.48827106e-03  2.53004581e-03  9.98612493e-03
  -1.71553940e-02 -1.49435550e-02 -1.12258270e-02 -7.72368759e-02
   1.88522488e-02  3.58802825e-02 -6.71506971e-02  1.57415867e-02
  -5.33380285e-02 -7.99715668e-02 -7.14657903e-02 -8.07304606e-02
  -6.98981658e-02  5.64671382e-02  7.39986971e-02  2.56642699e-03
  -4.98155169e-02  8.47253203e-03  6.44986853e-02  4.30056304e-02
   2.41218805e-02  2.69261450e-02 -1.14112571e-02  5.92518225e-02
   2.99685225e-02  4.57937494e-02  4.03482988e-02 -1.34866238e-02
   4.71011549e-03 -6.37843460e-02 -6.33065179e-02  2.07813978e-02
   4.63476405e-02 -6.79958761e-02  6.50262162e-02 -2.98227929e-02
   2.80684009e-02 -2.35846229e-02 -1.65122971e-02 -3.32185626e-03
  -3.80131602e-02  6.03235289e-02 -6.97559714e-02 -4.93529253e-02
  -4.24116179e-02 -4.83211912e-02 -1.73085928e-02 -3.18852030e-02
   3.34399790e-02  5.32847717e-02  2.66089961e-02 -1.76955685e-02
   1.03187636e-02  5.76576218e-02  3.38189155e-02  2.03119665e-02
   2.82862112e-02  4.45320681e-02  2.55828351e-03 -8.40765238e-03
  -8.29742849e-03  1.76007524e-02  5.27848378e-02  4.86298278e-02
   3.81724089e-02 -7.91772455e-02  1.62487328e-02 -1.64359510e-02
  -5.57139888e-02  7.23107234e-02  7.30682164e-03 -2.95563042e-03
   6.92995638e-03  4.15507555e-02  4.26600948e-02  2.68329754e-02
  -7.50623643e-03  3.08709070e-02  1.45784020e-03 -1.59235820e-02
  -1.24902427e-02 -1.95844583e-02  3.41342241e-02 -3.03463377e-02
  -6.14184216e-02  2.10194364e-02  5.48061207e-02  3.15635502e-02
   6.95130900e-02 -6.01659752e-02 -2.01342627e-02 -1.74936354e-02
  -5.46337143e-02  3.53884101e-02  4.29768190e-02 -7.36354664e-02
  -3.23817320e-02  1.68878287e-02  7.55024031e-02  4.02989686e-02
   3.43476832e-02 -3.69789302e-02  4.55592573e-03  2.47926861e-02
   6.78861141e-03 -6.28650412e-02  3.67796272e-02  5.30738160e-02
   9.06720757e-03  5.91182336e-02 -5.12837395e-02 -5.25654443e-02]
 [-5.96423745e-02 -3.64421159e-02 -2.69006379e-02 -6.03214949e-02
   1.92203373e-02 -6.64572269e-02  9.00774449e-03 -2.75368318e-02
  -6.30979910e-02 -4.06024419e-02  6.31838664e-02 -4.35964391e-02
  -5.43765128e-02  8.33770633e-03 -7.79678077e-02  6.38969466e-02
   7.52965882e-02 -2.00782418e-02  1.62432641e-02  5.14295921e-02
  -1.92976743e-03 -1.38137564e-02  7.31449798e-02  3.53742391e-02
  -6.05563596e-02  6.97484091e-02  4.81074229e-02 -5.52168489e-03
   2.63563395e-02  5.55707738e-02  4.22716141e-03  7.08489791e-02
  -1.61112025e-02  4.09213901e-02 -4.50178981e-02 -1.29214674e-02
   2.35017389e-02 -6.86676502e-02  4.75219712e-02 -2.54795626e-02
  -1.91505812e-02  3.85364741e-02  4.16872278e-02 -6.74514323e-02
  -3.26921120e-02  5.22180870e-02 -9.20549780e-03  8.12237710e-03
   7.86572024e-02 -7.80929476e-02  2.91608423e-02 -2.96848901e-02
   2.94436663e-02  9.41775739e-04 -4.65099514e-03 -3.14920917e-02
  -7.17992410e-02  3.09485123e-02 -4.73148264e-02 -6.00845814e-02
  -2.28116922e-02 -1.18184090e-02  4.40561250e-02 -7.48899654e-02
  -3.24685015e-02 -7.88380504e-02 -6.08252212e-02 -4.53276001e-02
  -7.58403540e-03 -4.10862491e-02 -7.53611997e-02  6.88383654e-02
  -6.22510910e-02 -2.63717547e-02 -2.00055502e-02  3.00511792e-02
   4.15883884e-02  2.45654210e-02 -5.83989024e-02 -1.61290318e-02
  -1.60258636e-02  1.59633905e-03 -2.04842500e-02  1.26447752e-02
   3.40595841e-03  1.50815919e-02  7.53776357e-02 -1.50325522e-02
  -9.94031131e-03  2.29565948e-02  2.65037790e-02  7.66373202e-02
   2.92793438e-02  3.30214426e-02  4.99413088e-02 -3.32780629e-02
  -3.53910998e-02  7.81503692e-02 -1.50492787e-02 -9.82391089e-03
  -3.74739878e-02  3.77840623e-02 -1.44934207e-02 -8.46820325e-03
  -5.40464893e-02 -4.59850281e-02  4.70020398e-02  1.80477202e-02
  -7.44616389e-02 -6.34180754e-02  8.58813524e-04  3.29148695e-02
   7.60652497e-02 -6.78862333e-02  4.92475703e-02  5.14190122e-02
   3.95424366e-02  3.06947008e-02  7.02393875e-02  6.05894104e-02
   7.13144466e-02  5.11773452e-02  3.40947360e-02 -7.70348683e-02
  -5.73973134e-02 -4.31789421e-02  5.38203046e-02  5.84975705e-02]
 [ 7.82457963e-02  4.09740210e-03 -6.71120584e-02 -7.02479407e-02
   5.70560992e-03 -1.60390139e-02  2.08622143e-02 -6.71619773e-02
  -6.42770678e-02 -9.28796828e-04  3.61388326e-02  5.44927940e-02
  -3.64744700e-02 -5.36965802e-02 -7.00787529e-02 -1.25967786e-02
  -5.98082542e-02 -1.67759508e-03  2.90227830e-02 -4.08385247e-02
  -5.32544479e-02  4.25474122e-02  8.54934752e-03 -3.33839208e-02
  -5.34278750e-02 -5.43691665e-02 -6.26769364e-02  1.28307119e-02
  -4.02676016e-02  1.01462081e-02 -5.17287925e-02  1.62572861e-02
   1.39162242e-02 -7.23023266e-02 -6.25821427e-02  6.74188882e-03
  -1.99256241e-02  5.83446026e-03 -6.28305450e-02 -3.61675918e-02
   6.00726902e-03 -3.07867676e-02 -7.80644640e-02 -3.42810415e-02
  -1.36699900e-02  4.59118858e-02 -6.78106546e-02 -7.19075724e-02
  -7.05702603e-03  7.76583627e-02 -6.27600700e-02  1.06339380e-02
  -7.53877163e-02  4.93888333e-02  5.21391854e-02  6.25896975e-02
  -1.38108507e-02 -6.50255531e-02  5.31734601e-02  1.93292871e-02
  -5.99974021e-02 -1.89380534e-02  4.02100310e-02 -5.42590916e-02
   2.52944976e-02 -5.43175898e-02 -4.49855067e-02  1.02417544e-02
   5.09773269e-02  2.84264088e-02 -2.74391472e-03 -5.88437766e-02
   2.53758505e-02  3.23979929e-02  6.32644519e-02  5.49389645e-02
  -2.64477953e-02  3.48304212e-02  4.15936261e-02  2.82645673e-02
   5.10357097e-02 -7.57222846e-02  3.85480374e-02 -1.36116147e-03
  -7.24309832e-02 -6.60081133e-02  1.11626834e-02 -1.33887976e-02
   3.59914377e-02 -1.00857913e-02 -5.82475774e-02  7.55655989e-02
  -7.55894855e-02 -3.65059152e-02  1.04407296e-02 -1.78395808e-02
  -2.63718516e-02  4.71147671e-02 -7.14492351e-02  2.35416740e-02
  -5.01559302e-02 -5.37275784e-02  1.52421221e-02  7.19918087e-02
  -1.07658058e-02  2.52397880e-02 -4.28177416e-02 -1.72515064e-02
   4.97630164e-02 -4.03888710e-02  5.59648201e-02  3.32218632e-02
   2.90158018e-02  4.30911630e-02  3.82956192e-02  7.41605088e-02
   7.96069205e-03 -8.35464895e-03 -6.56184107e-02  2.04907432e-02
   5.89910224e-02 -5.82083240e-02  6.77631572e-02 -3.53586897e-02
  -3.50349657e-02 -4.27675582e-02  2.92753056e-02  6.67037293e-02]
 [ 7.36247227e-02 -2.25054882e-02  6.22392520e-02  1.66746229e-03
  -6.19512126e-02 -6.39235601e-02  2.44825780e-02  1.63515713e-02
   4.88352403e-02 -1.94669310e-02 -3.89667111e-03 -7.19730556e-02
  -6.45483285e-03  2.41760463e-02 -1.93028767e-02 -5.20753711e-02
   4.46550921e-02  1.59000680e-02  6.11528829e-02  3.71186957e-02
  -1.14797205e-02  4.30621430e-02  7.27630630e-02  4.02299389e-02
  -3.60005833e-02  7.65678361e-02 -3.59312780e-02 -7.37222284e-03
   6.78353012e-03  7.59402364e-02 -2.85053998e-03  2.35584378e-02
   5.02480343e-02 -3.48150693e-02 -2.52000690e-02 -6.84020594e-02
  -2.07463987e-02  6.31125038e-03  4.16048914e-02 -7.61780664e-02
   6.67835250e-02 -3.24396044e-03  1.17570981e-02  3.81594524e-02
   4.57243845e-02 -4.14053686e-02  4.84429225e-02 -1.51236923e-02
  -6.52255341e-02  2.05375254e-04  6.53253123e-02 -3.98086235e-02
   4.48103026e-02  4.24256995e-02 -6.73707351e-02 -3.20085026e-02
  -7.49053061e-02  7.57500753e-02 -2.48143240e-03 -4.80036736e-02
  -7.91316852e-02 -5.91486469e-02  8.00924078e-02 -1.10718356e-02
  -2.52493024e-02  1.30574070e-02 -4.28263284e-02  6.52479008e-02
  -7.26847202e-02 -6.31663948e-02 -4.00605462e-02  5.71701163e-03
   5.54530546e-02  5.41285798e-02  2.35658437e-02  7.95297250e-02
   1.44182667e-02 -1.23365875e-02  7.08600953e-02 -4.96708862e-02
  -7.08081722e-02  2.49478351e-02  8.81979614e-03 -5.88224679e-02
   3.00664753e-02  5.97353317e-02  4.85812873e-03 -5.59138730e-02
  -5.70615381e-02 -1.97430290e-02 -4.27695476e-02  2.09311564e-02
  -6.93864934e-03  6.32247403e-02 -3.76244783e-02 -6.00305200e-03
  -4.27918658e-02  6.62447736e-02  4.15736251e-02 -3.94416824e-02
   7.57905245e-02  3.23723331e-02 -3.34232152e-02 -4.35431972e-02
  -1.33972215e-02 -6.64430708e-02  1.88825820e-02 -6.20643198e-02
   6.85751066e-02 -7.74614885e-02 -6.57226220e-02 -5.59417903e-02
   2.51211450e-02 -2.70329118e-02  1.42929927e-02  3.48769501e-02
   5.69676980e-02 -3.51699479e-02 -3.19573730e-02 -9.25397873e-03
   3.73301506e-02  6.50207475e-02 -3.79878990e-02  2.66150907e-02
   5.23191355e-02  3.95624265e-02  6.34197891e-02  1.42035335e-02]
 [ 6.29747510e-02 -1.60743073e-02 -4.56627458e-03  2.22540796e-02
  -3.62183526e-02 -2.51922272e-02 -5.35699353e-02  7.29741827e-02
   3.65714505e-02  2.95925234e-02  5.70418984e-02  9.44099352e-02
   3.76065373e-02  6.95280209e-02  2.28621364e-02  2.39485968e-02
   2.65918449e-02  7.37335309e-02  7.91166052e-02 -7.08455220e-02
   1.59387253e-02  2.62787193e-02 -1.15825981e-02  4.04162519e-02
  -1.60138160e-02 -1.41869634e-02 -4.05232124e-02 -1.00973397e-02
  -2.72056609e-02  7.27061648e-03  1.04634091e-02  1.32641420e-02
   2.99814641e-02  6.29783049e-02  4.36513573e-02  4.75004390e-02
  -4.87976074e-02  3.80908586e-02  1.06519021e-01 -6.51917467e-03
  -3.59198079e-02 -4.68431748e-02  4.96037714e-02 -2.67744176e-02
  -3.64707969e-02 -7.76884854e-02  2.31292099e-02 -8.24189633e-02
   7.65412152e-02  6.46209046e-02  5.70477806e-02  3.29276919e-02
   6.90844059e-02 -6.53446093e-02  5.43944128e-02  3.52892876e-02
  -2.18124054e-02  3.97010297e-02  7.75799304e-02  6.97252974e-02
   6.56615272e-02  5.04170582e-02  1.26626156e-02  3.43594439e-02
   6.80923983e-02  3.83297466e-02 -2.71970741e-02 -6.44052252e-02
  -4.74096425e-02 -3.38361636e-02 -3.15354876e-02 -1.73258763e-02
  -5.37881479e-02  4.39267978e-02 -2.91628130e-02  3.16456184e-02
   1.94439050e-02  4.84663472e-02 -1.53920650e-02 -3.48129235e-02
   3.25606912e-02 -3.79916281e-02  1.62237361e-02  7.33001456e-02
   5.96439317e-02 -3.84556614e-02 -7.64468536e-02  6.71991929e-02
   2.38467753e-02 -2.09782813e-02 -4.31832066e-03 -7.11942278e-03
  -3.95980999e-02 -7.94854760e-03 -3.74717638e-02 -5.18046394e-02
   6.62618652e-02  5.79506531e-02 -5.64994328e-02 -3.13826688e-02
   7.61591569e-02 -6.96954429e-02 -7.59304613e-02  8.05451199e-02
   7.13130133e-03  2.89121672e-04  3.97465974e-02  5.94862886e-02
   2.92945057e-02  3.90366465e-02  5.08322529e-02  4.29156842e-03
   1.58837661e-02 -1.10783502e-02 -5.80049604e-02  4.13772687e-02
  -7.94908404e-03  5.56158051e-02 -2.64207330e-02  2.81369537e-02
  -7.61488080e-03  2.31009126e-02  4.93237823e-02  7.56409839e-02
   3.64134423e-02 -3.65438089e-02 -8.41129050e-02 -4.73803617e-02]
 [ 1.02157183e-02  7.81471357e-02 -1.10669315e-01 -6.06553406e-02
   3.27982381e-02 -1.43388778e-01  6.68847933e-02  1.12506943e-02
   4.37003374e-03  1.15696780e-01  8.04572627e-02  4.04541828e-02
  -1.92026347e-02  5.61377332e-02  2.79131792e-02 -2.47257240e-02
   4.75892760e-02  3.46226543e-02  7.03687919e-03 -2.50866860e-02
  -1.20902710e-01  1.16877183e-02 -2.60964371e-02  1.82417229e-01
   7.59893879e-02  4.09134775e-02 -6.98421896e-03 -1.03259511e-01
   6.97055236e-02 -4.81755175e-02  6.75400123e-02 -8.61307681e-02
   1.11465380e-02  6.73750564e-02 -1.68943033e-02  7.54182115e-02
  -3.22136059e-02  9.79037359e-02  1.35744587e-01  5.69412187e-02
  -6.05428219e-02 -1.83983684e-01  2.95517817e-02 -3.85925956e-02
  -6.26026243e-02  6.73777461e-02 -2.03829203e-02 -1.16034709e-01
   1.64888516e-01 -1.14357024e-02 -3.21746687e-03  3.16836908e-02
  -5.50202169e-02  1.75748989e-01  1.98628053e-01 -7.28638172e-02
   1.22110955e-01 -2.03547589e-02  1.35766715e-01  5.45958951e-02
   5.11857867e-03 -2.73481011e-04 -1.44885659e-01 -1.11301824e-01
  -3.75279635e-02  1.07004665e-01  1.18258372e-02  6.28888980e-03
   1.31248713e-01  5.12422994e-02 -6.73563406e-02  1.29828796e-01
   5.32599352e-03  1.26935318e-02  7.37613067e-02 -3.83969881e-02
   1.26877293e-01 -9.71962735e-02  6.84936251e-03  6.82034716e-02
   5.60368858e-02  6.24425076e-02  2.26219110e-02  1.54148117e-02
   4.79840711e-02 -1.76821500e-01  1.22444108e-02 -8.10064375e-02
  -5.35651669e-02  3.28387506e-02 -9.00807418e-03  1.53568074e-01
   8.59541632e-03  5.26341721e-02 -6.96766675e-02 -5.09443507e-02
   4.12818342e-02 -9.36799198e-02 -7.72043243e-02  1.17850527e-02
   6.24463074e-02 -1.24833427e-01 -8.60295519e-02  4.88695242e-02
  -9.42561850e-02 -1.30512025e-02  5.04991338e-02  1.23041891e-01
  -6.14783913e-02  2.37916280e-02 -6.48728609e-02 -1.20656155e-01
   1.73648819e-02  1.02272183e-02  6.40044513e-04 -7.66017288e-02
  -3.75068188e-03 -4.24612612e-02 -1.91495493e-01  7.88417235e-02
  -8.08691308e-02 -7.17077106e-02  8.16406608e-02  5.80575988e-02
   7.10849613e-02 -1.02038588e-02 -1.28786966e-01  1.68251321e-02]
 [ 1.53879717e-01 -5.09162024e-02  2.53356751e-02 -6.70622140e-02
   5.56735359e-02 -1.36415035e-01 -7.72354892e-03 -7.14294892e-03
   4.10885215e-02  9.82175767e-02  8.39353725e-02  1.35355592e-01
  -8.62377658e-02 -3.13673988e-02  9.92896184e-02  5.40474523e-03
  -1.01267323e-02  6.79904297e-02 -7.30735138e-02 -2.79454533e-02
  -1.87294051e-01 -5.94569370e-02  6.21619597e-02  1.28179640e-01
  -5.51534854e-02  5.07659428e-02  2.55988017e-02 -3.00906077e-02
   3.69193405e-03 -1.13524497e-03  5.67018166e-02 -1.37683436e-01
   1.88369155e-02  4.98149320e-02 -9.68487747e-03  4.78449389e-02
  -5.35080731e-02  1.72681555e-01  1.15823708e-02  5.53361177e-02
  -1.77512467e-02 -6.92416504e-02  8.08841642e-03 -2.63786875e-02
  -9.42313205e-03  9.03438218e-03 -8.30198154e-02 -5.86682633e-02
   1.62600026e-01 -2.44137906e-02 -4.12053242e-02 -1.42553836e-01
  -3.67768593e-02  7.84600452e-02  1.83831707e-01 -5.21878041e-02
   1.49527460e-01 -1.48839727e-02  5.04763685e-02 -6.70096427e-02
   2.80853119e-02 -1.91849023e-02 -1.21123001e-01 -6.32405058e-02
   5.24515398e-02  6.27079308e-02  7.10081682e-02  6.92108944e-02
   1.05313651e-01  9.23209041e-02  6.83440492e-02  1.20752733e-02
  -6.14328962e-03 -3.77354585e-02 -2.16949992e-02 -8.03970769e-02
   1.27278835e-01  3.87433893e-03  3.42242718e-02 -7.82495663e-02
   7.90959299e-02  1.82205901e-01 -1.47135165e-02 -6.18023649e-02
  -7.52631351e-02  5.01063187e-04 -4.17879000e-02  6.45810366e-03
  -4.97635938e-02  7.14001209e-02  5.74238226e-02  1.70989677e-01
  -3.76756862e-03 -7.05907047e-02  2.60273963e-02  2.06836313e-03
  -1.08595937e-02 -1.00765310e-01 -1.84106946e-01 -1.64808780e-02
   1.39905721e-01  4.41281088e-02 -5.53836562e-02  1.00377379e-02
  -1.63967490e-01 -4.99067865e-02  1.04055837e-01  1.30604897e-02
  -6.97322562e-02  6.63822889e-02 -4.40099649e-02 -1.74338460e-01
   2.66877003e-02 -6.45585358e-02 -4.91009280e-02  2.19218358e-02
   5.29258661e-02  5.88346720e-02 -1.18928859e-02  1.65028428e-03
  -4.70526628e-02  7.77668580e-02  1.48563206e-01  6.00529164e-02
   1.31377190e-01 -9.48835686e-02  9.37543716e-03 -1.16197346e-03]
 [ 1.77659720e-01  1.58390903e-03 -4.77032326e-02 -5.96787669e-02
   5.61267436e-02 -4.97394428e-02  1.15819179e-01  2.54427884e-02
  -4.70390506e-02  8.43346678e-03  2.68323086e-02 -3.01322551e-03
  -1.37629300e-01  3.85061838e-02  7.94953555e-02 -2.93682497e-02
   9.29883868e-02  5.58773950e-02 -9.52139497e-02 -1.55455053e-01
   1.66908205e-02  2.93542445e-02  3.02803740e-02  1.31929293e-01
   2.96362936e-02 -4.40247776e-03  3.11936662e-02 -1.07011616e-01
  -6.54178932e-02  6.62904233e-02 -4.55422774e-02 -5.16744815e-02
   2.00281516e-02  7.83234611e-02 -1.11155450e-01 -6.42613973e-03
  -4.02348042e-02  4.32806909e-02  1.57555535e-01 -4.90085295e-05
  -2.08200961e-02 -5.62985055e-02 -3.16508971e-02 -3.80853028e-03
   2.81294417e-02  7.43148476e-02 -1.06357045e-01 -1.84795380e-01
   5.64687774e-02  7.91135803e-02 -6.82753837e-03  2.94307172e-02
  -9.94303972e-02  1.24818154e-01  1.99583516e-01  3.20467539e-02
   1.17722712e-01 -5.61819971e-02  4.27682064e-02  3.56774405e-02
  -1.07948385e-01  4.22410108e-02 -1.45586237e-01 -9.96104851e-02
   6.42986223e-02  1.68031305e-01 -2.51142457e-02  3.70278023e-02
   5.29608987e-02  7.67935961e-02  6.43394515e-02  1.65705830e-01
   2.99446993e-02 -1.31741732e-01 -8.04848224e-02 -1.17348256e-02
   8.38676840e-02  2.79744789e-02 -6.26304522e-02 -6.18159026e-02
   7.13503361e-02  1.82396621e-01  8.32847878e-02 -4.93113883e-02
  -4.90166247e-04 -5.88310845e-02  6.95920363e-02  8.71631503e-03
   2.49629207e-02  4.94369008e-02 -6.20069429e-02  9.82519761e-02
   9.61448159e-03  1.16260454e-01 -3.16050276e-02  5.22872433e-02
  -3.92054841e-02  2.68506575e-02  2.58730166e-02  1.11261010e-03
   1.19128093e-01 -4.84799184e-02 -1.11791387e-01  3.92912924e-02
  -1.80756226e-01  5.47477491e-02  7.81186074e-02  9.29036736e-02
  -8.11764970e-02  1.21207550e-01  4.01588790e-02 -6.01469092e-02
  -5.53813875e-02  5.80920279e-03  4.33942303e-02 -6.14584982e-02
   2.78105270e-02 -8.90857056e-02  1.09380744e-02  6.90711895e-03
   4.95348573e-02  2.76618898e-02  4.48823124e-02  1.21124089e-01
   2.09322013e-02  6.19697422e-02 -1.23790570e-01  1.17187798e-01]
 [ 3.38472992e-01  4.76911254e-02 -4.92511243e-02 -9.19315815e-02
  -3.36665884e-02  3.81886028e-02  5.42326719e-02  9.88579094e-02
   2.09140088e-02  1.76649421e-01  9.11136419e-02  1.40172377e-01
  -1.21053822e-01 -5.04664294e-02  6.49492443e-02  2.12006792e-01
   7.05904141e-02  5.26490808e-03 -7.36193135e-02 -4.44647111e-02
  -5.34580788e-03  3.77395079e-02  6.74205497e-02  4.55214642e-02
  -3.12840492e-02 -8.77142325e-02 -1.55122727e-02  1.39456037e-02
  -9.81017947e-05 -6.54700026e-02 -7.86117390e-02  1.89013351e-02
   5.76333925e-02 -5.46405204e-02  9.54178870e-02 -1.39511693e-02
  -4.29630019e-02  7.38600194e-02  1.49432614e-01  5.04331738e-02
   2.86848322e-02 -1.31474286e-01  4.73179147e-02  7.34188594e-03
  -3.21439579e-02 -1.31457448e-02 -1.70601532e-01 -1.78732008e-01
   3.00484188e-02 -7.64659569e-02  1.18718781e-02 -9.48862582e-02
  -1.16677605e-01  9.12077874e-02  2.19390675e-01 -6.88948780e-02
   1.81902811e-01  9.72320139e-03  1.03247665e-01 -4.07634526e-02
  -2.30682995e-02 -4.38652486e-02 -1.04412653e-01 -9.08060372e-02
  -6.98313001e-04  1.17660433e-01 -3.78395803e-02  3.06812190e-02
   5.05614467e-02  4.57143597e-02  4.48325351e-02  1.69158697e-01
  -1.96930626e-03 -1.50229648e-01  4.93101552e-02  5.92286959e-02
   1.41287416e-01 -6.60751835e-02  1.82498898e-02  3.45525146e-03
   1.30422592e-01  1.62298754e-01  7.80686503e-03 -5.41476458e-02
   6.70238137e-02 -4.99896891e-02 -1.44694373e-02  6.61604628e-02
  -5.64850755e-02 -1.90186948e-02  5.49180582e-02  2.62895167e-01
  -1.12641595e-01  7.09663182e-02  3.15982178e-02  1.41807750e-01
   3.59837040e-02 -5.64824641e-02 -2.26201792e-03 -5.42264692e-02
   1.72048673e-01 -1.06617793e-01 -1.59210980e-01 -7.22155422e-02
  -1.67904541e-01  4.36319001e-02  1.93522587e-01  1.59344137e-01
  -1.16360076e-01  9.44595113e-02  4.13262658e-02 -1.18635625e-01
   4.95522432e-02  7.13446960e-02 -2.89723650e-02 -3.59286331e-02
  -4.49021198e-02 -8.39174464e-02 -4.07679416e-02 -9.85694006e-02
   1.02851368e-01 -4.26409133e-02  2.15929180e-01  3.14098932e-02
   1.79455265e-01 -1.11376718e-01  4.54109870e-02  2.12197611e-03]
 [ 2.73251295e-01 -2.98764203e-02 -1.04495510e-01 -7.71409944e-02
  -4.26449552e-02 -9.90176499e-02  7.47885332e-02  5.02477363e-02
  -2.60503609e-02  1.98845208e-01  1.00289971e-01  1.58565208e-01
  -1.44475967e-01  9.11316462e-03  3.51058803e-02  1.40600458e-01
  -1.41339660e-01 -4.99243550e-02 -4.22225520e-03  6.24733008e-02
  -6.50996640e-02  1.05877593e-02  4.91676852e-02  7.71045610e-02
  -5.97703010e-02 -8.39765891e-02  2.17600167e-03 -5.10800034e-02
  -7.48518258e-02 -5.95557205e-02 -4.92617078e-02 -9.42240208e-02
  -7.88065046e-03  7.32619092e-02  1.55763194e-01 -7.69756362e-02
  -4.88419048e-02  2.21456185e-01  4.51791100e-02 -8.51899534e-02
  -5.95521592e-02 -6.66200742e-02 -7.04379454e-02  1.60037279e-02
  -1.29664183e-01  2.86356499e-03 -1.70283973e-01 -3.22266549e-01
  -1.14444785e-01  4.39424887e-02 -4.85431328e-02 -1.79487035e-01
  -4.58725840e-02  1.39276475e-01  2.22335964e-01 -1.02093585e-01
   1.45517305e-01 -6.32084534e-02  7.89373368e-02 -6.86176643e-02
  -6.17699921e-02 -9.18181241e-02 -9.35358405e-02 -1.03195295e-01
  -1.25047892e-01  2.24921331e-01  2.97381878e-02 -6.93639666e-02
   9.48876366e-02  7.70094916e-02 -6.75850362e-02  5.63660711e-02
  -1.33032948e-02 -9.19847563e-02  6.90449029e-03  3.88795361e-02
   1.30792364e-01 -2.94439569e-02  4.91241366e-02 -2.29208544e-02
   1.28715575e-01  1.07122593e-01 -8.55189003e-03  5.74396625e-02
  -1.23022124e-02 -8.96731392e-02 -3.13149355e-02  5.48021123e-02
  -1.27141729e-01  3.16567980e-02  5.98955452e-02  1.62721351e-01
  -5.53464592e-02  9.62256566e-02  4.44430634e-02  7.41321072e-02
  -5.91663793e-02 -9.41054299e-02 -2.22336084e-01 -1.24350697e-01
   8.41735825e-02 -1.31029353e-01 -1.19350918e-01 -5.64409234e-02
  -1.21320568e-01 -5.84497228e-02  1.88441142e-01  1.27567753e-01
  -9.63484682e-03  4.72232699e-02  1.53982490e-01 -9.59624574e-02
   2.29649097e-02  6.39804676e-02 -1.47675022e-01 -2.99931616e-02
   1.13416091e-01  2.01000297e-03  4.59953817e-03  1.37507487e-02
   5.19034229e-02  3.86240929e-02  1.76974028e-01 -5.59667014e-02
   1.95288137e-01 -8.22655931e-02  2.11702567e-02  9.29999072e-03]
 [ 3.66803668e-02  9.74818692e-02 -9.42923129e-02 -1.65494055e-01
   5.33765033e-02 -1.08964726e-01 -8.77600089e-02  1.08208604e-01
  -1.06299110e-01  1.98029995e-01 -1.74189210e-01  1.66112497e-01
  -1.69411257e-01 -1.36205226e-01  3.41616124e-02  1.50470398e-02
  -1.40802205e-01  4.43909541e-02 -6.71112388e-02  2.53137741e-02
  -2.82070696e-01 -1.76409557e-02  2.25967616e-02  8.19583014e-02
   7.78393121e-03 -9.89656709e-03  1.91472024e-02 -1.06916137e-01
   1.30968988e-02 -1.10225923e-01  3.98161858e-02 -7.73446634e-02
  -6.01151735e-02  8.00644085e-02  9.56991687e-02 -5.59056960e-02
   1.79602876e-01  3.15012008e-01  1.76531926e-01 -2.07443678e-04
   4.70971093e-02 -8.14623386e-03  1.45429060e-01  5.40546030e-02
  -2.95884572e-02  4.35528941e-02  2.84520704e-02 -4.64434661e-02
  -1.76490933e-01  5.47504351e-02 -6.10105433e-02 -2.26460472e-01
   3.66126746e-02  4.33437899e-02  1.77467763e-02 -2.19604615e-02
   1.03423156e-01 -1.61590531e-01  3.14097106e-02  2.41881311e-02
  -2.52410304e-02 -9.31233317e-02 -4.53524739e-02 -7.60980472e-02
  -1.14951156e-01  1.43140793e-01  3.86327468e-02  9.54201538e-03
  -3.35674249e-02  7.51687810e-02 -5.21954633e-02  1.12575859e-01
   8.45106095e-02 -7.13837817e-02  4.73724082e-02 -8.70665535e-02
   1.08642794e-01 -2.34644748e-02 -2.30013374e-02  5.99488392e-02
   1.16820417e-01  2.22833946e-01  8.21647421e-02  7.51803741e-02
   1.23451196e-01 -1.95123225e-01  2.81244516e-03  4.15754318e-03
  -4.60818335e-02  1.53691441e-01  1.12020209e-01  9.29053724e-02
  -2.11454332e-01  1.45974979e-01  2.24839449e-02  2.25588400e-02
   1.57092437e-02 -8.69140178e-02 -1.53509945e-01 -8.47221464e-02
   7.56582990e-02 -3.37606966e-02 -9.77198333e-02 -1.33743361e-01
  -2.80100912e-01 -1.58055186e-01 -1.80834439e-02  1.58418745e-01
   2.78578922e-02  5.34770526e-02  4.39053066e-02  2.85932776e-02
  -1.77083105e-01  7.32421353e-02 -1.84499368e-01 -4.64133695e-02
  -1.52801219e-02  9.35690030e-02 -1.57586530e-01 -3.38691920e-02
  -7.98222795e-02 -1.47594959e-02  9.38695595e-02  4.92988937e-02
   6.09593093e-02 -2.40794688e-01  2.66437419e-03 -2.55220011e-02]
 [ 4.41022916e-03 -2.09425688e-02 -1.70485795e-01 -1.45480067e-01
  -1.09298572e-01 -8.19678530e-02 -2.37763952e-02  1.04182795e-01
  -1.41475555e-02  2.29231983e-01 -1.47940949e-01  1.58800736e-01
  -2.20044538e-01 -8.76562893e-02  1.00486860e-01  1.37361720e-01
  -9.37253684e-02 -4.82591726e-02 -2.04533830e-01 -2.67906785e-02
  -1.78653434e-01 -2.81324126e-02  4.68411967e-02  1.36835277e-01
   1.84681296e-01 -7.55323693e-02 -3.68443169e-02 -1.76218804e-02
  -4.69137691e-02 -1.48951843e-01 -7.50057995e-02 -7.36551778e-03
  -4.68966141e-02 -2.17780955e-02  4.32048216e-02  3.03852465e-02
   1.05749890e-01  3.14390212e-01  1.09671779e-01 -6.16514683e-02
  -5.49044907e-02 -5.28051518e-02  1.17542505e-01  1.18067436e-01
  -2.83441339e-02  2.44123228e-02 -8.71311203e-02 -1.02781780e-01
  -8.86252075e-02  6.74062297e-02 -9.10128951e-02 -1.25586987e-01
  -7.70455524e-02  1.34236604e-01  5.11125363e-02 -1.05637945e-01
   1.45797968e-01 -4.47531007e-02  3.26590091e-02 -1.04086101e-02
  -2.92721558e-02 -1.29348785e-01 -1.60734668e-01 -1.02212213e-01
  -2.10271731e-01  9.25959274e-02 -1.06570818e-01  1.07462360e-02
  -3.83106805e-02  1.40857711e-01  3.67287695e-02  6.34999722e-02
  -6.41604140e-02 -8.71877372e-02 -4.78133559e-03  2.42247246e-03
   1.86692804e-01 -1.57628968e-01  2.36305185e-02  2.90113762e-02
   1.10629424e-01  1.99161142e-01 -6.12556860e-02 -4.55802381e-02
   1.05611030e-02 -9.35122222e-02 -2.95105539e-02 -3.83717716e-02
  -6.31464943e-02  2.59714909e-02  2.01333672e-01  1.55608609e-01
  -2.12576032e-01  9.38670263e-02  1.82056203e-02  5.89995086e-02
   1.74166020e-02 -1.46058828e-01 -3.56288135e-01  1.77824572e-01
   1.58110052e-01 -7.56722689e-02 -3.61343473e-02 -1.53365225e-01
  -1.83794588e-01 -1.09541871e-01  3.70738469e-02  1.21797994e-01
  -2.51435041e-02  1.87324151e-01  7.58175254e-02 -2.19588161e-01
  -1.01576872e-01  2.06892118e-02 -1.03065297e-01  2.78772488e-02
  -9.84493364e-03 -6.85722334e-03 -1.52766541e-01  3.11778411e-02
  -5.39292768e-02 -5.59914559e-02  6.12731650e-02 -9.00620036e-03
  -6.08620122e-02 -1.81452006e-01  2.31691282e-02  2.93168612e-02]
 [ 1.23972289e-01 -3.00291777e-02  5.94550520e-02 -2.36613229e-01
   2.82565085e-03 -1.13256471e-02  4.46589813e-02  8.26840922e-02
  -4.00875807e-02  2.78943449e-01 -1.09023027e-01  2.14342043e-01
  -1.26635224e-01 -1.32849753e-01  7.52016604e-02  1.89008519e-01
   2.47944985e-02  1.19314790e-02 -2.31062919e-01  1.49975214e-02
  -2.29958177e-01  2.85877287e-02 -6.69513792e-02  2.02160940e-01
   2.08604168e-02  1.04251064e-01 -4.84032258e-02  7.63118220e-03
  -3.69982980e-02 -6.25753626e-02 -5.30134737e-02 -2.11312324e-02
   2.47521922e-02  3.14438045e-02  1.00086562e-01 -3.84647772e-02
   5.79741448e-02  3.63974512e-01  1.39432415e-01 -7.31753781e-02
   6.04195520e-02 -5.69980443e-02  1.51069492e-01  5.97686581e-02
  -3.45561169e-02 -3.93141881e-02 -9.33832601e-02 -1.63450286e-01
   1.66073978e-01  5.20497933e-02 -1.17926277e-01 -3.88123840e-02
  -4.68663685e-02  1.15759984e-01  8.57273564e-02 -1.49089899e-02
   6.76113516e-02  1.87278762e-01  1.87753022e-01  4.49234471e-02
   3.07632089e-02 -5.44655435e-02 -1.00708589e-01 -2.08867431e-01
  -1.92432255e-01  1.39175594e-01 -5.81149831e-02 -2.69555449e-02
   9.42533389e-02  1.28518850e-01 -7.58101568e-02  1.36875123e-01
   5.26675489e-03 -2.29227450e-02 -7.96816275e-02  7.46427998e-02
   5.08497283e-02 -1.33955359e-01 -2.87174396e-02  5.89422062e-02
   7.34843612e-02  1.11692727e-01 -1.64850131e-02  6.92919865e-02
   4.54675481e-02 -7.59188309e-02  1.40074641e-02  4.56987098e-02
  -2.31897887e-02  7.02156574e-02  1.33138508e-01  1.69278398e-01
  -1.37514517e-01  3.36637050e-02  5.85382059e-02  1.11254536e-01
   4.90101092e-02 -5.08228578e-02 -3.16333592e-01  1.33704752e-01
   2.02561244e-01 -8.98859128e-02 -3.60623300e-02  3.34243178e-02
  -5.07470183e-02 -4.55921143e-02  9.31249335e-02  1.73829287e-01
   3.58659700e-02  2.93015856e-02  5.58911078e-02 -1.27817169e-01
  -1.51424870e-01  1.43594965e-02 -2.04773769e-01 -1.43383574e-02
   3.43712009e-02  1.78008676e-02 -1.45601630e-01  5.29094301e-02
  -5.51774949e-02  7.81479254e-02  1.41598374e-01  1.05719313e-01
   4.29190462e-03 -1.75466284e-01 -3.44427675e-02 -7.02962875e-02]
 [ 3.22966993e-01  1.16650015e-01 -1.23523138e-01 -1.03672102e-01
  -1.09789468e-01 -1.86570898e-01  1.87853947e-01  2.33080149e-01
   5.20120710e-02  2.75150716e-01  5.69337495e-02  3.50409709e-02
   1.59449950e-01 -1.14291415e-01  1.46799192e-01  3.21172953e-01
  -1.52350113e-01  2.57600844e-02 -1.72557339e-01  2.47404501e-01
  -1.10110201e-01 -5.89131825e-02  2.91890204e-02  2.07860991e-01
   1.12741925e-01 -1.57324746e-02 -4.73643988e-02 -1.25866249e-01
  -8.98748860e-02  3.09273880e-02  7.44136646e-02  4.39175852e-02
   1.58339292e-02  1.60351396e-03 -7.05410019e-02  9.07845795e-02
  -1.33242741e-01  3.19696009e-01 -1.14330640e-02 -5.81979267e-02
  -7.84902126e-02  1.32126480e-01 -2.69510783e-02  1.34787992e-01
  -5.99998385e-02 -2.93488745e-02 -2.90956140e-01 -1.61092162e-01
   2.64737725e-01 -2.70909667e-02 -7.96148330e-02  5.94065003e-02
  -2.27532253e-01  1.41379669e-01  2.19114974e-01 -1.25196636e-01
   1.89669013e-01 -1.33467853e-01 -2.62723351e-03  1.00679472e-02
   9.88720283e-02 -8.74663815e-02 -7.48406798e-02 -1.01758286e-01
   5.29531091e-02  5.93397617e-02 -2.82992050e-02 -8.94526765e-02
   2.38399461e-01  1.09999605e-01  5.93845174e-02  5.34384288e-02
   3.35510634e-03  6.27477840e-02 -5.90722188e-02  1.77793242e-02
  -6.46876544e-02 -2.25190476e-01  2.03814626e-01  3.76019701e-02
   6.62696958e-02 -2.15529632e-02  4.20224518e-02 -7.69225955e-02
  -8.95904750e-03 -6.40012920e-02 -1.97377503e-02  2.78695077e-02
   1.23247035e-01  1.64897535e-02 -3.30449864e-02  1.80178791e-01
  -1.07179888e-01  9.16182324e-02  5.85134327e-03  3.24631631e-01
  -2.86827460e-02  9.79183242e-02 -3.41497362e-02  1.37332886e-01
  -7.16059685e-06  5.03446162e-02 -1.58520281e-01 -7.93655217e-02
  -1.09528966e-01 -2.20806703e-01  3.48569691e-01  4.32849713e-02
  -1.88125521e-02  1.48500632e-02  7.82872066e-02 -2.17363387e-01
   6.01715334e-02  3.40173468e-02 -1.89200938e-01 -5.73885888e-02
  -6.38841912e-02  4.56990674e-02 -1.60706025e-02 -1.68842629e-01
  -2.35347617e-02  7.51104727e-02  1.49609342e-01 -2.59908047e-02
  -1.69905031e-03 -2.60402650e-01  5.58901727e-02 -1.08691249e-02]
 [-1.22423373e-01  6.17154390e-02 -1.18196215e-02 -1.03188433e-01
   5.45228049e-02 -6.58584312e-02  2.67113686e-01  2.70642430e-01
   3.79416533e-02  3.02573979e-01  2.88583457e-01  1.37023805e-02
   4.54764962e-02 -2.10680068e-01  4.00260538e-02 -4.32309210e-02
  -1.34471869e-02 -1.36416778e-02 -1.94564879e-01 -9.39937755e-02
   9.98219773e-02  3.16696987e-02  5.61508760e-02  2.51994848e-01
   3.30090642e-01  1.15870051e-02 -4.56290767e-02 -2.10571930e-01
  -8.72678496e-03 -1.47631794e-01 -1.08863637e-02 -2.71956455e-02
   7.60461763e-02 -6.26627803e-02  5.99823408e-02  5.53152785e-02
   9.06277150e-02  5.73214352e-01  8.13303888e-02  2.32942752e-03
  -7.31049255e-02  1.09818310e-01 -1.90152451e-01  8.58153030e-02
  -2.32839473e-02  4.67299968e-02 -1.85718387e-01 -3.46508414e-01
   1.06291352e-02  2.92033479e-02 -5.43196276e-02  3.23583871e-01
  -1.28369763e-01  1.34042308e-01  1.41854465e-01 -2.10063845e-01
   1.96403131e-01 -2.35406756e-02 -9.62579325e-02  1.01509020e-02
   1.46013685e-02  1.53319789e-02  1.26281362e-02 -9.93487909e-02
  -9.07401890e-02  1.16541229e-01 -8.86195675e-02  1.11639276e-01
   3.77292126e-01  3.07464451e-01 -3.12165618e-02  1.96168751e-01
  -7.44459704e-02  6.13969229e-02  1.95854455e-02  4.52881679e-02
   1.77452251e-01 -2.20515639e-01  1.25683874e-01  4.96204123e-02
   3.61650027e-02  1.63048014e-01 -9.98820961e-02  4.99857962e-03
   9.12293270e-02 -1.50019139e-01  1.24758109e-02  3.44179422e-02
   9.00944099e-02 -8.85300785e-02  7.37140179e-02  2.29696766e-01
  -7.07766116e-02  8.82561430e-02  6.43569231e-03  2.18562230e-01
   1.75396055e-02  1.22124024e-01 -3.90304700e-02  2.52672821e-01
   2.03683108e-01 -2.65241325e-01 -8.72824043e-02 -5.88482469e-02
  -3.08776557e-01 -2.18530774e-01 -1.00818492e-01  3.93366441e-02
  -1.96851455e-02  1.41079575e-01 -8.20822641e-02  6.26405850e-02
  -1.61663052e-02 -7.70723522e-02 -1.79592207e-01 -2.26064771e-03
   3.38606983e-02  6.69519901e-02 -1.82588294e-01 -1.04848012e-01
   2.42513162e-03  4.79981564e-02 -1.98821761e-02 -2.62815524e-02
  -1.06013276e-01 -7.45321885e-02 -1.46076113e-01  9.97380242e-02]
 [-1.11515991e-01  3.95539813e-02  2.35189810e-01 -2.32683405e-01
   1.89621881e-01 -1.11689627e-01  1.46932118e-02  2.07724467e-01
  -1.45657852e-01  2.20909491e-01  1.65782452e-01  8.56646225e-02
   7.10627362e-02 -2.02481836e-01 -4.89273928e-02 -3.79427969e-02
  -2.51034889e-02  7.36219361e-02 -1.80926889e-01 -1.96397617e-01
   6.20902553e-02 -6.20328560e-02  6.62885979e-02  2.87091434e-01
   2.62995183e-01 -1.81482863e-02 -9.61415097e-02 -9.81014222e-02
   4.88036573e-02 -1.89544395e-01  8.08555856e-02 -6.65112538e-03
   1.40808150e-02  1.84755772e-02  1.53435245e-01  6.69633746e-02
  -2.51711700e-02  3.12997878e-01  3.07035029e-01 -1.26273632e-01
   4.97828349e-02 -1.90456912e-01 -2.33723372e-01 -2.56727263e-02
  -1.76571980e-02 -1.39155075e-01 -5.95633462e-02 -1.44439176e-01
  -4.29528654e-02 -6.15227148e-02 -4.00062427e-02  9.18948427e-02
   1.31912727e-03  8.26357752e-02  3.17068040e-01 -2.01602787e-01
   1.29585832e-01 -2.16831081e-02  7.56683666e-03  1.80594027e-02
  -1.31197691e-01 -5.63114462e-03  2.48699449e-02  3.59783694e-03
  -1.43151134e-01  2.36496907e-02  7.84889515e-03  1.77609891e-01
   1.84460700e-01  3.25821847e-01 -5.85828871e-02  3.45803320e-01
  -1.96580917e-01  1.87863678e-01 -8.70303065e-03 -4.78173792e-02
   1.43996954e-01 -1.82144400e-02 -1.43001929e-01  6.83833435e-02
  -4.25126813e-02  2.54040807e-01 -9.60622430e-02 -1.40489638e-02
   3.91263105e-02  7.72007853e-02 -6.09362572e-02 -3.66855413e-03
   5.31284399e-02 -2.12724090e-01  2.04179481e-01  2.08622351e-01
  -2.75676876e-01  1.86208054e-01 -4.68217954e-02  2.06762701e-01
  -2.06185132e-02  1.68667808e-01 -2.27645218e-01  1.77064180e-01
   3.66202086e-01 -4.87994552e-02 -3.14776972e-02 -2.29972415e-02
  -3.28877896e-01 -1.54584154e-01 -1.23636425e-01  2.90306002e-01
  -6.49245903e-02  2.94220269e-01  5.63371927e-03  2.33169720e-01
  -4.58469205e-02  3.13860029e-02 -1.84812129e-01 -1.33698657e-02
   1.34387091e-01  1.55312479e-01 -1.85551986e-01  6.26661479e-02
   1.30107701e-01  1.38595011e-02 -3.01411320e-02 -1.42376408e-01
   5.73601909e-02  3.78081501e-02 -1.32901460e-01  1.44082606e-01]
 [-4.23790924e-02 -1.25048280e-01  1.12610109e-01 -1.82167292e-01
   1.65709317e-01 -1.90979481e-01  1.05886266e-01  1.43402040e-01
  -2.00437129e-01  1.96635753e-01  2.16358155e-01  2.33555794e-01
  -1.48311123e-01  6.70117512e-02  1.76733121e-01  5.36404736e-02
  -6.36968110e-03 -2.24176347e-02 -2.68512428e-01 -1.07441269e-01
  -5.37258200e-03  7.88578615e-02 -5.03767133e-02  1.79625764e-01
   2.43643090e-01 -3.49369198e-02  4.80624773e-02 -2.25329056e-01
   4.57051508e-02 -1.79501057e-01  2.55841762e-03  1.37139969e-02
  -7.12142363e-02 -4.07387987e-02  2.41931304e-01  1.59833655e-02
   5.97844943e-02  3.38966995e-01  2.73615956e-01  2.14512125e-02
  -4.95902449e-02 -2.46107280e-01 -1.88889503e-01 -1.34788021e-01
   4.85652313e-02 -2.75837034e-01 -1.54531330e-01 -2.05885038e-01
  -1.70798320e-02  1.58747360e-02  4.59301807e-02  1.00416847e-01
  -8.50076899e-02  3.66950810e-01  3.17094594e-01 -2.67582685e-01
   2.16606036e-01  1.43003594e-02  1.27423465e-01  3.83254364e-02
  -8.44826028e-02 -7.28241876e-02 -1.35163233e-01 -1.14207149e-01
  -1.26974925e-01  1.28650725e-01 -4.02724817e-02  9.63396356e-02
   1.43932253e-02  1.68015614e-01 -6.56939298e-02  2.60096818e-01
  -1.73560679e-01  9.47844610e-02 -6.64170608e-02  4.57246229e-02
   1.73255146e-01 -1.19337507e-01 -7.87105635e-02 -5.91335818e-02
   9.83935893e-02  3.45067292e-01 -9.88216177e-02 -5.98061867e-02
   1.24429293e-01  4.96069007e-02 -7.36576319e-02  4.16786373e-02
  -7.70544708e-02 -8.96607712e-02  3.32746595e-01  1.87262982e-01
  -1.46495089e-01  1.91651776e-01 -6.98038563e-02  6.82145581e-02
   4.50547561e-02 -5.84362261e-02 -4.20616925e-01  5.04539311e-02
   3.46727401e-01 -2.26237923e-01 -8.09745416e-02 -2.27786787e-02
  -3.33783031e-01  1.28867263e-02  2.01289970e-02  3.02590191e-01
   6.25394583e-02  3.95572573e-01 -1.13765955e-01  4.32103639e-03
   3.50069106e-02 -7.02975839e-02 -2.63909757e-01 -1.67729408e-02
  -2.22085211e-02  4.18440141e-02 -2.21072063e-01  1.33769080e-01
   2.13430718e-01  4.87290509e-03  8.08759183e-02  1.15029760e-01
   1.14311107e-01 -1.78826470e-02 -1.36674389e-01  4.28929776e-02]
 [ 2.98160583e-01  8.68975222e-02 -1.69356368e-04 -2.60523438e-01
   3.52995507e-02 -1.45990372e-01 -1.03778550e-02  1.02321386e-01
  -2.93241031e-02  2.08551332e-01  2.93410212e-01  3.90402675e-01
  -1.63775712e-01  3.59276384e-02  2.23568916e-01  3.19553584e-01
  -5.71886487e-02 -6.06713220e-02 -1.11515984e-01  2.62018025e-01
   1.68752391e-02 -4.94453833e-02  3.93121541e-02  2.88748771e-01
   2.04662383e-01 -2.64396220e-01 -3.81760225e-02  8.81804712e-03
   4.68759052e-02 -1.14800677e-01 -6.64503798e-02 -1.35070309e-02
   3.20688933e-02  1.63004249e-02  1.47027895e-01 -7.73083568e-02
   1.85203671e-01  3.03962380e-01  2.07246467e-01 -2.39595063e-02
   1.24122128e-02 -9.95684937e-02  3.53135131e-02  1.11108869e-01
  -3.25902961e-02  1.08077645e-01 -1.48742020e-01 -1.18825741e-01
   1.31115302e-01  2.43260711e-02  3.33484337e-02 -1.20727628e-01
  -1.43664107e-01  3.47618014e-01  2.29538351e-01 -1.58492491e-01
   3.99568856e-01 -1.21115081e-01  3.09906334e-01  3.99821252e-03
   7.40163028e-02 -1.13808632e-01 -1.87592000e-01 -8.12292285e-03
  -1.25768721e-01  1.43022195e-01 -1.29305631e-01 -3.13522331e-02
   5.09984568e-02  1.65603697e-01  7.74752572e-02  1.68428436e-01
   1.06003962e-01  2.86668409e-02  4.34143096e-03 -3.78708206e-02
   2.60782421e-01 -1.72461346e-01  4.03408259e-01 -4.19664308e-02
   4.00441766e-01  3.90386760e-01 -8.19512904e-02  6.53491393e-02
   4.19590659e-02 -3.31136882e-01 -2.24653818e-02  5.11851385e-02
  -1.84613124e-01  2.29033023e-01  6.26557395e-02  3.33761305e-01
  -1.03198588e-01 -1.38888478e-01 -7.19813108e-02  7.06062012e-04
  -4.16006669e-02 -1.27775609e-01 -2.99808860e-01  3.64332259e-01
   3.23811322e-01 -2.17519283e-01 -2.54803449e-02  4.76948842e-02
  -3.28457385e-01 -2.75809411e-02  3.08981031e-01  1.41579151e-01
   4.14799171e-04  3.68601322e-01 -6.00106791e-02 -3.14929932e-01
  -1.20302606e-02  7.71863833e-02  4.89751771e-02  5.03772125e-02
   1.22149095e-01  3.46807577e-02 -1.27058506e-01 -6.40581548e-02
   2.77146162e-03 -4.10610512e-02  3.53721648e-01 -4.13311087e-02
   3.77723366e-01 -3.35371137e-01 -8.75673145e-02 -3.81085500e-02]
 [ 2.41141528e-01  5.05042598e-02 -6.39169365e-02 -2.70667762e-01
   3.93038541e-02 -1.15038417e-01  8.77916813e-04  1.62118927e-01
  -1.16593414e-03  1.93989873e-01  1.45242706e-01  2.23402381e-01
  -5.90469688e-02 -7.04611093e-02  1.65636942e-01  1.77073777e-01
   8.09525698e-02  1.91942304e-02 -1.91219851e-01 -1.72896385e-02
   4.21853215e-02  6.33245930e-02 -4.23300266e-03  1.67381048e-01
   2.22380340e-01 -1.28028139e-01  6.15633689e-02 -1.25376105e-01
  -1.02817826e-02 -2.40513742e-01 -2.52602659e-02 -9.76327583e-02
  -5.55217117e-02 -1.81444287e-02  2.50988215e-01 -5.21973595e-02
